solver_type L2R_LR
nr_class 2
label 1 -1
nr_feature 6440
bias -1
w
-0.5394473288718975 
-7.984873743902175 
-42.63436471190292 
-67.54550171661835 
6.496623468018135 
44.34827338100536 
-30.58677689062418 
-1.111525263989577 
-14.41146789054843 
-63.50422175676878 
-70.49429064047325 
27.57141582169999 
35.15525925498699 
-12.55328630298576 
-0.2267116170313135 
-2.95788139218096 
-15.16873601224147 
-27.02890915769994 
-1.707245619526936 
20.05388082148683 
-42.0923828466003 
-0.05130569871545165 
-0.5677620596123789 
-2.546068215144131 
-4.514610454762622 
-2.752791397490483 
4.342646797272978 
23.39323515512159 
-0.1861673609422388 
-2.861709929521841 
-15.62429972602941 
-22.53854991845366 
5.771424921881998 
-10.81809381311284 
-7.432138522464891 
-0.5956607706188457 
-7.945083406280378 
-40.38264265348985 
-67.81885458778763 
-18.0793965072056 
30.10439397632718 
1.306716836408612 
-0.1707655325050909 
-2.919770583230142 
-17.96467528637077 
-30.9992398129753 
3.374198113237521 
-8.721029596242603 
-45.28259945188723 
-0.05745254088390896 
-1.349208309698484 
-11.33985084179965 
-28.6095178254464 
-9.238737995407766 
-4.902967897602252 
-18.44369218038445 
-0.2009882154984793 
-2.799794986489594 
-14.42676531338889 
-22.65050937755011 
12.7029350626567 
40.49224552490243 
-42.06584497565239 
-0.7537148295460651 
-6.8744363521299 
-15.40092302465535 
11.6578970928601 
15.9036156503591 
-35.04386639593275 
-15.37791778584593 
-0.009820427351530886 
-0.2096473304682953 
-1.743360462675499 
-5.119850408977336 
-3.487956146938793 
0.5240008657749071 
-7.825721970305091 
-0.06318913258518884 
-0.4961289622673883 
-1.705483782374708 
-2.658659667236724 
-1.416482211377647 
0.2868884017703725 
-4.405431175083481 
-0.01446431793635874 
-0.2703230421905199 
-1.999847044469423 
-5.527770380840591 
-2.632590520251333 
6.17944419757553 
-4.057598196655068 
-0.03094747657583425 
-0.4356182543229395 
-2.390247798832105 
-4.301892804943244 
-1.273789232211882 
-2.251384577824023 
-8.149932373903285 
-0.406840539983056 
-5.16270439078963 
-23.67018073138507 
-28.47080215850473 
20.27729197840817 
38.53530807957513 
-15.09695405956471 
-0.5636781117608958 
-6.291365492818498 
-25.45427873426193 
-38.53781793387108 
-16.79284261666097 
40.81255580429637 
-11.92888553811952 
-0.0133703483294461 
-0.1369689469805392 
-0.5983640912447561 
-1.414827072573396 
-3.371173261620021 
-8.655190981159823 
-13.80839094978511 
-0.009838599595354488 
-0.1618228234128613 
-1.236795718799137 
-4.239898187655413 
-6.142749451229521 
-4.432944809375118 
-4.205353589345705 
-0.0007433494676785749 
-0.02121478456330506 
-0.2271556720490867 
-0.9017376203500729 
-1.204273047042072 
-0.7701040196068328 
-1.69153743015669 
-0.0002665177756503905 
-0.01030782536385095 
-0.1601522554697146 
-1.030958758560779 
-2.13682814711304 
0.8824888342748191 
1.651842269372544 
-0.1022149454733792 
-1.633725282032666 
-10.87524534003168 
-27.32811256777897 
-17.37571731392318 
2.056809201891534 
-20.50250006712467 
-0.2508117872463832 
-2.123694686138125 
-3.813649503164108 
2.240760250555107 
-8.54223233132382 
-12.82050657986101 
-0.7032937653103493 
-0.1974090125526778 
-2.053248462386922 
-7.96163128258492 
-9.391505805854992 
0.1380757325675344 
-1.555573007963898 
-7.53321087019903 
-0.0803391273253027 
-0.604779463652956 
-1.993359701102258 
-3.457359826954568 
-2.192573519719375 
0.09839185046976817 
-11.66836581474171 
-4.124263526286402 
-25.44953238507833 
-38.28528894942148 
27.66022305848871 
-5.615890639589217 
-55.6727035196614 
14.44274616712586 
-3.540069023274885 
-27.87585900657136 
-63.25206651133624 
-2.144255335962406 
0.7789758241719421 
-57.69081602996093 
12.21310616176429 
-0.835210247104925 
-7.328647680464567 
-19.31648319007075 
-1.038479392846546 
22.94298132080517 
-1.595970852747418 
-27.1380201485963 
-0.03042197425668806 
-0.3451411426782468 
-1.295779287844422 
-0.129353300644319 
3.886088422496115 
1.316901206164071 
-0.2005788047742977 
-0.09575178120807355 
-1.207484641294055 
-5.650543739777075 
-6.763962885350348 
2.739832818438391 
-3.148222064149883 
-14.85748819186155 
-0.1453021784899794 
-1.64309208619671 
-6.860120737632423 
-8.285999402583315 
14.35594244867197 
31.41767752341886 
-22.01812898877161 
-0.05838597738827893 
-0.7677631985480965 
-4.332001887281482 
-8.134177958454295 
-0.9589115199881422 
-3.555268267767817 
-22.8532427207965 
-0.05163030081483012 
-1.109428847640767 
-8.860720983086194 
-21.12188987247906 
-2.315634785622998 
-3.213976692669273 
-42.01459210897534 
0 
0 
0 
0 
0 
0 
0 
-0.04620183425695674 
-1.00382669795286 
-7.606910519056363 
-15.56626897650356 
6.976447330359645 
8.322457060037657 
-48.22460532504333 
-0.5841114192923866 
-5.167814351050561 
-14.81470801525051 
-4.662812771434182 
18.81833872952031 
2.414915625768989 
-39.58511153578544 
-0.4430822819572465 
-4.976865307234586 
-22.37768123492821 
-33.01244095309717 
8.479960425579955 
17.83471707389011 
-51.27129269286851 
-0.01524449856288228 
-0.2104132401415736 
-1.078744200415666 
-1.942131868448254 
-0.8514226544502302 
-1.018099490439294 
-10.45706337843479 
-0.01162177041636633 
-0.2007633201926537 
-1.336523914513721 
-2.938795441045258 
0.2679006606139422 
4.433755344254597 
-4.12860148305224 
-0.008415848580235226 
-0.1082701357264635 
-0.4606479095046761 
-0.4269622435699695 
0.3778174310534999 
-0.4755273754824528 
-2.880907143156853 
0 
0 
0 
0 
0 
0 
0 
-2.835978883395495 
-26.50334524415597 
-84.2464011047318 
-57.05861891983074 
32.92279696584867 
-15.97663034096624 
-56.43320816610502 
-6.534994566904559 
-64.95151774084015 
-201.690691845585 
-75.24121182961466 
142.5499751393637 
-41.3360848206677 
-13.8121540501329 
-1.778118101548319 
-17.59474781487404 
-59.2936889137762 
-40.05935677020789 
35.79426316728718 
-3.657468833429752 
-43.7186817104667 
-0.3224958412678113 
-2.817317175413926 
-6.438559092852228 
7.034416535822793 
22.05575614478384 
4.033963098703111 
-5.98485616017667 
-0.6428976369761464 
-7.604232375419887 
-30.35279199024677 
-22.34567413564126 
36.42090672817368 
4.638033248841756 
-21.12842889692163 
-5.549560130426651 
-58.21676219027364 
-201.9714866166971 
-121.2489710255242 
145.7037078095063 
-19.44995945183268 
-1.054016271766839 
-0.2868912019995498 
-3.273380885681895 
-12.92244037202788 
-11.93738070143697 
10.65890226706563 
0.4496836913496902 
-22.29131539109526 
-0.08918607603399414 
-1.006521332882581 
-4.450498615736452 
-6.109293044917554 
3.977186381691866 
10.24513681146987 
-30.49389812216581 
-0.8937452317990284 
-7.608319378805546 
-25.54017711905833 
-31.4471807960831 
-12.16331286332257 
10.04473862522774 
-12.34820826667433 
-2.185114052563544 
-20.44915194155199 
-63.32299653422229 
-29.79552435397133 
44.78442135589816 
-23.38404448160987 
-19.63689930239616 
-0.02462793073695282 
-0.3484644079202528 
-2.074828750131596 
-6.378234668124854 
-13.45790026191475 
-20.88242972841511 
-19.67039473488418 
-0.2039384726248372 
-1.418531240717294 
-2.354818984502919 
4.618566071242209 
8.434015109751742 
-5.964046845294561 
-8.979235155009953 
-0.1301510867194095 
-1.421336821190252 
-6.756490152356286 
-11.34612382657717 
-2.559944005938565 
-1.701911909382048 
-9.731301478633871 
-0.03005286253676247 
-0.3433108895622573 
-1.601037831349587 
-3.220341004594796 
-5.739233889678001 
-14.84065815435106 
-19.62623918723688 
-1.745367505730996 
-15.60765815185782 
-51.75110775642317 
-38.15877195883864 
27.75420586043403 
0.7359863719425443 
-3.813520517753111 
-0.5279281430338383 
-4.213000245448598 
-12.50146273221076 
-11.04767755516323 
2.97564256197183 
-9.428589359435115 
-50.62187750880609 
-2.53751689278972e-05 
-0.0014905598671084 
-0.03532350442577632 
-0.3626538328153038 
-1.744350202301884 
-4.256613757250243 
-5.547551984601321 
-0.002939701044586177 
-0.07048476933997123 
-0.6232780373461921 
-2.130734576063689 
-4.219047699253177 
-7.013561682385316 
-4.546007239105395 
0 
0 
0 
0 
0 
0 
0 
-0.0004128118155649482 
-0.008991002893776873 
-0.05252881260603027 
0.04323843743427494 
0.6843313060563386 
1.147015909527137 
0.3814235532705231 
-0.06334238614916389 
-0.7989001190863336 
-5.225748356508796 
-12.72286593896424 
-1.810711401399125 
17.18342324490956 
24.57839798516786 
-0.6924429834191331 
-6.424495713948968 
-18.87167959362212 
-7.461203609044595 
14.67816031012089 
0.2151643669296147 
-11.88266623031632 
-1.024777505909721 
-6.310119616935128 
-13.55954472672487 
-6.66269852053435 
-1.536420804974459 
-10.93021027165592 
-20.9398863294163 
-0.04943625571946976 
-0.2984252720887981 
-0.7908207944149858 
-3.579240101769147 
-11.10557403553864 
-14.8967318871708 
-14.56608505181506 
-3.855723238701499 
-31.64868093301181 
-83.31723819441621 
-25.78992063027349 
39.73425213569348 
-21.73269406642936 
1.859679425963922 
-1.932065717217943 
-14.70200281056441 
-37.53719528586966 
-14.82111316610288 
16.43676330147055 
-30.51659503835406 
-32.1891215745492 
-2.43442824893964 
-19.46509936143599 
-46.1115788649444 
-2.002016303027893 
17.57811521866256 
-35.90938166978012 
-1.682837086732289 
-0.1530401545673373 
-1.390047325270467 
-4.71153752198362 
-4.558307222801322 
2.337176244278826 
3.152173372014135 
2.198309692607935 
-0.1985531108319177 
-2.208531006756281 
-9.490334747268959 
-11.06171227810497 
3.956661454543944 
-7.323321832979029 
-27.61684326031766 
-0.3140412898649225 
-3.107001458026125 
-9.511796457986454 
-2.954771662742282 
4.85531014836856 
-13.53444289217476 
-5.804671282504247 
-0.08648955699664128 
-0.9289934548018686 
-5.039437521476411 
-12.24370488711654 
-8.286043074330603 
5.191162659887299 
16.98171451103512 
-0.07336291428303862 
-1.575140545200125 
-13.72105797993027 
-39.49824063335407 
-14.78978180933614 
27.07661969433282 
6.158297612795578 
0 
0 
0 
0 
0 
0 
0 
-0.01999746354042691 
-0.432345139461148 
-3.601468095025114 
-10.25314043227028 
-3.843152992379218 
7.529845451193175 
-10.90276324570395 
-1.753637427196889 
-10.89378120689447 
-18.59512197533036 
4.800359648458555 
4.539445456193104 
-14.33665494778833 
-10.45732472439267 
-2.102976565068745 
-14.06926574510137 
-32.37830804302666 
-0.7001815325459413 
29.00568685857977 
-20.90866317521749 
-20.21604477096844 
-0.2286131507273768 
-2.10238523157577 
-6.363258243943543 
-2.651773012111884 
4.292632592920218 
-5.60742264023661 
-10.86754386291081 
-0.03110109922613441 
-0.2946833031516786 
-0.952803708857604 
-0.3717851022656072 
2.338897304950513 
5.289947046814052 
6.194345000833169 
0.0002314465137031029 
0.0181796364010976 
0.1956548801277342 
0.5112871561195599 
0.05803165785739673 
-0.698854143833737 
-1.095668922607987 
0 
0 
0 
0 
0 
0 
0 
-1.680109995892355 
-18.17514053046796 
-66.87877623350104 
-54.73142489634211 
41.55819130736871 
19.50467958452426 
-32.84158855472401 
-4.246993257736194 
-44.62257994308031 
-146.3624457760773 
-71.85554402868362 
90.84692190324859 
-15.63000243889063 
-20.75408490299653 
-1.052752325347756 
-11.215430956555 
-42.79342202837721 
-47.16943576016217 
8.04481192148155 
31.11813005874087 
-34.21824121209436 
-0.2424895106222591 
-1.980188390522354 
-6.878086332730028 
-6.152426936283684 
7.63408995894213 
14.5605534789463 
6.089055961284144 
-0.6939747551340251 
-8.360591538357111 
-36.24744328537997 
-43.53149927708718 
10.0492889289706 
4.732742442978245 
-24.19533849326284 
-3.030032978308285 
-35.38764802857455 
-142.5661267154993 
-132.6458321680904 
70.02098752264986 
-3.513616373460971 
-43.75368258075941 
-0.9725829205032812 
-11.43009165382134 
-46.6403225515897 
-46.55948175141695 
20.47320106811787 
-7.690589287830119 
-39.83180919518983 
-0.2260794463536642 
-3.007556347137045 
-13.6340350970054 
-19.16067798649121 
-4.900524613118358 
-6.499351127014284 
-47.71784084993202 
-0.5642019152341782 
-5.49351629758891 
-20.66367203914213 
-30.22190549769479 
-16.75463635500673 
-4.007071044158264 
-28.41398866551971 
-2.40275389566757 
-19.14755267454952 
-48.45592925742314 
-14.85278514098595 
27.22383031261626 
-5.659432460906411 
-34.08524040145644 
-0.08093827550956136 
-0.8019943152612428 
-3.444843190867537 
-5.074910872534506 
4.271647116230357 
9.882898935935845 
-5.420493289335229 
-0.524420850583893 
-2.942546891090268 
-5.71781004425567 
1.167596031218492 
8.32501502068521 
-3.479500852254509 
-6.446148596472587 
-0.1853887662873965 
-1.573067010730549 
-4.361045624337549 
-0.04428024065081544 
8.402192667841101 
0.4621008775092984 
-5.304763061025372 
-0.1946332622806848 
-2.031298225439812 
-8.636188101075296 
-14.51467154912486 
-6.653980941331086 
6.580646396824447 
3.655795880288117 
-0.8405295229352751 
-8.523646820127153 
-33.07210547800202 
-37.14180063482725 
26.77176978320894 
21.57188858160407 
3.355879144270189 
-1.443610277480103 
-12.39060321645729 
-37.97971814032776 
-30.18323367729226 
29.78189686286959 
20.45474426552715 
-55.74879390389568 
-0.002841530224776682 
-0.01797591481149337 
-0.09965464082834775 
-1.012215475189916 
-3.320100973709744 
-4.341741203771362 
-4.655793521972831 
-0.03110807427192978 
-0.4337154369509231 
-2.050821393478563 
-2.193171395589912 
2.024723124768986 
-1.264390552191347 
-7.285642501795683 
-0.04521696301685481 
-0.3315548499706614 
-0.825810870337068 
-0.4249621884510358 
0.4687351521880432 
-0.8079369971389367 
-2.366741416855631 
-0.002971432085575392 
-0.05845244085533188 
-0.4179317965828849 
-1.075733645150882 
-1.059570258592622 
-1.257847907093263 
-1.622856341222622 
-0.2419116027444844 
-3.301824298544097 
-20.38659434400734 
-48.28642194490894 
-15.60537676308227 
22.34530110591522 
-40.26381119946946 
-1.112805363531244 
-7.831187689097753 
-12.9222384321947 
10.54732244051228 
4.762658240193058 
-4.7931068265623 
12.2865728263611 
-1.006510942166673 
-4.751816630742343 
-4.431780520479225 
10.7696528240005 
12.1567811026795 
-5.564504529983845 
-18.61408479432938 
-0.2405564976886251 
-1.693710773493881 
-5.168549441349384 
-10.52980953708938 
-10.95593077664618 
0.2237513622832635 
-20.96672573200695 
-6.223184142218442 
-40.86290027629899 
-71.80083779752285 
38.96299731713957 
50.80373356406264 
-75.25216956254107 
7.316755433717589 
-12.94007546850277 
-76.54820743576347 
-120.7751927424562 
38.87008763793817 
14.74631423797473 
-70.88432390811154 
-71.21284011935218 
-4.870182428243658 
-30.79532656965919 
-54.29913270791012 
-4.048112058361483 
6.823923963891223 
-25.9811275281011 
-21.73613661540399 
-0.07404958446677762 
-0.6787701936548114 
-2.384119531149163 
-2.979109099963073 
-0.9738411228479142 
7.060156346573884 
12.41749451779949 
-0.1367299959971885 
-1.644972458899026 
-7.563079278170125 
-11.07256261059474 
0.194459579949597 
-1.792044048453104 
-16.33961057028142 
-0.107359138883073 
-1.157707640943365 
-4.229426888619757 
-1.287900741653076 
16.27939234806764 
15.20881402621865 
-38.67459719532633 
-0.03530025767609033 
-0.573769203242539 
-3.245594962383726 
-2.893771180818526 
16.81873692774237 
20.65828031478338 
-25.79915218061786 
-0.06983103583152721 
-1.41014090049012 
-10.83574707664773 
-24.82114961719719 
7.421804778967331 
32.2266505676489 
-27.61122091990358 
0 
0 
0 
0 
0 
0 
0 
-0.3169276384076182 
-4.19247465364419 
-19.43731105631344 
-21.88553721929676 
15.65531582573054 
10.51500115738703 
-5.099921396369205 
-1.336693685856854 
-8.621171750143823 
-19.73241001373104 
-11.35920637131277 
5.984115460339858 
11.41485416217017 
-7.326902591620937 
-1.987518943971093 
-10.39772250812636 
-18.11016505210069 
10.6779666830664 
25.78393802994141 
-12.24612973483412 
-15.82940477459378 
-0.1636341670576164 
-1.306685156313244 
-4.084324598528772 
-2.284053338422854 
8.427230025840631 
9.327522428507145 
2.404523346435951 
-0.2317716287147255 
-1.736444645477567 
-4.805494981716544 
0.3352526354022055 
13.66128182949041 
3.334194040365313 
-17.63786494310473 
-0.04858356130862315 
-0.3377897916916022 
-0.7387074460136199 
-0.1008486938349622 
0.5046179985275494 
-0.6824149135370217 
-1.626520554622723 
0 
0 
0 
0 
0 
0 
0 
-0.2196248072310455 
-3.564482142888736 
-24.18175072557861 
-57.91399811816049 
-13.51487086637784 
54.50943483734262 
-1.003610656005927 
-0.5210118370710559 
-8.161532240858898 
-48.24916621856082 
-88.62810067640547 
14.57878278772898 
75.38104657874085 
-18.61596218283722 
-0.1817649310880462 
-2.685118584272348 
-16.18769750475673 
-33.11867462481999 
-5.355773320280481 
16.02523806458453 
-12.76035148037961 
-0.07134960699679037 
-0.6677924278569168 
-2.767549316030435 
-3.683371518035884 
3.779323164467355 
6.531857201068735 
-10.49298183876974 
-0.09415916653706312 
-1.671872005546409 
-11.36848395464284 
-27.44691589763505 
-16.68020057660805 
5.643167853939876 
-8.267387381665211 
-0.3502358282525218 
-5.295653309783953 
-33.52316224294963 
-78.90774722333872 
-31.0842082192457 
51.60780686986264 
-10.94777286882728 
-0.2058548962138937 
-2.744932954056703 
-12.26690839434863 
-11.31908819256662 
15.20186655795884 
5.868561545903354 
-14.22028510515818 
-0.0007048883751466519 
-0.008275866111037989 
0.07895212271485842 
1.471471225091559 
4.085366476115298 
-10.30204521120309 
-49.50048083115097 
-0.1522697820668031 
-1.568875147114822 
-6.928190539112529 
-16.49090821423308 
-16.37107683884736 
0.3534913436212994 
4.951759894436512 
-0.2749550194184696 
-2.932583937655254 
-11.75215085423903 
-14.54819002802674 
3.426791272766271 
-0.7373796531586803 
-21.59468934706774 
-0.002192493860357534 
-0.06459006710128548 
-0.7729867492662437 
-3.826117636969013 
-8.384139748507494 
-8.40523349672771 
-0.1565307735378587 
-0.06927629483940241 
-0.6588129686372378 
-2.259274943847982 
-1.259251020713607 
4.369335729954464 
1.112818146554456 
-12.08977310704241 
-0.01347749878118686 
-0.2188019458708877 
-1.590894781704349 
-4.85983285422445 
-2.919240343902355 
6.826859640561691 
-0.38816876516716 
-0.02292070450713185 
-0.1025462445561397 
0.1124348701864053 
0.6540862181503235 
-0.2511796554629031 
-2.27168273553616 
-7.642609327003945 
-0.3813723274076055 
-4.023663763518459 
-15.31642914175278 
-18.95657283653087 
-9.764785783212595 
-10.99840346550689 
-17.9758130459654 
-0.009450630765330547 
-0.07344473326673373 
0.1069280246395657 
2.019777797372665 
4.116656975875572 
15.59759312319981 
67.6964392235778 
-1.097577142383416e-09 
-4.476137764676571e-07 
-6.645110480892269e-05 
-0.003667819957731394 
-0.07664324540011799 
-0.6147325100047064 
-1.907972448583827 
-0.001667566089546694 
-0.04490461385732575 
-0.5212425060993551 
-2.771843642013854 
-7.058781329012511 
-8.195169441644277 
-3.64901252395994 
0 
0 
0 
0 
0 
0 
0 
-9.843232918225796e-05 
-0.002696097698080525 
-0.009969407872120913 
0.2885448732876256 
2.127740809662159 
3.343584978084782 
-0.9640195573018522 
-0.07097311639740561 
-0.9694895414466003 
-4.033587395523655 
-2.618942927577174 
1.582982505787839 
-9.031829680389819 
-7.895049706883364 
-0.04121519755926748 
-0.5371308088891878 
-3.034915884139927 
-5.935652582928602 
-0.6696586783401105 
2.225509475381829 
3.279071672872582 
-0.1245106936389234 
-1.313984325905098 
-5.895895369415285 
-9.404906225561238 
0.02127863814156866 
11.89124999212717 
4.278615059088263 
-0.0645350284477582 
-0.2510837939203166 
0.2833247485519333 
0.8047508979970622 
-3.614549716474563 
-2.116970101834939 
13.69673878939818 
-1.432410520710816 
-14.08134355149271 
-48.89617994296986 
-40.42688388129955 
21.71202058468556 
0.7278521256443842 
-53.04512691930788 
-2.39714120760048 
-16.47522606323514 
-36.05353682445109 
-7.751268198266168 
21.43435591744413 
-10.00003403981031 
-19.56586692689982 
-0.3765906847898225 
-3.652387045928698 
-13.93968267875634 
-13.22371167033822 
17.38393318098885 
14.18033002054879 
-17.37421330689251 
-0.01781960108772204 
-0.2706119453508314 
-1.564252253169652 
-3.464413808535103 
-2.085420583051294 
4.708772221409551 
10.0725473727098 
-0.03791033959190902 
-0.6075923480690508 
-3.700194978402737 
-7.690083527307568 
-0.0901014255570321 
14.32574268242204 
6.005683999129866 
-0.02510562842225143 
-0.2421129467864458 
-1.297278626589223 
-2.568016862297736 
1.540656934661866 
0.9712770936592926 
-8.241092434612971 
-0.009629614250841776 
-0.219475682393353 
-2.112402980065529 
-8.174803350816982 
-10.91198471430121 
0.2913472762403254 
6.927672597870353 
-0.04585186683827289 
-0.8825396089284903 
-6.553190201050858 
-18.53477282853525 
-16.86734686221117 
3.273575761451387 
-0.6303563062542232 
0 
0 
0 
0 
0 
0 
0 
-0.04547133935052 
-0.655739275592345 
-3.339395151820106 
-4.670155135774858 
0.3162909298393274 
1.576909394154054 
11.17175971441891 
-0.2199238945654979 
-1.845507995364309 
-5.688626557042018 
-3.291142408217091 
7.737136352351995 
3.779463129330584 
-10.47865557687421 
-0.2182489860528571 
-2.596273798829315 
-13.27005539140258 
-23.74826331461847 
5.450002500881295 
40.33654663866947 
21.72180557350169 
-0.03553085549707401 
-0.4174743139624397 
-1.93186343057237 
-2.557134168924255 
3.225521046979178 
5.267342175938905 
-4.908352235839741 
-0.0005213925718662753 
-0.01407586321792221 
-0.1320141152354379 
-0.3217866797968302 
0.6310064770337479 
2.572166579855141 
0.9581323189931384 
-7.538219415808935e-06 
-4.299712220782316e-05 
0.007262627249804135 
0.1166567400955118 
0.4072899171740748 
0.02992795987606935 
-0.8252645157512288 
0 
0 
0 
0 
0 
0 
0 
-0.7563091248603677 
-9.351585693510435 
-42.2731288297099 
-45.05461579127208 
34.47477813928163 
16.67467427029336 
5.463218796516964 
-1.826650043590714 
-21.77018204108371 
-86.69233949243291 
-65.43922354822405 
87.64080215926701 
13.85817038764889 
15.04315952319125 
-0.5459523221788923 
-6.498487598926099 
-28.67604428365755 
-35.76883192873137 
12.76984750125325 
26.11235484644411 
-2.728043634083434 
-0.07953439969890772 
-0.8685682213354489 
-3.080171604956019 
-1.919465902142145 
-1.093597726522434 
-10.83554246888858 
2.247130217997056 
-0.1999989831976367 
-3.235201319675091 
-20.01085004913601 
-37.83613034860274 
9.618504352346758 
29.81536844647704 
-35.91105785131186 
-1.335064535593611 
-17.32848986821129 
-81.17187103406057 
-93.03447010012923 
57.72776348615704 
14.15302422316078 
-4.960845248622932 
-0.1341041953067145 
-2.302212201664286 
-15.49084209028005 
-32.67032518561314 
0.8874301866171608 
23.09910608436624 
-35.29803064436722 
-0.2272833457684859 
-3.401833939870936 
-18.9122207833751 
-38.13472841981439 
-19.76273396848236 
12.44197186077417 
-24.34121638710138 
-0.3129753649904892 
-3.013636630101317 
-9.68228393193214 
-9.001777388133457 
4.221526116340677 
26.35386334117046 
-4.503108522780522 
-1.064817473418278 
-9.234559918749721 
-26.4391324790074 
-2.905600935026447 
33.50470262095662 
-13.43634435697114 
-9.660576591254278 
-0.04598970387816254 
-0.5337559945671848 
-1.803737027666626 
-0.1435855981379444 
3.279827997330377 
2.640788169805664 
6.03907085820727 
-0.2190492916650097 
-1.506319040380812 
-3.548530685757836 
-1.287732971563702 
-2.435232863491537 
-12.53994273877416 
-10.69398249813464 
-0.03566830860326173 
-0.4604696611202528 
-2.053390481939565 
-1.956865216368967 
0.8538621951440394 
-7.549052187469449 
-7.455920677288608 
-0.102595386892925 
-1.037044148228747 
-3.24927711223648 
-0.9488882246364148 
4.290882829562592 
-0.2983057049471634 
-13.22792589974113 
-0.9535825428611249 
-10.16164061298966 
-36.02860905743098 
-24.93765783528122 
24.91896956769857 
10.85332291433624 
-27.35954586915706 
-1.451975642263872 
-14.97725584780471 
-54.37234551944413 
-47.40956850999828 
31.63433874780878 
17.7159283573202 
-32.11057620103843 
-0.004770849924496505 
-0.06782090829572469 
-0.4307374288116163 
-1.253769786296757 
-2.640156498540086 
-6.760845452768162 
-11.28975981208872 
-0.01084843091676378 
-0.1853202282069663 
-1.382997086498849 
-4.894395545042189 
-8.677046721539774 
-8.504664037107977 
-5.429991740847076 
-0.0002195433910930603 
-0.009996971393950182 
-0.1663802950396966 
-0.991088076229987 
-1.99124749825717 
-1.743447841244826 
-3.110437269808497 
-0.0002041919681867795 
-0.00487381089910942 
-0.0877508889086315 
-0.820791012099053 
-2.826880366370149 
-0.3528679081090891 
12.47288759812909 
-0.2538863216703585 
-2.693382364495149 
-9.190941140092965 
-6.321263201368719 
-0.7559045480577051 
-5.974414900991801 
5.808988104875669 
-0.2806469332605714 
-3.126472510844506 
-12.13050990586781 
-9.496413597755133 
10.68226588887591 
8.557451884497876 
2.664375681034636 
-0.4296918771656448 
-2.38824243585213 
-5.43336262355658 
-5.232874710523886 
-4.649422830862663 
-7.485897459500087 
-5.877480075736948 
-0.1615336642210795 
-1.160747019707677 
-3.38949507715917 
-3.878046791290973 
-2.41016571195702 
-8.343755807297159 
-20.10105431875721 
-3.147208664778532 
-26.07091807685688 
-65.85926821585271 
-0.1876457329461067 
73.97027082075974 
-38.94438261175736 
-28.14288427281202 
-3.774357159878691 
-30.21885885075453 
-76.65300097607799 
-20.61664658253298 
32.12096186945751 
-18.32604714111834 
-42.8777345801708 
-2.215489481436231 
-16.6800291481944 
-33.2050275939329 
11.81755753621275 
24.05207712901447 
-17.40927316786126 
-37.63057473463088 
-0.01318828655680521 
-0.1617493572407904 
-0.7371109154776764 
-1.33299074608798 
-1.196341302236363 
1.176476489301877 
4.70935467785113 
-0.0675848914383225 
-0.9795407605998 
-5.124699860866871 
-7.658778313179789 
1.447263625026595 
-3.651784114639066 
-21.65797334132299 
-0.2513054650727864 
-2.674469582441191 
-10.43972549180974 
-12.75665912479717 
0.2212420871373985 
1.309577801631089 
-10.02182123853769 
-0.02671754335355061 
-0.434362585025637 
-3.052578090837434 
-7.517484912496029 
-1.778459097265149 
-0.5851698724535647 
-27.80151298225354 
-0.02170678489314361 
-0.6403056538532538 
-6.78810537743982 
-22.457028713168 
-6.092563147233491 
37.77800465240654 
25.16263741222518 
0 
0 
0 
0 
0 
0 
0 
-0.0589845293367337 
-1.29178690951386 
-10.25347917551942 
-24.09485361414167 
2.574729413804069 
31.33769779192902 
5.439945822967463 
-0.5247516944909075 
-3.689436572132136 
-7.682023261093564 
2.713775418471264 
12.96001223120109 
-0.4319201999027708 
-1.544547428512062 
-1.070677115447945 
-8.28941421410604 
-23.13539365022356 
-11.19496533013275 
19.52628277254543 
5.395348798057182 
10.08980456760748 
-0.02684548831697173 
-0.07918839869974457 
1.021234289286296 
5.113928956160652 
5.36986385323769 
-2.24119693607547 
-12.53649865591038 
-0.02320897333230039 
-0.3387046570219635 
-1.678476398091354 
-1.983321851730633 
1.677834545095795 
1.76967026524648 
-1.811752532869271 
-0.03108165541214435 
-0.2501493176815604 
-0.5797164601924293 
0.07463644630266983 
0.2290660790828196 
-1.532554748553989 
-0.2938275010213233 
0 
0 
0 
0 
0 
0 
0 
-3.064235332922272 
-28.72552517780736 
-82.4472151392327 
-29.24626054975342 
33.74387701076305 
-45.28946416343869 
-22.1472313967919 
-4.643200486940287 
-45.98169030128256 
-138.0443322888956 
-46.56388567350563 
69.36505615684923 
-75.43615062065166 
-29.80869583667569 
-1.517680267568114 
-14.09331846137851 
-41.67116872656617 
-21.64867854461514 
13.87069488641246 
-10.84759506801567 
-21.22215666511782 
-0.1220965447132381 
-0.9771058867214905 
-2.523782482493863 
0.268672556799017 
6.931637438366273 
5.328039150595498 
-3.427733676707204 
-0.8333507502220349 
-9.631042161505238 
-39.33617286250662 
-43.47874711761914 
5.018770775975514 
-9.244924964308453 
-20.82955890820014 
-5.36944591885962 
-57.48443140504519 
-187.7852956903709 
-76.71293328597865 
106.4772448024886 
-97.63665009829755 
-57.91100554649879 
-0.5785015381075292 
-5.985641173009635 
-20.86177174626662 
-17.87586934299966 
-2.158805378347818 
-16.92970973085592 
-17.5604980092394 
-0.05349622063533874 
-0.227720729514695 
2.009681158457929 
13.67785460173671 
13.21545734419222 
-29.76729390872363 
-30.62705815225399 
-1.350467295978489 
-11.70447395558178 
-35.70497540579283 
-24.09499092834471 
17.72979009169334 
-12.52795031586645 
-22.70962816100607 
-1.499351307796458 
-14.44629610502136 
-47.35957036234274 
-31.72357580204434 
18.07377148289986 
-12.51859998623229 
-27.13750383302181 
-0.02789504258015724 
-0.405848568623654 
-1.972719488298176 
-1.364874694195597 
7.540602641730825 
9.622681851268997 
-2.82527520298772 
-0.3481691555735545 
-1.878891927406034 
-2.65990932877965 
3.740052963859896 
7.807845348734331 
2.077241682467852 
1.034041151871922 
-0.1614907269899575 
-1.649579294916274 
-5.93964799773945 
-5.358650049961651 
-0.8794425785015764 
-10.66748661653743 
-14.34972743399254 
-0.1391861789846171 
-1.119459295899921 
-3.282851775515778 
-4.637088228050618 
-7.472465404656762 
-11.19128545773853 
-10.78334081578906 
-1.02368153315794 
-9.968141960059995 
-35.86286348207748 
-34.48454561013988 
21.75333124473883 
11.23577945430721 
-33.78012991551345 
-0.2606247811427679 
-1.473321727444699 
-0.4735090475929634 
7.800246280640605 
8.970825169299179 
8.757896414507979 
-0.5422935966596037 
-9.1916499479462e-06 
-0.0004562150408731331 
-0.003520339236641537 
0.114241187742181 
1.484640761068794 
5.384769285118076 
7.948589811891305 
-0.02570189709122616 
-0.3350870921339651 
-1.695521858373921 
-2.397602313683771 
1.623385665222387 
2.181506856673248 
-5.141756415983332 
-0.007376419333772629 
-0.0615803065141433 
-0.1907171987052291 
-0.6206372537803319 
-2.29536327475265 
-3.8687358665247 
-3.33458544525632 
-2.021668722018312e-05 
-4.559905195797961e-05 
0.03028732348299689 
0.6167832655836067 
3.71961455073346 
7.888558489672211 
6.034992041103223 
-0.4048092850664558 
-4.882539485517095 
-23.29719555091628 
-42.41963827850338 
-16.10075882090181 
16.57975701278653 
-33.44161069627304 
-0.5673698339908748 
-5.09147016969857 
-14.87032928620001 
-12.73640564547909 
-7.947891121327372 
1.132299211729946 
11.99681017034507 
-0.7536619347048213 
-5.364254407066849 
-15.48061040655806 
-16.68290144119133 
-5.999196007074634 
-8.452003574220274 
-21.50268429669329 
-0.1755773633081564 
-0.6625931180380019 
0.6668494286849116 
5.630675928376997 
7.039956587531201 
4.53826101487677 
-5.455945922027412 
-3.384150345679032 
-25.87787917863117 
-63.62450375689097 
-21.31752824584207 
25.13471327056593 
-14.67881841115469 
-19.58458177990512 
-4.115803620271635 
-28.20024819659002 
-63.01753128512539 
-22.33861945567529 
13.8324697297743 
-5.545459129115603 
-11.37867721568267 
-3.591988417697604 
-29.61883857647386 
-82.1231589116293 
-48.31707185892609 
25.38370888970394 
-12.67291084228013 
-25.10069540274561 
-0.1095304721455646 
-1.084080567290306 
-4.172821138084062 
-7.664922861135302 
-10.97974994318534 
-12.15921747276279 
-2.043910881729562 
-0.2025709730238724 
-1.98794013349098 
-5.841392944940508 
1.824626734183982 
20.26739806734174 
13.95157751964841 
-9.447987537585327 
-0.2782982543403215 
-2.774550094002704 
-8.290027122372209 
0.5563217662155723 
16.44663052636655 
-3.81145271823787 
-12.43897130969932 
-0.05156503948581224 
-0.9719533175002681 
-6.628400197515715 
-14.58704159298442 
-7.551694910761954 
-6.091120923790228 
-8.628028839336615 
-0.04763482648158279 
-0.7883512022335512 
-4.074120662723574 
-2.591062526686221 
6.071515002070559 
-9.876230660871956 
-9.924463063725716 
0 
0 
0 
0 
0 
0 
0 
-0.02928106773268424 
-0.3190161962446728 
-1.467432555325266 
-1.641455268102148 
4.009506367568627 
7.767588375111528 
-1.331082309671724 
-1.180469555210887 
-8.082282757486055 
-19.09750541595611 
-10.13423308286131 
6.653929530060076 
4.272959391141523 
-11.72032759709512 
-1.53631839733916 
-11.43260920749811 
-27.71900726027132 
5.486832403251576 
47.86508695602409 
-12.45462823356413 
-27.16097980411498 
-0.1268478236515458 
-1.489502851914511 
-7.085053739818522 
-12.12567317789545 
-4.973308164879418 
0.3944039713491607 
-2.234744543009761 
-0.029135607052496 
-0.2929198355894603 
-1.07906913026508 
-1.038535226688476 
1.076351160272765 
2.790076678385577 
3.390995838399384 
-7.257255416417484e-11 
-2.819888624366681e-08 
-4.050251598366077e-06 
-0.0002202427457304586 
-0.004615750107123903 
-0.03764466903235608 
-0.1196081802846069 
0 
0 
0 
0 
0 
0 
0 
-0.5495162941478275 
-5.697369241728228 
-21.90176851541378 
-24.27837079931456 
6.290402425621041 
5.159311359425033 
-40.76202266225163 
-1.478388533019498 
-14.2821333906593 
-44.05237297450569 
-19.78533421209946 
35.59858325565589 
8.592930633985519 
-29.76345323844243 
-0.4907492545920124 
-4.319280505042124 
-13.00323737995812 
-10.30182777528151 
-4.108201009612858 
-0.2323601203975409 
19.96988424098215 
-0.004077577941400462 
-0.05960032036561588 
-0.381702229402842 
-0.8688429311599549 
-0.1276617221985308 
-1.217287615750049 
-8.405565019676375 
-0.2556449010937443 
-3.116441400739165 
-13.03556885441728 
-10.48455956460821 
19.29742144773824 
9.4584187838161 
-19.27824369562779 
-1.41964201980678 
-15.86351770475259 
-60.78602278266919 
-53.69146116066503 
24.75568980703133 
-30.99590028365095 
-52.92046686502317 
-0.3060350506893988 
-3.673621642423269 
-15.74086746491007 
-18.93661457338684 
1.251124750034016 
5.33345298882385 
2.464982801287491 
-0.001342978230311402 
-0.03254608228371215 
-0.3119373380663518 
-1.176572156996037 
-1.494208140414219 
-0.1035543727436379 
-0.7182559563963368 
-0.1953988799504602 
-1.553165880763215 
-4.616877763723353 
-3.195548933308769 
5.53320727524454 
-3.826946150695144 
-8.712433399952053 
-0.5069071519472621 
-3.858423995711082 
-8.481417229167905 
2.922042252310317 
11.50570610483611 
-8.888166777398954 
-20.13105583161897 
-0.01148285494584379 
-0.2196259450189346 
-1.725171292560158 
-5.315079875226814 
-5.872262329065689 
-6.350990278244854 
-12.43082769300329 
-0.01351242561187976 
-0.04343847890121184 
0.1619933337614309 
1.293623189788602 
2.735885426645764 
1.524125566450737 
-0.3139742582824837 
-0.08091392352186151 
-0.6513579204391315 
-2.35449528339587 
-2.788014344412594 
1.422830482625732 
3.994354092761558 
1.779222561340318 
-0.2653173585756816 
-2.091675208040795 
-7.125747499890918 
-9.401125744566121 
1.727148962569899 
9.550233162846281 
-7.318021129501243 
-1.508024545302648 
-15.44111937695168 
-55.43719438237009 
-46.49776973287454 
32.51270758117359 
30.00596365518028 
-34.23356366995436 
-0.01448447556610846 
-0.1747171684437679 
-0.7446534733899153 
-0.9710545175049816 
0.5395979906792313 
4.573287247967746 
8.447951498134243 
-0.03387338201266735 
-0.2864661956557235 
-0.8139126272055351 
-0.8408021390141379 
-2.553296619197988 
-9.356103218953196 
-15.146688089754 
-0.01444248772157488 
-0.1747273760079989 
-0.7804268639801271 
-1.088238083848847 
-0.3989518865888722 
-2.759906939262138 
-9.579282769586948 
-4.136740841135695e-06 
-0.0003339884500078801 
-0.008838613167439184 
-0.05887753223038743 
0.08919741151372432 
0.6668938826057812 
-0.7515543859517542 
-3.066616201372861e-05 
-0.002211067844811732 
-0.06334565582537206 
-0.7231682989630056 
-3.221343151125092 
-5.025204241110721 
-1.148006565132682 
-0.08108930012084906 
-0.6099126869537778 
-1.132567378239678 
0.8778629192087857 
1.31498055613814 
-4.325988785850642 
-8.809627483893065 
-0.3609080694177426 
-2.949008280020217 
-7.289910247833309 
2.067304590498528 
17.69099274040859 
4.200752983467726 
-18.55582684958085 
-0.2676009597418408 
-1.734912711375232 
-4.505356594402702 
-4.44065859806096 
-0.3209655148398279 
1.803005014426 
-1.853973283099448 
-0.8532794504857191 
-4.437531210986185 
-8.16231470508361 
-2.25967567168883 
10.48762488046599 
-1.151467107978442 
-27.31804541814627 
-4.443142341101066 
-24.21468118959567 
-42.32826101633001 
-17.1262781385297 
-5.488691735053782 
-4.865661259269129 
-31.07412310595882 
-4.300449673132973 
-27.53551108056669 
-55.94405574210401 
-15.16353292453201 
24.06677133577709 
11.13817508775057 
-38.76625948610121 
-3.432599035558537 
-22.36716765370505 
-41.94516177061846 
7.324700213249601 
29.12268194726984 
-31.70081395349541 
-60.68135568027238 
-0.00921423506835263 
0.1335544989741746 
1.571046257324593 
4.115852166391615 
1.199783562078268 
-4.583375510556134 
-1.96302333053174 
-0.610755564529188 
-6.019726594876687 
-24.4503800731861 
-34.73155577982765 
-7.318574570110096 
-9.832225479753463 
-60.7124383517388 
-0.06118378267239415 
-0.7899086321367995 
-3.209213212243689 
-3.292240303842629 
-3.164476669067098 
-7.498024548064841 
-1.263196440992294 
-0.1469269233391714 
-1.453873630444055 
-5.506806890407653 
-7.317077435979879 
2.562765491213763 
14.12164630570664 
-1.742852404615535 
-0.2933707348399975 
-3.314038761445232 
-14.26184833271344 
-24.39344409297187 
-12.29438070508789 
15.80611196997794 
-8.00147140790148 
0 
0 
0 
0 
0 
0 
0 
-0.09942842593970662 
-1.618816093303096 
-10.23221048605039 
-20.78925630997239 
-0.6166918658504424 
15.71171213254466 
-6.336720724761367 
-0.2014777979848194 
-0.8470737970784341 
-0.1606080614818139 
5.605277911911538 
10.70088287120295 
3.961596906994395 
-23.51190034320267 
-0.1068924249914305 
-0.9874529511002682 
-3.019330909150903 
-1.250718416698415 
5.39642816817096 
4.546946422290727 
-4.304591936058575 
-0.1811755774574112 
-1.046024138701829 
-2.541792804254644 
-2.615676096425696 
-0.1850750905791173 
1.318297036617045 
-3.293337327905875 
0 
0 
0 
0 
0 
0 
0 
0 
0 
0 
0 
0 
0 
0 
0 
0 
0 
0 
0 
0 
0 
-0.290792813847868 
-1.860147896432419 
0.3822413091019894 
22.07983069066572 
26.82296543741762 
-4.953583903505447 
-0.6173882370334696 
-0.7929163035309666 
-8.885947233427697 
-33.8915852180216 
-25.91213954970461 
30.35995173466284 
-4.342019192756236 
-9.529887699148977 
-0.3676435328154156 
-2.844035236873322 
-7.748910489405405 
-8.981735892203776 
-9.479025263400512 
-9.173130275021252 
-14.42636582139846 
-0.05193724073482835 
-0.3684669458429112 
-1.57975699061972 
-4.625365551222567 
-8.780481703867007 
-12.92284706892233 
-15.33312807737961 
-0.07613749947416029 
-0.8326474951602341 
-2.373924860705302 
3.830544478034611 
16.53019208067745 
10.04321524617681 
0.2509789597681416 
-1.457278441447762 
-15.01083589037213 
-46.664978304794 
-14.263211907861 
25.31992602732461 
-36.04825642442232 
-11.65180484705746 
-0.00865521601067689 
-0.05291850191467129 
0.6800132140311202 
6.199428433193249 
12.6133768125169 
5.337791867229325 
-3.470652242039226 
0.0002460047342851746 
0.01439689233408231 
0.2231443984708249 
0.9778042710341956 
0.3381310703784248 
-4.852703938107868 
-16.46609979481591 
-0.06089219317266535 
-0.7509484080792466 
-3.528378969148132 
-3.30113362987902 
12.75090775997705 
21.62461778975117 
12.36887257667413 
-0.4127578822201095 
-3.121379052735552 
-9.119759209208485 
-7.484992076420045 
0.6460887386227491 
-6.5053580809555 
-7.551372172367834 
-0.008695383254452054 
-0.1154692171376655 
-0.7246698696616358 
-3.083081835153974 
-9.623664133642267 
-18.81789300206073 
-23.88176827167915 
-0.04155063721507507 
-0.2708885724580908 
-1.118225131100077 
-3.094826908846263 
-5.689490534464334 
-7.404893510430301 
-7.781716225232698 
-0.01565807770534372 
-0.1615696644405539 
-0.325839091155288 
1.540204238171795 
4.487795882467576 
1.715699694897743 
-1.819026824787235 
-0.02868929316017798 
-0.1685840386396195 
0.1060236949226571 
2.104353340808022 
3.313889819264523 
0.9955583688573559 
-0.09688849761962057 
-0.04316137263741627 
-0.4443892433591462 
-2.055569974339069 
-4.863561635877318 
-6.793594565157642 
-1.876471044490042 
1.519533473880498 
-0.02155623209010233 
-0.1060749939295677 
0.3809335868712337 
2.988663982603273 
7.935131440035191 
12.02370546753805 
-3.650942954750603 
0 
0 
0 
0 
0 
0 
0 
-0.008290797299448914 
-0.09238160928956596 
-0.3656795507237593 
-0.5322729678710231 
-0.9665782176138599 
-4.471515566316559 
-10.3938952929203 
-8.540842033677918e-06 
-0.0004695059121251065 
-0.00934621009993628 
-0.06706203543838997 
-0.2207020672175636 
-0.7999812773227448 
-2.345667751184649 
1.830608065209003e-06 
0.0002733534351291457 
0.01356022894881836 
0.2485035887867614 
1.863221321632533 
6.401178770057261 
10.90665577637747 
-0.02849062001301297 
-0.4914499086138006 
-3.631617296699414 
-11.40997486718452 
-12.06511849312394 
-0.04078782306165431 
-4.163992306939945 
-0.06887737250284082 
-0.7290152557019918 
-2.884520203004271 
-2.158615109873057 
13.61205705302029 
27.4095389620923 
4.535903314399967 
-0.07945715391420249 
-0.8042683554132742 
-2.909807807655041 
-0.9795285329063432 
8.492838791503743 
9.340325024614492 
3.54984337199039 
-0.03856475442685848 
-0.2617234999574549 
-0.471557057106294 
0.9813960160047674 
3.773269983854826 
3.423574007667841 
0.2515775963501062 
-0.2464912021488202 
-2.5859899408797 
-9.755954325940381 
-8.478405374835397 
11.11746236896598 
5.434570747759981 
-17.8234621576804 
-0.01429178728266954 
0.2451949364110736 
2.524819668021516 
5.203612999982089 
-0.2658277461903386 
-5.089905817047252 
-5.888293108512999 
-1.24058163141325 
-11.34344755476064 
-37.61943173661619 
-35.20133566300623 
15.69453466453202 
24.83440409641825 
-32.23934874304697 
-0.0008133563576550457 
-0.02681003022514738 
-0.3150437308772108 
-1.282426497218751 
-1.759396710522516 
-0.7733423567161787 
0.2280180079454242 
-0.02300485643548171 
-0.2996190659107706 
-1.493295794996731 
-2.813655458980435 
-2.564596411070034 
-5.631669464577042 
-6.077235086453358 
-0.01728401148834863 
-0.3052347269031463 
-2.116226604263343 
-5.298051648794822 
-2.830232984897959 
8.27922840832043 
25.09344422663113 
-0.0003559612612352642 
-0.01710310912599316 
-0.3234321185843856 
-2.435139743689108 
-6.964825477181065 
-5.626953861332629 
3.096975018193595 
-0.001323357874540905 
-0.03900499706437802 
-0.5306958934578822 
-3.392402462346099 
-8.841735762657311 
-5.802902285843796 
8.658482226096764 
0 
0 
0 
0 
0 
0 
0 
-0.0006193907877950595 
-0.02646734657302384 
-0.4218313439442798 
-2.447456786100627 
-4.342498812647563 
2.335917669352871 
12.16814010391577 
-0.1570223438782353 
-0.8140672481372655 
0.9491868372472498 
12.20640094696143 
19.42435422139391 
4.654223753158583 
-17.80507252294397 
-0.1001995629252234 
-0.6052465137753582 
-0.7744642517599589 
3.800791822112349 
10.36256908828363 
7.354298010259178 
6.373035599763507 
-0.00681887083304069 
-0.1325871993082087 
-1.036164865920294 
-3.35443555516813 
-4.801989711267472 
-4.662084293853249 
-6.370879391999854 
0 
0 
0 
0 
0 
0 
0 
0 
0 
0 
0 
0 
0 
0 
0 
0 
0 
0 
0 
0 
0 
-0.3568244969555425 
-4.262062321163348 
-17.62099564801682 
-15.69111060510121 
23.09741284564395 
22.6649080158306 
-33.21635332672331 
-0.4348312580635617 
-4.950093573945784 
-18.9246751622192 
-15.18181354471497 
16.24742911478101 
15.64894407982083 
-11.7831008220158 
-0.3093215265586753 
-3.511288151077382 
-12.55411698874702 
-5.904347082707623 
15.44462759082508 
-2.02672671907876 
-36.63879203665395 
-0.02106378637769223 
-0.1703886236520276 
-0.474755346999192 
-0.4141446339373691 
-0.6965755504377825 
-3.548533533600053 
-6.377880656797601 
-0.3036402540983413 
-3.625248557430524 
-15.67816287164774 
-17.28037671555883 
13.25115442427891 
18.12296296460646 
0.7287859671525642 
-2.042753643096844 
-23.93444642337122 
-90.56040585837543 
-53.90748294735033 
80.82828189058142 
-19.58247084406639 
-2.644098167721879 
-0.2043476488921287 
-2.342697256067204 
-9.505892203479773 
-10.66220436389712 
3.636885358054434 
8.288363799313771 
-14.71515627632515 
-0.1439025393409943 
-1.845594597772241 
-6.865981356479243 
-2.080579219931962 
9.628942053795718 
-1.114641562504857 
-11.47705590207261 
-0.3514055756058885 
-2.522221872600891 
-4.296778649803406 
0.6623237260677448 
-6.471849652601207 
-13.29665335111888 
-19.52196265003329 
-0.3615839841769153 
-2.732748856589825 
-5.294125984322647 
1.580966916447101 
3.775865155847813 
1.254780580082519 
-6.571745121538149 
-0.01496878916681705 
-0.03434286227570214 
0.4651718026740803 
0.6690088978995178 
-2.965973041743788 
-0.04340121392091918 
10.93833229136168 
-0.02762226744368701 
-0.1373307695619001 
-0.3356461281872443 
-0.9237255150775751 
-2.522793899883863 
-4.078670428346664 
-6.048680773505413 
-0.001814216663528348 
-0.02602948296995912 
-0.1043901580040773 
0.3534928061893853 
2.807569394625308 
4.997627799333948 
1.684213315224478 
-0.1765491167223581 
-1.21650458043332 
-2.289305325429073 
1.584785124005226 
5.155504826962393 
-2.421139865913479 
-13.49426957751498 
-0.9456491570289114 
-6.770659662648005 
-14.63896469253463 
1.834924744941187 
22.67316969287419 
25.68445791629359 
6.644311516093939 
-1.282780267300293 
-9.495315524711843 
-14.71624337448524 
20.20707818663474 
17.27857340662484 
-16.48333798556857 
-10.42155200448329 
-0.02857978864832552 
-0.1084989350566874 
0.3578035030043837 
1.901370014954731 
0.9833055378028289 
-3.84587685069053 
-7.742851399575515 
-0.05021344497299487 
-0.4609984827400437 
-1.423106365455697 
-2.421462878298292 
-5.63706098479667 
-7.992060455605933 
-9.015019088902651 
-0.01411497821836804 
-0.138051109702696 
-0.4073406475071898 
-0.1889606548455599 
-0.01399786859501496 
-0.5274778923243278 
-0.3902540790327019 
-0.000309871904493567 
-0.009265188348383406 
-0.09150317290308289 
-0.2783959247810577 
-0.4793799258804642 
-0.9173658603972534 
0.6829700436287154 
-1.491026081008693 
-9.940710268511314 
-14.14808949789047 
10.7995036521539 
-7.371426371799005 
-23.05653608450791 
-0.2332869338242525 
-0.1807987275969103 
-1.009874237069568 
-0.8343092739005167 
2.702890221379115 
6.521492855938401 
7.179901895334012 
-15.62890151677663 
-0.02390444429851822 
-0.2106288712554277 
-0.517301070134172 
1.005464163953116 
5.041168581909354 
5.519697584390901 
1.160949762559019 
-0.9071187298091903 
-3.146317306781044 
-0.3539511478308618 
8.686172353561652 
2.379597862675071 
-8.993461641972521 
-8.195604995238702 
-1.251598300633195 
-7.89709249910242 
-15.96763058409687 
-5.803138477414002 
-0.9604477333226088 
-5.902212323526965 
-8.390356507662945 
-2.432040298448634 
-14.94688075499552 
-26.59372945806407 
2.965197247887532 
10.3015832518664 
-12.52276983012381 
-0.4278224718104287 
-5.690024348244908 
-32.12865201997816 
-29.29621816677433 
64.31110252483477 
0.5320802508547291 
-51.45772132991671 
-9.449902139186051 
-0.0001219726995958741 
0.01320590062694645 
0.2748306611745313 
1.59736454848785 
3.27903372544907 
1.433642126791936 
-2.196970779690949 
-0.1554145102097347 
-1.465679130254523 
-4.933095381891169 
-4.58869750949315 
-0.9534551197409614 
-2.018733776865481 
-0.2508806068744449 
-0.0351381252965489 
-0.2159490922704443 
0.3438537190538292 
5.309348573860428 
11.98958522473621 
13.43508660761863 
18.64395179921841 
-0.007126526394123257 
-0.09920560173948476 
-0.4079080497765089 
0.03460391326724288 
1.002167083704979 
-0.1043650740505592 
7.145908335041323 
-0.009914997431364144 
-0.1644433688532634 
-1.067961929021316 
-3.293596418023206 
-8.001213491286245 
-7.302149704119209 
21.27645913711331 
0 
0 
0 
0 
0 
0 
0 
-0.05442060959499594 
-1.011121465067117 
-6.453459361232385 
-9.921144394530264 
9.686622744492192 
12.24912485921353 
-13.76805899733436 
-0.1513786174090228 
-1.255047457517495 
-4.216144088431904 
-5.808744538858709 
-3.534054996319113 
-3.047210650596181 
-2.344774282905954 
-0.04985328239200126 
-0.4506627149588802 
-1.777822564488102 
-3.376857203400737 
-1.926352861881495 
1.701107058055971 
-9.060951950324691 
-0.02427475050939847 
-0.2824833038717446 
-1.252012826438291 
-2.033195105911405 
-0.7251129666349515 
-0.3158950627444622 
-3.931697910055822 
-0.0880120967570158 
-0.7156055251939653 
-2.316308480615466 
-2.529112066262749 
0.8218039335835597 
4.079950307700024 
5.914107793199431 
-1.365535539200798e-10 
-6.817084763087911e-08 
-1.254684042104436e-05 
-0.0008615990075677596 
-0.02220767505027819 
-0.2152226567665312 
-0.7835337164879154 
0 
0 
0 
0 
0 
0 
0 
-0.1023359592098447 
-0.9084762727988731 
-1.993705666397217 
2.765400293788289 
7.62923449904851 
2.102053015734805 
1.388292273806065 
-0.4146300007286149 
-3.743855321962327 
-10.94665070040059 
-2.870682426532961 
11.44779068162117 
-4.399412163232718 
4.725881261664729 
-0.007809030886421817 
-0.0998801903132597 
-0.3900375169858589 
-0.1612624516320082 
0.120819158376551 
-1.212739288411989 
2.216482574487474 
-0.0004961238643510503 
-0.00791455872056779 
-0.0220583369208539 
0.3194836714501516 
1.864288303561101 
2.353043521256193 
-0.2245353805071829 
-0.0233392415578911 
-0.3576900139817279 
-2.019677802360831 
-4.120654494571522 
-3.596552473224308 
0.3028618173574817 
11.18206987076525 
-0.2728533027547017 
-2.920189250168762 
-11.42783258757125 
-12.8605890472091 
2.422223225693942 
3.153980653818539 
-15.49374233008533 
-0.1612634898441048 
-2.135073312961599 
-8.19912219275794 
-0.06437791270475791 
20.76469767986309 
-1.616156290663048 
-17.02607148628047 
-0.001852256949761332 
-0.02940042334035435 
-0.1076559429044382 
0.6005325637926482 
2.958395536766821 
1.407858957656787 
-4.03123366683902 
-0.01326038766968973 
-0.1176735519251342 
-0.5823751586449196 
-2.346565090595933 
-3.745760301616575 
1.277435369556927 
4.808019171204103 
-0.07269639723969855 
-0.7441508335668033 
-2.747025520754985 
-3.159909793293795 
-0.6980174730462199 
0.8262337124445449 
3.209697902869733 
-0.0005392551184574639 
-0.01261250127985033 
-0.1170876795596432 
-0.5459239193654319 
-1.792278370735506 
-2.985349090818851 
1.015238839399509 
-0.002147553091145731 
-0.02151092335321556 
0.109741712791122 
1.611942385543359 
3.737568283544298 
1.242561829948455 
-1.716053776783547 
-0.000241125179773531 
-0.003640178518224021 
0.0009207263253116992 
0.2490774044534774 
1.001513819446865 
1.290040455279929 
1.539909599402644 
-0.01040097642684828 
-0.1545441059419268 
-0.9199928186635471 
-2.414454667585857 
-3.036101571005586 
-1.500131812007627 
-1.359953214313435 
-0.02511925050615028 
-0.2713040703915121 
-1.045250694195404 
-1.506954988096296 
-1.894130908460622 
3.05596054744984 
9.686025239642085 
-0.003137255170868692 
-0.02076180040947164 
0.06982648082215112 
1.418131889839988 
5.434803925276079 
7.299094171075066 
5.264018082947406 
-0.001299385441938756 
-0.02124070349416955 
-0.067068154546677 
0.4188671761899371 
1.90729469590734 
2.740552471226488 
4.310082326687296 
-0.0003623334933039224 
-0.005449616545313066 
-0.0029924786290766 
0.1676248697870059 
0.08667757222291453 
-1.024042916730752 
-0.5268215604180001 
0 
0 
0 
0 
0 
0 
0 
-4.470579834768823e-06 
-0.0004424407833651548 
-0.01598872445564331 
-0.2077781306940712 
-0.9213087840353675 
-1.211835888709437 
-0.3566962566942329 
-0.001756099062387726 
-0.04382308104032851 
-0.5894924101857411 
-3.462374836906572 
-6.569031879893401 
1.232912969777939 
8.229650895629018 
-0.06645271144979391 
-0.5970352818284117 
-2.561984356481613 
-5.871550084555528 
-2.585202090673671 
7.448903263875712 
-0.3843926431503885 
-0.002203394949788588 
-0.04988085343270141 
-0.379919446893779 
-0.6803399491467501 
0.9606299368713818 
1.081272884424151 
-4.04844666782994 
-0.0001349607314017196 
0.003705559542934467 
0.1106664448064709 
0.5939341253593534 
0.4830904097113313 
-0.6880688610555741 
0.527154109897478 
-0.2939865169270542 
-1.741602137065306 
-1.092370218372025 
7.401149722928552 
1.552641835618452 
-11.08571039106908 
-14.34784981140977 
-3.376670786265578 
-23.37605819910165 
-38.24000202179224 
42.40371792536261 
40.02839436369349 
-51.47292513030378 
-25.52606706838682 
-0.3897609225910991 
-3.169093086997713 
-5.560743076509106 
9.759729141071794 
11.71489251002775 
-12.62522729107235 
-14.42005062235502 
0.003856889941193459 
0.07381236633725057 
0.3732699144023213 
0.08134318702116639 
-1.806692060442916 
-2.111130747469501 
-0.6743378129997106 
-0.001435536994497721 
-0.03283209897822956 
-0.2846658218784878 
-1.022675133975225 
-1.8275553572639 
-2.124391863321481 
-2.367702656918859 
-1.112579074028266e-05 
-0.0005304085224045767 
-0.009639051961046502 
-0.05930946211940129 
0.04089952089574697 
1.460792036035278 
3.879517242235947 
-0.008060208480962939 
-0.1770436788756345 
-1.400744661489388 
-3.208038217637664 
1.060371708515816 
5.591072639812523 
0.258169187204314 
-0.001458321732753371 
-0.0381764561602122 
-0.3352710883349193 
-0.7920456014420874 
0.378930308872137 
0.7498987905645647 
-5.052672168943145 
0 
0 
0 
0 
0 
0 
0 
-0.07501002065589213 
-1.267556601004941 
-7.275481155911947 
-9.455932757587567 
10.95159660065209 
11.0431295563874 
-6.012780453440487 
-0.02669808217861909 
-0.1580872715452412 
-0.5315882992445855 
-1.217224128071273 
-1.484675549789761 
-1.85877104740313 
-3.86240541092812 
-0.01158544606487519 
-0.08496539580493813 
-0.2055776531517773 
-0.2566619579569654 
0.5766686446754676 
3.233161592551193 
0.9751434304978617 
-0.01291651524501479 
-0.07007431354250308 
0.1903934762982478 
1.666145198398344 
2.3650969414663 
0.7165636072709276 
-0.551746957533505 
-0.0006918631583492861 
-0.01933659275897631 
-0.1604854715909758 
-0.01230682226132968 
2.571840675211721 
4.244082056402826 
-0.4383412684454688 
0 
0 
0 
0 
0 
0 
0 
0 
0 
0 
0 
0 
0 
0 
-0.1870405253543961 
-1.50567439309984 
-4.627426676803136 
-5.580175016313434 
0.7681974783466181 
6.505778117505971 
-13.68693787202 
-0.3207339452630147 
-2.962812416279144 
-9.851707193229675 
-9.712499811841402 
3.343384408614758 
6.767654389725522 
3.040006755523436 
-0.07239026290401072 
-0.5360420672139674 
-0.9118857966000055 
2.242517936588124 
6.43402088849172 
-2.634811666222685 
-23.75478429417079 
-0.01252154132280115 
-0.1275946954112543 
-0.3529049632794999 
0.8749005649190206 
3.876706024591275 
2.316651660752311 
-2.022532722447829 
-0.2772504150783747 
-2.655104308583734 
-9.441720362639566 
-11.26057749173022 
-0.8737030554370048 
7.300319912348034 
0.4593312476354854 
-0.5625879592448831 
-5.171937693594566 
-15.85995634384074 
-6.742858286725681 
14.20871481365342 
-2.736367261609834 
-31.27888142425601 
-0.3325314565356453 
-2.009977231991682 
0.1970135606482733 
15.63009323220199 
11.2879191031744 
-7.469759812988348 
-9.828192282413374 
-0.0008000742166270337 
0.0008451368418833207 
0.1670566564585942 
1.096487016802685 
2.075471344813209 
1.337892062617312 
0.5848724288661191 
-0.04171472429094431 
-0.1489542320002585 
0.3188641780983413 
1.270694813891791 
-1.745415889953192 
-11.70836238514897 
-17.05287290428351 
-0.1216563430219202 
0.181906091019321 
3.710031582679107 
7.353216664979044 
0.8304535318674821 
-3.892716936404385 
8.154554516179727 
-0.01286418341430039 
-0.05319400847224901 
0.160663634518708 
1.32375189687016 
2.223806619283592 
-0.2927115589150661 
-3.132849469542583 
-0.01513289801083621 
-0.1361985942543769 
-0.3974097510277833 
0.06235768929355466 
1.536459699685795 
2.118963650045328 
1.989105960749331 
-0.0004814784287112625 
0.01939383683674928 
0.2758766214355591 
0.8535790686926091 
0.5502069216897687 
0.1436590545506134 
0.7257185399376339 
-0.1564631563221899 
-0.9703137896791787 
-2.238557194948366 
-2.737836691454831 
-2.164316525636685 
0.5949733902425499 
2.180846439763862 
-0.08871718414995541 
-0.2385135870511459 
0.6522498882694497 
2.883173795360225 
4.417498433449282 
10.74361397156156 
14.34110014089666 
-0.006027630079624619 
0.03611553787261043 
0.7978616159735159 
3.094053188434672 
4.677996481798085 
5.182057873565474 
5.252850711923152 
-5.98833633673686e-11 
-2.798402314361311e-08 
-4.593005435642363e-06 
-0.0002688780901871301 
-0.005682859952320722 
-0.04375814570772725 
-0.1234933638317667 
-0.0007748329949575 
0.0243195882449285 
0.3780180900459902 
1.458473813616253 
1.621805351664206 
-0.7331768435524482 
-2.646082567255106 
0 
0 
0 
0 
0 
0 
0 
-2.054321732646845e-09 
-6.340621497476994e-07 
-7.371188429341498e-05 
-0.003262892806607511 
-0.05479475698255792 
-0.3425860992488221 
-0.7663357778008048 
-0.02283492322580874 
-0.2570632442006908 
-1.121720232931618 
-1.730667392118626 
-0.3409754857049876 
-3.259316986402362 
-15.43891298156952 
-0.6946224233538697 
-2.426080936412536 
2.158625793394295 
11.16501841249101 
4.725678967178353 
1.854567774690493 
2.045879100084604 
-6.81651914800842e-05 
0.1257156806625707 
0.7247304355222567 
1.190387141723622 
1.422055692811097 
2.162520049890925 
1.977858005949301 
-0.4267359166599016 
-1.228454578058599 
-1.187152242935656 
-3.457765779297932 
-5.626755774153207 
-0.0002055503766164452 
5.5443323646717 
-1.292286712443139 
-3.264011840404359 
0.9252972912853658 
4.276721368555979 
-5.408164927241332 
-17.08678706111775 
-16.54871378996435 
-5.618888611942495 
-11.30432698479877 
13.65768433025543 
24.93584166531562 
2.474933977584762 
1.73036461697691 
-32.71952151790898 
-2.180443415812251 
-5.428070441460441 
1.536666409234957 
-6.933159920545298 
-26.71002792338226 
1.155666504368428 
15.53360646787904 
-0.0006884444697866235 
-0.0054025845398796 
0.07099910383368617 
0.7798057529477274 
2.100878377638258 
2.257475632047317 
1.048710570493583 
-0.03710653948098188 
-0.2060390552344952 
0.3471583623722468 
3.443603047268106 
3.447288398561246 
-2.533018447080584 
-4.869738742485287 
-0.0004878589593517012 
-0.01815983322159648 
-0.2471180981838305 
-1.202605489861362 
-1.894260420198269 
-1.203923478638073 
-3.917724880973686 
0.001973187290864324 
0.08891388010782132 
1.091721925961318 
4.518467847958731 
5.834622861931115 
0.2011058409522872 
-0.7305526191772395 
-0.004263064413135538 
-0.0456822795037604 
-0.002895901435799668 
1.413731068197171 
4.375374041640701 
3.371608525277991 
-2.087025999719318 
0 
0 
0 
0 
0 
0 
0 
-0.4546513229906892 
-3.917651377805683 
-9.811541357960596 
2.890700922013769 
16.2879894894668 
-2.139013036542146 
-9.694301879451285 
-0.03312330245540241 
-0.1210368666472959 
0.4436188940906075 
2.091544008014552 
1.275418042259749 
-2.198653571693769 
-7.603147056462181 
0.002336492799904454 
0.05741153509705263 
0.3221044802970275 
-0.06423651084946015 
-2.382759012590906 
-5.745447457574335 
-11.76773449841548 
-0.0008554743734769656 
-0.01658972913877647 
-0.1157707902882206 
-0.2436843294927303 
0.01965027339714885 
0.5260783452598549 
1.006826834620686 
-2.60045392858897e-11 
-1.734641604070536e-08 
-4.086672796479417e-06 
-0.0003449412815252596 
-0.0105515879515302 
-0.1179969064687191 
-0.4852921641566562 
0 
0 
0 
0 
0 
0 
0 
0 
0 
0 
0 
0 
0 
0 
-1.618835803516118 
-13.82742082013166 
-34.23305992863432 
-13.21070473924888 
-20.9692487518049 
-32.11748368399248 
-26.26038462559178 
-3.125094349833907 
-27.73752541092962 
-79.16634957440317 
-37.96592166856008 
24.08437817490426 
-29.56043263848506 
-21.13447112659209 
-0.5840315808547067 
-6.746021134577659 
-25.3600513173205 
-19.99486593086416 
10.83326899888193 
4.223074192594648 
5.895500720301713 
-0.1712762374038928 
-0.9022336516909525 
-1.823280998019625 
-2.38248877880979 
-5.813747384296009 
-9.853221955601434 
0.2418041384184987 
-0.715373396371916 
-7.895954869090941 
-28.10041889343463 
-18.98172602953224 
17.25125573020652 
12.87250014840417 
-8.268985584160895 
-2.88730259123713 
-25.84337719464452 
-79.75692397751008 
-54.55343939019657 
31.18482479959185 
22.24711171678641 
25.73385467336981 
-0.9781307468160676 
-8.26966206954916 
-17.76773513923767 
10.03039390567868 
0.7004130234779078 
-45.96397955310992 
-3.221778235580533 
-0.0998892055124438 
-1.830135178363405 
-13.69991534593497 
-42.0049514243082 
-42.38686013069812 
10.61270521769753 
-23.36408868797609 
-0.6278973115484153 
-3.839240470045245 
-7.473687871723389 
1.023879632535194 
5.773074287337954 
-23.90428234864726 
-21.90715488816028 
-1.780137830498335 
-6.752707716407532 
-3.066072073933887 
0.1003207515389195 
-11.30308798895268 
2.117789211209102 
-13.99217424313889 
-0.03434915624773099 
-0.3789282749101753 
-1.413540671268376 
-0.6343139586680163 
5.439571817294412 
12.37446957675037 
9.639537543931464 
-0.4551036577494722 
-2.068852667227152 
-2.903712789183033 
-2.186052201668795 
-9.70951776500301 
-11.47682815259353 
-0.2102441473435266 
-0.1632564466878666 
-1.025177512343984 
-1.653405217808952 
0.5249640028236535 
-0.5652315090448111 
-7.382264692748554 
-6.085620435479708 
-0.1207394380704469 
-1.253661938132161 
-4.95281509786877 
-5.354901859758277 
3.612328497614361 
-0.9604333509255101 
-24.25020740153013 
-1.293845549730892 
-12.57352099835422 
-44.27623317747887 
-32.55204741971461 
45.82316246903328 
36.56440884747797 
-4.075837937487598 
-0.550377026835868 
-8.711607078994691 
-49.0110249258049 
-74.19968696684828 
20.89154567826233 
18.34644468593095 
0.3967259323023571 
-0.003432937874104888 
-0.05838514320455605 
-0.4739865381530214 
-1.962643214452062 
-4.534855736730661 
-6.75588226398679 
-9.070101450348671 
-0.06917689526686295 
-0.8841423133306074 
-4.76729263403456 
-11.45135832026515 
-13.29104710453256 
-7.112153694825649 
2.200535771542186 
-0.0002630611438150564 
-0.009038255761387321 
-0.1204772914953935 
-0.6281059666001926 
-1.393033688805426 
-1.556991582549903 
-0.5585116318634915 
-0.0008628962415326363 
-0.01701712285252591 
-0.192275262133365 
-0.7624689255074681 
-0.466863284360498 
-0.9396672738265565 
-9.043084642446734 
-0.0814216545176398 
-1.009689237754074 
-5.995921330246864 
-10.20865508207998 
8.247298526635374 
12.80799743859607 
-10.15015856315686 
-1.24284042610127 
-4.531074431147733 
-1.744348238855667 
1.984966465249173 
6.040032551443465 
12.37902943302583 
-0.1783598994869015 
-0.9447407069322168 
-3.692468351774755 
-4.71874174040713 
-2.203852729767676 
-7.868374344947708 
-10.66900871494773 
-13.06677852904727 
-0.4616034746143955 
-1.324857293783636 
-0.9047023424761396 
-4.7810936706216 
-12.85546970849748 
-11.07387593865069 
-14.15725584359669 
-11.88363206576778 
-34.6815963709293 
3.152286990848895 
25.08481446820502 
-14.86545198103787 
6.814023101009687 
-9.396710466270866 
-13.96878038222465 
-39.25577446626359 
-0.4611239501722674 
3.492906236385126 
-37.36796636386006 
2.5215547530856 
-69.66974093156186 
-5.330172134035086 
-16.92912505089922 
1.962688162967462 
30.00553310106939 
-12.469430092593 
-17.43483929865539 
-0.2096564680482744 
-0.03044612144245217 
-0.202323001091582 
-0.1752906286965639 
0.9516614613174914 
1.369380054335972 
-3.775476881703776 
-17.14386524759635 
-0.3811864879278684 
-2.704612840091285 
-6.30453075684663 
-1.628661373074117 
-1.416327404914919 
-14.46370793575571 
-15.51019477463536 
-0.2646199655835049 
-3.067646224494278 
-12.4065479392833 
-13.15442451758546 
4.280813757229594 
-1.515744736344518 
-3.423653346858266 
-0.1862597244524266 
-1.480016148758052 
-4.227660974387915 
-1.936802032072161 
2.860845725662559 
-0.5368650031498302 
-2.21942129314992 
-0.2008419827550252 
-2.538503447603601 
-10.04544811412203 
-8.341087408470484 
8.09817472814245 
18.39925205129423 
-7.655636222279321 
0 
0 
0 
0 
0 
0 
0 
-0.4998847354196738 
-4.911197358684131 
-12.714565250876 
5.760464280029854 
15.34987666487693 
-2.343480340752933 
-14.20954929243006 
-0.5950211109253122 
-3.098569270537954 
-3.520075323767673 
3.457121849116128 
5.402271853997685 
6.696343536873006 
8.30814518609284 
-1.374227729476943 
-9.080513684856923 
-21.46946365388504 
-9.509580809231016 
18.5375360400245 
13.04990612977208 
-47.86302969976454 
-0.04439571179045913 
-0.25713040594557 
0.1967312063621126 
4.856032007010813 
8.238133337609538 
-4.156261998871547 
-18.7254169445027 
-0.04230010415177601 
-0.5691006751204801 
-2.564921433388881 
-2.492378447015674 
2.973649219994788 
1.263441714547008 
-8.598560334478245 
-0.01435646811740525 
-0.1464441730507728 
-0.4653734490010444 
-0.2040578010989659 
0.2674428620963806 
-0.7964378622101947 
-1.100444294364461 
0 
0 
0 
0 
0 
0 
0 
0.003106141305681332 
0.08011501888134676 
0.5914523396055862 
1.217030710897898 
2.938856747910516 
13.50759891069936 
22.41095724227094 
-0.05720454206095445 
-0.949506372472007 
-7.376938186553208 
-28.39494868664967 
-47.8861064479951 
-23.81548780430086 
4.808621791120288 
-0.003788655915194167 
-0.07448517775745525 
-0.5633256538178502 
-1.898221358782421 
-4.363394791557082 
-10.41314940148014 
-22.99368704347955 
-2.206951199857848e-05 
-0.001324659087250076 
-0.03041483910295298 
-0.2734154185561733 
-1.043865943368145 
-2.202874380187282 
-3.474404839243529 
-0.06626731214496841 
-0.5596334824860461 
-2.150468505256584 
-5.358858175815748 
-5.700326616315105 
10.64033547513255 
31.71027779797768 
-0.007593110737424921 
-0.1075971465963107 
-0.5393492945140101 
-1.038118044386327 
-0.9676229625151553 
-0.3700156281329853 
-4.899696716831767 
-0.1884434904703564 
-1.320196151665678 
-4.012885453344158 
-7.432865386179399 
-10.29998905409846 
-12.2126497395151 
-18.78222336489396 
-0.000300009860418491 
-0.008977555718361408 
-0.07696231159845812 
-0.06166254546405624 
0.5872390709274524 
-0.5472465730293837 
-6.580731878309412 
-0.0008717442484259316 
-0.02284752886651549 
-0.1642368384412251 
0.197774853064458 
3.010283601063689 
-0.1039360089762284 
-21.31037220494332 
0.0002202405156723516 
0.008937639455580263 
0.0103770471718869 
-1.162398604979935 
-5.948738286608914 
-5.598544738437612 
2.14826767923467 
-1.815810256555408e-07 
-3.303842366972841e-05 
-0.002229434056756275 
-0.05669409217325874 
-0.5477589542230353 
-2.002612820769131 
-2.68645871566867 
-1.774271106954351e-08 
-3.104361509723009e-06 
-0.0001971430224681202 
-0.00428557020185591 
-0.02293204719212247 
0.08658875525561405 
0.6796781652408872 
-0.001261560726229434 
-0.03006420162303216 
-0.2803882377824217 
-1.088272579590457 
-2.082192957136555 
-2.35880261107543 
-0.8017671198009911 
-2.396964509846828e-08 
-4.533984632459083e-06 
-0.0003202327589291648 
-0.008595266788737923 
-0.08899998776811105 
-0.3717747183557525 
-0.7188416833051778 
-0.004058120299235616 
-0.09249154589996036 
-0.7678676726267568 
-2.178264010468582 
-2.345650103189203 
-6.006790202517383 
-17.74821401541372 
-0.002411872101469757 
-0.02748668363923401 
-0.07164205473638148 
0.3742389036551425 
1.189196374424494 
-2.474035049192517 
-4.298579618712295 
-4.419271170513929e-07 
-3.994875853435465e-05 
-0.001620132328450282 
-0.02742462038724411 
-0.1820965607243778 
-0.5132688463288216 
-0.8552309592777677 
-5.686273268336531e-06 
-0.0003332827735222794 
-0.005424638215497651 
0.00574177272037421 
0.4147037354768375 
1.677661153733844 
2.729922935057347 
-8.62162760979956e-12 
-5.055473532790415e-09 
-1.041868499494845e-06 
-7.667816175158576e-05 
-0.002041053747572172 
-0.01983905985899752 
-0.07087899750966251 
0 
0 
0 
0 
0 
0 
0 
-5.640204706511572e-05 
-0.002274176030954252 
-0.02596550655040238 
-0.03799679392924403 
0.2759761225452517 
0.9918162675453488 
0.9668657215212709 
-0.0004946299369071442 
-0.01890277068997399 
-0.2965607657214075 
-2.083157051962893 
-7.014153167406064 
-12.6723758490425 
-16.37624915974648 
-0.003273861480108785 
-0.07150230768902376 
-0.6516185960744439 
-2.413326213812427 
-3.336820359598517 
-2.022078975236891 
-1.3209323497278 
-3.126116288188616e-08 
-7.331594884341982e-06 
-0.0006087675797115889 
-0.017463465469106 
-0.1537624443536768 
-0.1418661588979097 
1.794950846670661 
-0.01102232487931071 
-0.1372512537757967 
-0.9606084383245744 
-2.883257319586673 
0.9604346078610394 
13.31551079517996 
2.783454335857995 
-0.6210408007626059 
-2.735943862935885 
-7.880164968089169 
-13.93505558041057 
-12.58085841569701 
-12.416254877355 
-6.485484707289108 
-0.0117077577257907 
-0.04803807611547788 
0.06607917752858698 
-0.2561404088890766 
-3.746548631864246 
-12.18072728428237 
-19.76116087256558 
-2.983967056880459e-07 
-4.695682667272379e-05 
-0.002688590902518812 
-0.05649648440945457 
-0.4325880519199631 
-1.158497051434669 
-0.9491379913261979 
-1.173656211237046e-05 
-0.0007470109618904001 
-0.0164224388507863 
-0.1107357861208827 
-0.1161242735591771 
0.001376371146178714 
-2.319591694933812 
-0.0006713821165738838 
-0.007894768817373618 
-0.01355764807761251 
0.155314169085655 
1.207350197302342 
5.013615397554072 
9.527059380884642 
-1.321989365350052e-06 
-6.372477768841164e-05 
2.445275266037153e-05 
0.03371048581284441 
0.3425366206078964 
0.7746027036160346 
-0.4174715565834241 
-0.000186627651143663 
-0.008211725507762946 
-0.1353591652626584 
-0.8600701291920418 
-2.174963004334846 
-2.038953858270182 
-0.4899952607816836 
0 
0 
0 
0 
0 
0 
0 
-9.144157252436625e-05 
-0.000727294332342571 
0.001726429060605841 
-0.03061979390532428 
-0.1183371320653006 
0.875712751353648 
2.389512484195493 
-0.04380434644181268 
-0.4729881881035467 
-2.047434512475187 
-4.057104618579067 
-6.018690837332773 
-7.719782433708486 
-3.478695327292366 
-0.002423159575804896 
-0.04893543709117169 
-0.4444932903074708 
-1.901644319490886 
-2.838167727082211 
1.946733940880822 
6.145042158734515 
-2.066623686606677e-05 
-0.001216750838669222 
-0.02860948485056347 
-0.2742514993564454 
-0.9945207914737411 
-0.7403622735203743 
1.702540230141495 
-1.592910013505783e-07 
-1.138935486237182e-05 
-0.0002508958380202169 
0.001791478363179369 
0.1068007805835897 
0.9344889798938559 
2.694943412171187 
-1.054661480799795e-11 
-5.352813563894605e-09 
-9.813643239037199e-07 
-6.58978167713912e-05 
-0.001636993119618359 
-0.01514338849165881 
-0.05235481699009097 
0 
0 
0 
0 
0 
0 
0 
-0.1181068948827656 
-1.202533581909231 
-3.989791859969849 
-2.097937116775044 
4.400129464721156 
8.479456573763086 
18.37221577281408 
-0.2604182467625762 
-2.315636938757649 
-8.940253573299255 
-15.61728622038433 
-12.62821213364442 
3.447743299985171 
34.72212796007269 
-0.2053893336941467 
-1.929972758620309 
-7.751377071005367 
-13.48587064637809 
-8.783455208440392 
0.7527889304964904 
-5.092077115075885 
-0.01003698297183049 
-0.1033064486489483 
-0.4623101475426392 
-1.128434074241841 
-2.796484170670392 
-4.846376363673699 
-3.849649981592415 
-0.06021418092462821 
-0.6928992895883056 
-2.808907803491044 
-2.85678085893379 
0.9992196863483593 
-4.858902368718315 
-16.41663298278129 
-0.7729943905920794 
-7.213811195912196 
-19.19802831673233 
4.887954274925181 
14.72149638928333 
-35.76006520884417 
1.927759147851303 
-0.007442549222776058 
-0.0372280140427667 
0.3892715847663593 
2.825003616888185 
3.332727395320371 
-3.074710817617073 
-6.111170673533052 
-2.249954694978814e-05 
-0.0003176635654458307 
0.005515304875963556 
0.1249553551545447 
0.8797280874672432 
3.030089656700719 
4.526434336801422 
-0.05840705489957577 
-0.7084201515909831 
-3.39185089692583 
-5.52792864507667 
0.6812067126926794 
4.227437729626694 
-3.607497731504752 
-0.3006185879624195 
-2.14725718425439 
-5.659110350693241 
-5.699637657903361 
-6.147041479140401 
-10.13495040409101 
-8.935096171272233 
-0.002497245034367275 
-0.0469365371221063 
-0.357074047278889 
-1.366994952116928 
-3.547702437194587 
-5.49684838659805 
-2.260717485291618 
-0.004089130202391215 
-0.04832721532462545 
-0.2740369303111942 
-0.8052996745645571 
-1.39758230404146 
-2.388162157249796 
-3.513282489559995 
-0.002471017817365054 
0.02428646748482048 
0.5221005325133391 
2.036595461011752 
1.586023993116613 
-2.200418020216356 
-3.158528054561007 
-0.001381180094011164 
-0.02038645481550991 
-0.05864375006445197 
0.2918328713723509 
1.052468289239347 
0.8460519075106079 
0.4310340401362662 
-0.02229489755167317 
-0.2677816786169357 
-1.23957643558325 
-2.403235648700092 
-2.027357030392542 
-9.236783881375105 
-37.32691990052495 
-0.00297590322063015 
-0.04093353545684303 
-0.08862764252984168 
0.8988652921011934 
3.855136722714211 
5.647900464057491 
5.444639473657228 
0 
0 
0 
0 
0 
0 
0 
-0.01129923941636153 
-0.06463301434656825 
0.06101583636612161 
0.6013895571260242 
0.05472037832985858 
-1.859374213340374 
-5.021248743085792 
-5.295379911360421e-08 
-7.611165637577155e-06 
-0.0003995173529601266 
-0.007476674818183425 
-0.04525205633349167 
-0.06247881344479527 
0.006234426827608823 
-2.217663009685779e-10 
-5.558280154883085e-08 
-2.925394326953867e-06 
0.0001766662084097821 
0.01221525995033812 
0.1792499684329187 
0.8404966191778437 
-0.001753217408409005 
-0.04224978293349387 
-0.4723636368899684 
-2.397707754405872 
-4.321318739511808 
1.149065365231658 
6.627534027307701 
-0.04501682021979876 
0.02173424105250436 
0.7828579802272683 
-1.182379210824763 
-3.560244843670806 
7.265083141996659 
19.2262360327009 
-0.006260896331609054 
0.02121971939837752 
0.7439667002985552 
3.03860437626566 
2.807191624191498 
-1.883653626357229 
-3.067563986400874 
-0.00646096300250613 
-0.07151171770772373 
-0.2029163399584191 
0.3202059695155083 
1.313650036543083 
0.4164921858055637 
-1.100551773307469 
-0.3462199300524063 
-1.760592757319326 
-3.366375378038483 
-4.633988860325563 
-7.801677302644795 
-4.088772196966561 
19.64289592990604 
-0.015025461377549 
0.1966122928507264 
1.107940977631382 
1.672471788497368 
2.868276565527082 
4.720655182526722 
10.27779318729707 
-2.212676570172779 
-6.645611322939425 
0.6313538216743422 
2.856011422124411 
-19.46650936568724 
-7.631111164577215 
-16.2380369878912 
-1.499215546400988e-08 
-4.027323667349031e-06 
-0.0003849053190057438 
-0.01304242008119404 
-0.1519788390768016 
-0.5435983744538719 
-0.2657546974630749 
-0.01752475201945393 
-0.2228216678270344 
-0.9509365204620719 
-0.9484655431097978 
1.02354835723979 
0.430217583356883 
-2.882264278065271 
-0.003035171189082574 
-0.06585499181024666 
-0.5414860736150645 
-1.45586517006666 
0.4787042101831497 
5.961162413245093 
5.735802224596997 
-0.0007125511391959906 
-0.02143154042056033 
-0.2426836550463035 
-1.040360955668236 
-1.657866411865477 
0.4242693456851873 
6.745673737443063 
-0.001543133831931871 
-0.03446775784519061 
-0.3056835348722607 
-1.270129097309926 
-2.979338761244082 
-0.3761719677591852 
12.42459819178392 
0 
0 
0 
0 
0 
0 
0 
-0.000211799059809753 
-0.008566001438468406 
-0.1291768134814432 
-0.6931485974230425 
-0.8085919385144118 
2.61662205365448 
6.037994016437056 
-0.008462098886328352 
-0.05507060494684723 
-0.02596382603798421 
1.144992403594653 
4.00728281311261 
4.184691841919448 
1.748252518343772 
-0.001405132666872947 
-0.01651457217999689 
-0.0212918901612624 
0.2705705570368319 
0.7417538537491977 
0.601249320345953 
-3.09201606404011 
-2.742853172210633e-05 
-0.001900657304984609 
-0.05069739141270226 
-0.5125767707852658 
-1.801493748825308 
-1.595225126043661 
0.288773345586687 
0 
0 
0 
0 
0 
0 
0 
0 
0 
0 
0 
0 
0 
0 
0 
0 
0 
0 
0 
0 
0 
-0.4081028358653861 
-3.982185690931063 
-16.07059843342856 
-26.21145230653548 
-10.36889607504825 
-1.64632294512466 
-18.24220697939741 
-1.120210961824985 
-10.80802124677821 
-34.74881197656609 
-22.20951509340849 
11.8393960249788 
-22.56397635884837 
-24.67252752720201 
-0.4254300383728624 
-3.197112595628323 
-7.891574824385191 
-2.978036619192708 
4.137570298503189 
-5.427805301488819 
-23.12952007479888 
-0.006633153770083311 
-0.04998258078375543 
-0.088443474769953 
-0.1780227735974176 
-1.622702721757892 
-2.487115245457672 
0.2162711734806589 
-0.3724111260182332 
-3.170738386702048 
-8.029395502957282 
-0.1885769816340123 
12.40697149637062 
13.3099712212715 
12.0018941996904 
-1.927251198863588 
-17.98574105661719 
-55.34695723962887 
-33.90233443578494 
24.38809875659406 
-10.1924463209947 
-24.00813159277328 
-0.3164890951019092 
-2.694367680215275 
-8.210648425097967 
-9.275006418056098 
-8.362748839446855 
-6.705299848087088 
-6.501897216332642 
-0.006707309816320825 
-0.07828535254997977 
-0.3193870769732545 
-0.688691703437632 
-1.645911687713122 
-2.734538697678768 
-5.801668235366317 
-0.1454889805455974 
-0.970472288353726 
-1.726604362612193 
-1.470222694843575 
-7.68087502090973 
-8.363431126267175 
9.621103570022008 
-0.4683217199226876 
-2.818256676855886 
-5.363704159227757 
-2.0686379633614 
-3.98718452607508 
-8.657372955394143 
1.707555354920355 
-0.01600676459300437 
-0.2473583261297376 
-1.652703358499545 
-4.169633050878803 
-1.729032135955074 
3.423269768927407 
-0.1918305902114574 
-0.01195978190744321 
0.02386020670925587 
0.4057102909449388 
0.9670317744441327 
0.8950602326354523 
0.2532281070008841 
-2.391224120465762 
-0.155884623117308 
-0.9218312742941536 
-1.617413841596613 
-0.5465777909650783 
-0.3471699772917285 
-0.2238209674790644 
-3.712403966329867 
-0.3961910372619916 
-2.003017835210043 
-3.932163413097069 
-1.183757150567365 
2.351195776564048 
-4.093021437455556 
-7.565981878846761 
-3.862372519065454 
-19.71637050463456 
-23.19022978135567 
-0.328979320138286 
-24.91437433496086 
15.72504925577158 
1.783615833242655 
-0.02948612589424972 
-0.2409440375863884 
-0.6348318595195002 
-0.6003665537737318 
-2.342502490241516 
-4.56753473859776 
5.093543257669657 
-0.03433024649317971 
-0.1030111352879739 
-0.05726352789780692 
-0.7249460612920205 
-3.090928737552139 
-6.176126415292723 
-8.045109450063505 
-0.0406253849353695 
-0.2408374738989451 
-0.4432977695976899 
-0.5309071724287741 
-1.001489308723561 
-2.808498944937388 
-8.076216059293685 
-4.131350884433001e-09 
-1.189854139287303e-06 
-0.0001227633212907115 
-0.004355317972088785 
-0.0448086528820171 
0.007241630092671671 
1.173780772414981 
-1.526591892249076e-05 
-0.001152096487165714 
-0.03593362251524918 
-0.4403015460695422 
-2.005439590875647 
-2.976783045162168 
-0.1704341554563149 
-0.1634224913420678 
-1.024559123039925 
-2.201539417773981 
-2.815286528105716 
-5.897708687717842 
-5.90963023517878 
-17.24323786593131 
-0.3613182620771391 
-2.356958473554787 
-4.508959946039035 
2.941476515174505 
13.47570831196391 
0.6505160315188334 
-19.50820099000045 
-0.4610831437638991 
-1.50740256332637 
-2.783148082904868 
-2.739921240000259 
-0.01648402471822761 
-0.7280456209068878 
-5.09110073239323 
-1.085826393289454 
-4.036931384543579 
-1.403329033231041 
6.254588979181022 
-1.104146731866985 
-6.914430452028737 
-13.55227179357098 
-3.957473280791204 
-20.75201477148296 
-35.39256027880387 
-17.3690429055389 
9.392307029157505 
21.02262929673468 
-77.65675049290074 
-5.742495287981456 
-18.77856606386405 
-20.26728891961848 
-13.24222507146502 
-0.836115268894114 
-4.738201235386771 
-48.50256130076323 
-6.120359511597527 
-15.62456090754427 
0.5548826812949293 
-7.102930718217506 
-29.14062269867084 
3.999315133895951 
-5.898660152825911 
-0.009454456437451778 
0.009249271547763956 
0.7495245403425707 
3.297525283661302 
4.184105953959581 
-0.441433533949377 
-3.449720785002575 
-1.401949516354022 
-9.002124689816256 
-17.8583336503046 
-5.416780927121934 
-14.22762623907351 
-30.27445900532756 
-23.72148264416823 
-0.03186901870126323 
-0.4442855918184468 
-2.504853006872126 
-4.818748002961241 
-1.793184176740855 
-7.208016077323689 
-17.73345512444022 
-0.1959070546263402 
-1.910835283740348 
-5.886339523050493 
-1.032281197146293 
9.021846860783144 
-0.3776158581532841 
-6.194800089027451 
-0.3761133706637328 
-4.138020112758988 
-14.91051790802205 
-11.90874004967542 
6.142949761090192 
-3.329209985997504 
-8.701177769151442 
0 
0 
0 
0 
0 
0 
0 
-0.3727456554455139 
-3.226940756228877 
-8.628717989828619 
-2.207129906531183 
1.671131507034137 
-4.707460994842863 
-1.425018321833194 
-0.117071978533099 
-0.5144620412375982 
-0.2159319962908647 
2.562418024564732 
4.874786144638347 
-0.7245554104048826 
-11.91743379761603 
-0.05568772906801581 
-0.5029442559657203 
-1.261579204203557 
0.08418011281356498 
1.073635154876238 
5.080664466939259 
15.11366442751587 
-0.09479188824924567 
-0.732410918767706 
-1.890292540251598 
-0.9726994070524853 
0.3942394772060749 
-1.255729349361625 
-4.634561679616128 
-5.137159518934504e-12 
-3.728405733398019e-09 
-9.434005633473636e-07 
-8.463207361209722e-05 
-0.002728342075322957 
-0.03193539431040585 
-0.1367131807208654 
0 
0 
0 
0 
0 
0 
0 
0 
0 
0 
0 
0 
0 
0 
-0.41604604096573 
-3.352349468998052 
-7.140141544822825 
6.117111947463157 
18.28694758961193 
4.91577170730799 
4.443136147559605 
-1.984435107528346 
-14.62663702927306 
-38.25783125131554 
-15.61667538995291 
21.76362747129236 
5.165705176303742 
12.94340828229308 
-0.04993734444613308 
-0.4133723775951463 
-1.38488417882012 
-3.027799320644637 
-4.559897136485001 
-1.929795757410584 
-3.520998352607549 
-0.004168808641163437 
-0.02841941705554187 
0.2343692981823164 
2.028913321019791 
3.746738981880732 
4.173584575659358 
5.54109098886125 
-0.2716979758805496 
-2.571907609698242 
-8.567054111519091 
-8.907501912655231 
-6.392088692889565 
-6.558331717911829 
-1.070712912357451 
-1.415211535953811 
-11.71693015564128 
-33.54272304977926 
-24.23049032847435 
-7.763699242823652 
-16.29746066879648 
-17.39966377752763 
-1.281964867953184 
-8.859905819177326 
-11.82326648642391 
19.49956803227042 
5.126095510749195 
-21.55222014783996 
-11.59689219492395 
-0.009535516350231088 
-0.09167812097495369 
-0.003281217357808048 
2.424242820439723 
6.642075998227052 
4.60676799086932 
-2.244831779657911 
-0.05045072249097284 
-0.4579581398645978 
-2.055098673939415 
-5.554381750911729 
-7.717005585602708 
-2.645922932596305 
10.99905010895702 
-0.3520782022295061 
-2.34483695795205 
-6.087046223965033 
-7.358283818538807 
-7.437019535706503 
-5.313591711803575 
-3.871299208497182 
-0.008619164285300213 
-0.09829423831116656 
-0.5941083072978396 
-2.293229693260118 
-5.066142009477279 
-4.117185783881975 
1.678973484284229 
-0.01472809326330056 
0.2626372447496513 
2.035840407138671 
4.249777515564282 
5.269192392193975 
5.584691640434462 
0.7650054728708187 
-0.006111111744681447 
-0.07417345146427437 
-0.1781670985619186 
0.7922612662227119 
2.381651077490925 
0.616514768525515 
-1.456102012879112 
-0.06387435090547862 
-0.6855767313655997 
-3.072112094757065 
-6.103158364119122 
-6.346812551034818 
-4.782593060072661 
-1.198606797659904 
-0.1720627592611388 
-1.30949572864174 
-4.363947288026369 
-7.685962777435983 
-1.357442568772748 
12.06297880197343 
-15.49167455312323 
-0.03018728364972811 
-0.117514520574346 
0.6131319446278396 
5.150795739846945 
13.63378247704769 
15.70388586614305 
-0.7633726233793104 
-0.03410381780374538 
-0.08389032873561475 
0.5437915245794556 
2.170081032743907 
3.705755335952549 
6.070356627215108 
3.231291229131985 
-0.004476170452458428 
0.01284595155183022 
0.2183176337284894 
0.1213132660586712 
-1.465469419994179 
-3.661127145270973 
-7.723928760839037 
0 
0 
0 
0 
0 
0 
0 
-3.793996949651207e-05 
-0.002495699187989012 
-0.06264356914756358 
-0.6047530424036697 
-2.31679604489131 
-3.763245593907735 
-2.618896292014132 
-0.04886383181791219 
-0.6132804570788974 
-3.192549701585723 
-8.255118684282733 
-12.28507532416895 
-6.810372423020416 
-7.485771691401766 
-0.3870726128742086 
-3.05024470795242 
-9.985252439811461 
-12.35502582835213 
3.583859652327797 
26.21862529744844 
17.66685052623801 
-0.06334846650299637 
-0.4824602865208794 
-1.151388508766989 
-0.2885543598404289 
1.081404031053051 
0.8994190731306035 
-6.102998772612095 
-0.00254000384294983 
0.09164591098351661 
0.7025505304993281 
1.259296957345766 
0.1795008281582879 
-2.231053124054113 
-4.8700782628109 
-1.128791077901872 
-2.265197583413835 
4.793672972906942 
6.880919851084458 
0.3139474007963852 
7.633479138033721 
12.86941579824151 
-17.43323176583231 
-55.48204398089565 
-21.37057728424424 
37.91715304361249 
-19.63095821119268 
-11.79842831303624 
-40.34410523923213 
-2.900370704940581 
-8.786328271169758 
3.99256351762302 
14.92711689549309 
-7.960279050862559 
2.371670601594102 
-18.56701065574565 
0.004750498646316216 
0.1054052758689018 
0.594961581381997 
0.1130384195275441 
-3.687038710823917 
-5.32766861645504 
-2.085982127841351 
-0.02905985261431752 
-0.3841630087713099 
-1.777333000402968 
-2.876513366055658 
-3.791030204149433 
-8.613369867769297 
-12.99384671273685 
-0.0008710419929950911 
-0.01234410126877945 
-0.0941421457124777 
-0.4093976919227109 
-0.01965736335892529 
4.809420569293094 
10.17518709022788 
-0.1069351035620214 
-1.256757199325226 
-4.803184838266774 
-3.495584145544794 
3.851755379221286 
3.673074663516247 
7.420609090991454 
-0.01516598093653949 
-0.2399744298522341 
-1.27705092967489 
-1.653188177332103 
1.067904709672032 
1.588068083883528 
0.1590954570985673 
0 
0 
0 
0 
0 
0 
0 
-0.7859991727166783 
-7.095244360273846 
-19.67261730400653 
-5.443961010086607 
14.73446906041879 
12.32853249993547 
16.92681322117733 
-0.1265720406599163 
-0.7478002575083355 
-1.902593024627568 
-3.944211917178393 
-5.377237595827391 
3.544953207134673 
18.83335867384763 
-0.1286046198246162 
-0.7366387050602592 
-0.8952615881666046 
1.902627187968067 
4.675459930765023 
5.523469595617128 
2.470738626775866 
-0.02022776377456001 
-0.07834766014418235 
0.5507491702065958 
3.775609865847317 
6.149445488391367 
3.568411216302177 
3.469331429458125 
-0.02006994332892767 
-0.235474776623412 
-0.7298301841394305 
1.204185788856338 
7.261620371718223 
9.961645047095136 
6.061852542535365 
0 
0 
0 
0 
0 
0 
0 
0 
0 
0 
0 
0 
0 
0 
-1.08572689607515 
-7.503732189525151 
-14.32417268745432 
3.085995959768323 
18.06495699230808 
11.92790521131256 
-31.14546253652227 
-3.670264393478669 
-27.6541142882743 
-67.66019932761925 
-26.56123469158219 
24.59823719124776 
-15.41185390557916 
-25.61205997981014 
-0.8964381124412657 
-6.621653540108671 
-13.4973097872557 
5.708052823184409 
19.61215299958842 
-3.501474867087986 
-7.216597846810677 
-0.1076802060811345 
-0.3583310324797475 
-0.07715473647314061 
1.722281622765296 
5.015409040401636 
8.673025112719866 
9.284478377063119 
-1.247371972702149 
-6.673763264692578 
-6.437133584932738 
17.3195767257994 
12.68266242727485 
-14.19401688780811 
-2.483793434648389 
-5.387808022985375 
-37.01194003949118 
-76.82699811918546 
-6.732378612400391 
27.64464460024081 
-29.06905394823833 
2.086520243156894 
-2.440827779093011 
-14.3958008609779 
-19.91554512676323 
22.00423643661935 
16.63452559504277 
-21.38737117520677 
8.725625800812947 
-0.2463471735890379 
-2.782119623976112 
-9.095217445541504 
-3.131725280240561 
1.918108378933372 
-8.786510731012029 
-0.8163853112532198 
-0.3615091044795024 
0.7371834264864978 
5.054268100573188 
-2.758349415967228 
-16.20095754064072 
-11.55673873608068 
9.473378901417806 
-1.874868270228114 
-3.926068094034834 
7.890007206200664 
19.04508022956173 
0.81337693700612 
-19.32149674777052 
-19.4971257211495 
-0.05031610249499771 
-0.5187620430138946 
-1.731524925572837 
1.158727954100153 
13.8334811167608 
18.60272178736939 
5.297940828991453 
-0.1216521035003988 
-0.228078269896075 
0.2072466753949997 
1.616436973240426 
1.900216752070984 
0.161921002178385 
-0.6133188634094161 
-0.1063077707452743 
-0.4578911158329205 
-0.4948705207900885 
-0.4850023026340224 
0.06670210129961684 
6.412716479930014 
9.7149016001633 
-0.2331333903720349 
-0.9347535906897079 
-1.677076611556574 
-3.62371672885192 
-5.80413279421889 
-4.212005419741017 
4.155083294480458 
-2.546251138224244 
-4.711374175578894 
9.109231138763322 
3.086833161058766 
-27.6215471517207 
-25.44040177635249 
6.36516011838817 
-2.944081889291078 
-8.39915247965409 
-2.758566164892167 
-2.238639765426496 
-3.592441695641332 
3.760772514409823 
-1.775689533709764 
-0.0001017440618757213 
-0.00316494669664967 
-0.02762342307740422 
0.0207832802385997 
0.7086977268330229 
2.083598421891049 
3.422308039807071 
-0.03572540685921059 
-0.3234035781461292 
-0.9859742195093737 
0.1698358753404715 
4.764208558405477 
3.239848484198592 
-7.924136060600975 
-4.027998076501446e-06 
-0.0002268101240787975 
-0.004496496010345872 
-0.02468031583157104 
0.023900487566345 
0.1734948150479986 
-0.337804238488399 
-0.0004000931489179562 
0.007562090593870118 
0.1655684526679158 
0.5354083673378167 
-0.7503760799048224 
-4.063962127982336 
-4.314729746694963 
-1.297598068494574 
-4.354242478894901 
-5.07143406822305 
-7.826337374354386 
-0.262436665535375 
3.09996808758886 
-11.33835633892879 
-0.6736536823227317 
-3.813039341669132 
-5.179044946599393 
6.422637941105501 
22.61343073194867 
31.60030856120701 
5.914191450346395 
-0.3125253844268027 
-1.194016611854853 
-2.989488216112142 
-4.982098425131591 
-3.669670644080778 
0.9266925619359676 
2.862942296384221 
-0.04832451738714205 
-0.04774869385276977 
0.02604767696003139 
-2.08687868046551 
-3.934310460065264 
2.060503534820775 
9.636883192380726 
-4.077148109829463 
-16.0990269100682 
-15.81608203113644 
17.03353041633671 
21.01024479888216 
-10.99423625992443 
-6.820703697581425 
-14.99155481227841 
-32.10322645541626 
12.96291203581305 
42.52027585076269 
-10.11790963082778 
-27.03822678779616 
-7.711335065651867 
-5.000898993650052 
-11.40555933135722 
-9.192439767337284 
-23.40075367761281 
-21.6267044642131 
9.024421257735575 
17.15657011769132 
-0.03351890688149597 
-0.1203172567842504 
0.1431962681665401 
2.092468987766129 
6.748527506370564 
10.15431321618845 
6.518838182694532 
-0.2886878892247859 
-1.424229407999161 
-2.708961173460982 
-6.427029299520392 
-14.90204080725188 
-12.85619538957974 
-4.933063689982593 
-0.1344294454292079 
-1.180446943401251 
-3.90937686711582 
-4.634475447178063 
0.5541396406093446 
6.304872632986154 
4.0205328066984 
-0.175273387463672 
-1.75494939313571 
-5.871639074456081 
-5.876348466422823 
-4.960481423047692 
-7.502317995885219 
-7.932514268008768 
-0.2699999181677961 
-2.841630854284987 
-8.048669886799637 
0.5812964090443026 
7.493195213462531 
-0.9392910953411284 
-0.4576199903673417 
0 
0 
0 
0 
0 
0 
0 
-0.7416013275899258 
-4.36219088064237 
-1.828466004495255 
24.16026221718271 
18.77504971275316 
-8.294324367873939 
4.763243424754227 
-0.8097420188347567 
-3.884277042954718 
-8.683178491095612 
-8.280202634763537 
1.94256521574903 
6.197775432830696 
-8.31470913262941 
-0.6466065176036876 
-3.164469100271749 
-3.224748806588279 
7.94796931311235 
2.406427499097687 
-16.98467416255569 
7.260001113329991 
-0.003935777570243889 
-0.08751494278917403 
-0.7658131253119392 
-2.611152191680823 
-3.138200703820833 
-0.1871765727400642 
1.944251490732112 
-3.90372121304396e-07 
-5.760137925690639e-05 
-0.003293971620970671 
-0.07483298709845156 
-0.6888109234435829 
-2.609103130285781 
-4.116491915572507 
-0.08481309402572988 
-0.3961668948292441 
-0.5461637052456669 
-0.1852884610969242 
-0.2789591776679626 
0.3096462408688686 
1.098596838820565 
0 
0 
0 
0 
0 
0 
0 
-3.189860694183598 
-20.28652762132504 
-33.98594729727482 
5.495595036399914 
-2.734223516430981 
0.4135714916177611 
-68.47837609038518 
-7.321507627018103 
-55.14321133352007 
-118.2516128549518 
17.9948106840915 
66.53142057237099 
-44.4880382697601 
-7.223689690539501 
-1.689077256053185 
-12.71269785147358 
-29.90803616775257 
-10.84045474209466 
5.67717588877896 
-2.564690556254556 
-40.53233994768066 
-0.2285008421956153 
-1.739601135724277 
-4.791103989476955 
-1.814996506123017 
2.517064605913294 
-10.28445491564275 
-5.684584367354024 
-1.424373960214221 
-11.66523349866736 
-29.1728638735458 
2.586257211469999 
39.06887709359588 
9.295170666880431 
1.753302515996962 
-9.757153102600364 
-65.62924954858313 
-112.3623360886918 
62.9402478744375 
62.36970625273645 
-82.39709039007928 
-15.48001375455802 
-0.442882770068697 
-3.52190646179695 
-10.64085328075343 
-9.487363206885995 
-0.8070371784981413 
8.467226918587771 
-5.814484802649431 
-1.225974640901502 
-9.432103994084464 
-20.59683830005736 
0.7610549473512531 
-4.09459763180786 
-41.74186507328223 
22.3090172914175 
-0.8966207939763386 
-1.695007968898444 
1.214229821308118 
-6.268239294208007 
-21.6049397531756 
-13.20956571612834 
-2.304362794918393 
-1.959683165163594 
-15.71480191416814 
-38.79212395715303 
5.355541330398826 
39.32828137754387 
-52.0075514745873 
-25.60428982769831 
-0.4241019825130736 
-0.8673044232310105 
2.310167838715551 
1.061141855878484 
-7.62118831707993 
1.199229795405961 
14.72051981791738 
-0.4421424701056174 
-2.384797558504301 
-3.961032637691204 
0.9695614771157225 
0.7199894372577679 
-6.75387311462908 
-4.497611073407511 
-0.0942459005392758 
-0.8151871895599081 
-2.395135596421276 
-0.6076374220004961 
2.448720795942103 
-7.598127349699866 
-17.3902043473319 
-0.4469960725133362 
-1.20592677526102 
2.73130611357065 
8.856956680389672 
-3.153323332027253 
-19.38779297557258 
-9.758808971765117 
-5.83226984240132 
-16.50952779342289 
4.922543141908671 
4.371582434228655 
-62.81953082595419 
-27.84229130392092 
-10.79925526427491 
-9.399323814986493 
-29.11366871494934 
-10.51684313080271 
14.26245320697405 
-25.99620033044738 
-7.690706953153791 
-58.38530097767242 
-0.01699583568871347 
-0.1522844103400029 
-0.5549611237110614 
-1.009975251678691 
-2.284629839714009 
-4.807998201764104 
-7.356090442428926 
0.0004159634464115687 
0.02956863954775971 
0.2290772372641985 
0.1789152735357808 
-0.9985178478059531 
-1.483100240808573 
-6.41743263730661 
-0.004059395333628825 
-0.06409167299775755 
-0.3414537849519418 
-0.5711432046034609 
-0.8299871458093928 
-2.538752343197793 
-3.369800971977463 
-0.009512341044765201 
-0.148762881336679 
-0.9382178923709259 
-2.625746669583958 
-2.590634867021151 
1.441475239767049 
-4.796799866774982 
-2.920624326785809 
-8.452944789004087 
-3.171420862249387 
-3.398974057104959 
-15.73081362313228 
-20.06125861788086 
-29.68385205665036 
-0.7514036332316848 
-6.951120871010288 
-21.6105004245779 
-17.79959929914851 
7.320627353730159 
18.9853179303884 
-14.13891674554738 
-0.556512657648096 
-1.689022382138013 
-2.489423234078137 
-4.139452870791315 
-2.436459530720554 
0.5151365891298475 
-1.955888806135414 
-0.2081067590626189 
-0.9274623386859718 
-1.226303147623668 
-0.4194500844835884 
-3.494441173353183 
-9.340136690161682 
-2.373407778048103 
-3.4381823146801 
-22.91422970836869 
-52.30884386855087 
-14.66098160795639 
23.29135807879085 
-38.11489329766273 
-34.54921335217983 
-3.969950887221293 
-20.92437657549259 
-47.20385257462853 
-42.61321199009677 
3.432744012776423 
-13.74054482896191 
-53.73677499067706 
-4.585851010631828 
-16.36533830486118 
-14.90272356438811 
1.338176287981624 
-10.82826499685449 
-30.40172422849615 
-19.03471011717462 
-0.048767023338485 
-0.466518558650581 
-1.928204866937009 
-3.65541234575226 
-2.7610272281822 
1.286534715377378 
2.311252581206677 
-0.09312700676961908 
-0.6128173553232605 
-1.537796724643895 
-2.670956631077149 
-6.360198482443048 
-14.37705369216396 
-24.7270594995158 
-0.2691652558074345 
-2.749599818055896 
-10.04076453253703 
-10.7314552871882 
3.301268571831685 
0.8768726878936214 
-33.75270044511754 
-0.03628106405659128 
-0.3170282788046856 
-0.9443044674394048 
-1.773648794041165 
-7.095939902424553 
-10.34258762268298 
-2.289139756293466 
-0.09132607496839305 
-0.9464472758588081 
-3.672717647262997 
-5.788325821153767 
-7.196883786101274 
-10.84054134969824 
4.108029692543194 
0 
0 
0 
0 
0 
0 
0 
-0.1634073615350867 
-1.746956183358035 
-8.031735068640071 
-19.36782148739833 
-22.5319947739691 
5.240273764204781 
3.873653923440117 
-0.8683071072457192 
-3.586430433038265 
-4.044962533157618 
5.2209658302688 
12.96033456265088 
6.219378544898738 
-2.621994493838839 
-1.564014240361213 
-8.227180310593496 
-11.85080280422662 
5.206708731892867 
-3.76360608325281 
-18.58531124247822 
-3.021582434594077 
-0.05708969923767018 
-0.06045264244827533 
1.574474641972932 
4.389462770178077 
2.705536443365739 
-1.404358589604316 
-11.69696432403683 
-0.04877400945771811 
-0.4412829907482065 
-1.361000740085106 
-0.8724359391613906 
1.534518882641211 
2.470693189118921 
-3.845408716825959 
-0.01566985962856561 
-0.1625316987784688 
-0.5201620730776525 
-0.2805043032072265 
-0.09146650692335613 
-1.168047650513254 
-1.470959494671358 
0 
0 
0 
0 
0 
0 
0 
-0.9637251087449654 
-7.700236294152655 
-18.05550784482375 
0.2881872202291167 
20.65566860191329 
4.889512014810041 
-15.39169185017581 
-1.359527422353213 
-9.76937103324693 
-22.23881575093958 
-10.67778457307876 
2.479240540130085 
18.75671198847247 
29.62153406375316 
-1.188000666561629 
-7.965102361284674 
-16.27116185863 
0.3799700526336269 
13.4194666815046 
-5.916998986603343 
-12.24603665226621 
-0.08143474834523429 
-0.3072885835673807 
-0.1473284267859939 
-0.135932143051676 
-2.601852849148619 
-3.600793569951176 
-1.959098178449487 
-0.957260357960024 
-7.700748900636212 
-20.99343509382123 
-12.22739392987046 
10.52209154067999 
7.562328446601104 
-13.54296772691827 
-7.8475319394676 
-51.24721563743447 
-90.08440726479478 
28.8075850782724 
49.09994730776434 
-49.60248908832304 
15.35791112837984 
-0.8572864313357549 
-4.495086978161125 
-7.550269453029691 
-1.382796857432739 
4.747394686859024 
8.92591468657306 
-4.343343968968501 
-0.607055345166278 
-4.982408543531601 
-8.823482851528178 
9.517718270126458 
3.928718000623864 
-25.48538547844774 
-19.58681394113306 
-1.485931344841474 
-4.015407964241156 
-4.600561356520218 
-10.6492226708783 
-6.443894373207308 
3.86798297018707 
-13.32175566702445 
-1.078148747263617 
-4.44072420257116 
-9.240696363442538 
-15.82445373291362 
-8.432261641113969 
0.4457896145589089 
-22.35239449030736 
-0.09179071683500539 
-0.7051741329806838 
-2.854184833245406 
-6.660200253019549 
-5.903356218742254 
0.6650293502524777 
-2.230521817572374 
-0.07886434470390054 
-0.563783309388434 
-1.550419991620159 
-1.691856233552379 
-2.276653706616336 
-3.929029957110017 
-2.924233712873365 
0.000753418191294638 
0.030205332259525 
0.2400093372309909 
0.1604056927540025 
-2.296359328045533 
-4.866162865894244 
-3.437436958846091 
-0.09537931675516395 
-0.8625706410913717 
-2.554459439922641 
-1.745467301331774 
-0.3697131781696278 
-2.941064405672525 
-4.41038324346333 
-3.506032860122872 
-12.30741904752925 
-11.14808985131651 
-1.728458957615152 
-2.470524664211293 
0.6152092613837725 
5.927193961359349 
-4.230048769340375 
-14.16544412584429 
1.373865373706442 
29.53492091414093 
-11.06595755869143 
-31.87847657803034 
11.69636275070011 
-2.541099912962159e-06 
-0.000314601130228124 
-0.01481814040199896 
-0.2748448048849484 
-2.083736803990572 
-6.674636849637766 
-9.161299858413685 
-0.135141057833838 
-0.5145944569452182 
-1.400368021176406 
-4.639893292453509 
-8.480533904082444 
-8.711902309476597 
-9.498432409063874 
-0.03385583172362847 
-0.1216503964935706 
-0.08654580430148465 
-0.3976526633044558 
-1.071434577217501 
-0.6753091594709991 
-0.5986833090709947 
-0.0004507281671989354 
-0.008841954065357389 
-0.07358651948660996 
-0.3010357300563006 
-0.3126602435016045 
-0.1865434484598133 
-4.029832682580761 
-2.703043953536995 
-5.825012175331382 
7.117853588549527 
4.206835545993123 
-23.26924303880252 
-3.27980217339858 
-7.328101915665814 
-0.4973981440868884 
-3.687289646933879 
-8.929298560737516 
-4.522677490709889 
2.801241148854499 
0.1279938206942337 
11.87658667516334 
-0.003517267285504268 
0.01032309643585891 
0.1579235664859713 
-0.4481399287309088 
-4.316077115096778 
-9.410191147605797 
-13.24665907332126 
-0.6627526726956475 
-1.979752758542793 
0.8501450862180236 
6.568708650306174 
4.593336584892331 
2.506360022696285 
0.2934555642048797 
-1.652261918707997 
-7.656491791939759 
-10.96492639279027 
0.2450080410436089 
8.219315184096894 
15.7670331271037 
7.080879420959771 
-7.021920666525278 
-26.50859891041081 
-26.83352966741482 
1.529668242699132 
-6.103571115910197 
-16.17345321427581 
-12.03836078511036 
-14.21211485290337 
-32.76311471151758 
9.774811126481115 
25.4696295288208 
-25.25822149480809 
-8.793889511211258 
-34.20699844356517 
0.0009585696749769767 
0.08123829854444163 
0.9393602078413537 
4.023385860319726 
7.337105039635405 
5.9099741758064 
3.141230508835311 
-0.4256202984763577 
-2.421338881365934 
-4.414749658857125 
-1.100907244652578 
1.716514223837074 
1.205394323075325 
2.648689763629951 
-0.01695955497038694 
0.03139911500815568 
1.416930537196611 
6.251862664632952 
11.94780340322651 
19.54226311668052 
24.52803446164235 
-0.05567351833592737 
-0.3402106808787235 
-0.5345774354190754 
0.2990808220666313 
0.02238660807097607 
-4.014663527284823 
-8.671842442581438 
-0.05559274159918996 
-0.5520313976549762 
-2.0792470860698 
-3.653575685360186 
-5.935416588629088 
-8.689906958452465 
-2.310437156898058 
0 
0 
0 
0 
0 
0 
0 
-0.3186100777164799 
-3.578609336589103 
-13.75743590154226 
-11.8415567444232 
8.63362287839729 
5.580083343103166 
