solver_type L2R_LR
nr_class 2
label 1 -1
nr_feature 6440
bias -1
w
-0.02758657604809213 
-0.3820056949674214 
-2.058031741335367 
-3.956864760688876 
-1.604309681892932 
0.6918421215262016 
-4.086893010623093 
-0.1904602615549544 
-2.33606600051667 
-11.2019702198584 
-19.03886872862729 
-7.045064005547879 
2.618038612184423 
-7.120930604780323 
-0.01824925836394749 
-0.2411919570677678 
-1.281142827855624 
-2.496431755871939 
-1.398900742926021 
-1.284314357755894 
-5.007283619893217 
-0.002591799250957203 
-0.02884203539435863 
-0.1500106962927094 
-0.3700174619299783 
-0.4356657861415456 
0.007350735790909989 
0.8872525836780256 
-0.01475839481987814 
-0.244186380427854 
-1.541727521689547 
-3.168323777092298 
-1.049287305354797 
-0.1756725144181339 
-0.9734858300441882 
-0.07798248759615954 
-1.076442160257016 
-6.219899290490504 
-13.85624233093772 
-9.335402415149353 
0.5009739934380134 
-2.713884524799881 
-0.006701449207697473 
-0.1074962157301199 
-0.6657899801885415 
-1.398579183922148 
-0.7274529677268856 
-0.9096452183893787 
-2.193626709797559 
-0.005010894242415668 
-0.09006054725444083 
-0.6134441130469187 
-1.306142722408974 
-0.2834455467592524 
-0.2058293581097293 
-1.176205754800379 
-0.009659238167001283 
-0.1262688579965217 
-0.6638437831277474 
-1.283160691196492 
-0.2945272798124549 
0.4188526834741497 
-3.065906038117401 
-0.03566780300548461 
-0.3274013895691212 
-0.9477576450728161 
-0.5240134945254199 
-0.2127818343663535 
-1.893353656547242 
-2.944994426338222 
-0.0005258054750863213 
-0.00987668346627312 
-0.0795181112596097 
-0.2561646593539722 
-0.2566852011169284 
-0.02499766398677167 
-0.1997992561882793 
-0.004156762983585531 
-0.0328267487658566 
-0.1161151739701108 
-0.1761965830701311 
-0.0572248006769479 
0.07752593217910789 
-0.189267315998324 
-0.0004099536149598305 
-0.007399893590189687 
-0.05440525066158088 
-0.1659696937655985 
-0.1844732055618712 
-0.05094331970807942 
-0.188678619726336 
-0.001415818552089581 
-0.01614708343317134 
-0.08683384839129207 
-0.217116390932019 
-0.3067067153793773 
-0.42157922506986 
-0.4589980124135526 
-0.03575727982971856 
-0.440389456279801 
-2.167495912192998 
-3.807420704751327 
-1.050766326082021 
1.672703966292621 
-2.669974350821675 
-0.02989144174212749 
-0.3178181370448274 
-1.344996248897023 
-2.275391250918213 
-1.197001065059679 
0.8671114719715142 
-1.862982481799476 
-0.0002314246310418714 
-0.002202365443491438 
-0.009352249742839346 
-0.02373982885979042 
-0.0606190617323599 
-0.1599264840992207 
-0.279390285326563 
-0.0003306465266668452 
-0.005115638476946247 
-0.0363133510073422 
-0.1292295981454537 
-0.2681059305931657 
-0.4146724258677049 
-0.5543146482124376 
-7.077557128648875e-06 
-0.0002344232171007912 
-0.002981046843851789 
-0.01421446768144387 
-0.02415313982529497 
-0.02305971028879046 
-0.04554595942432402 
-3.006679674423567e-05 
-0.001080925837581058 
-0.01627400671020075 
-0.1027494839268079 
-0.2327656890487989 
-0.07995902980874742 
0.0640785060396471 
-0.003793704300190122 
-0.0515791189975453 
-0.3351335895481088 
-0.9984751905197897 
-1.194167767991076 
-0.5987523513385022 
-0.5866432673036965 
-0.05774545721507273 
-0.5201809671914217 
-1.437039258900039 
-0.399827049146821 
0.7638716735694838 
-0.8335319467533348 
-0.6805034556488915 
-0.004091658534180443 
-0.04379232650848116 
-0.1867484352760546 
-0.3032741736783788 
-0.2113620173401689 
-0.2651498360569816 
-0.3930150950573822 
-0.002245907956506855 
-0.02183007799036025 
-0.09757187790016827 
-0.2075364045296126 
-0.1982525030939711 
-0.1675407839256314 
-0.3829959656885588 
-0.2199464949945151 
-1.376997142661989 
-2.60694784683517 
-0.2993909916926309 
-1.556990928094832 
-4.486072942518738 
-0.2694617473799503 
-0.1233284066893052 
-0.9198634125336428 
-2.32520156626614 
-1.562660900361067 
-2.122596810193009 
-4.687061444867403 
-3.906843560538429 
-0.04582019237574851 
-0.4032617892618842 
-1.233512329091752 
-0.9203651587910195 
0.2343465065983249 
-0.7229496901784707 
-3.319788023395955 
-0.001489318679712619 
-0.01690844723136152 
-0.06861088204369056 
-0.05910138234328462 
0.0782349161168686 
0.08973738173524941 
0.05046209780803604 
-0.002533452972129453 
-0.03296916270819648 
-0.1726530137336989 
-0.3516706264581996 
-0.4113560211293082 
-0.724715376297672 
-1.116124836853262 
-0.005344243455941414 
-0.05895316454214872 
-0.2592681075315497 
-0.4809200918005678 
-0.1373092548064346 
0.3026010133555614 
-0.9998813145500132 
-0.001805694787307389 
-0.02448109810187511 
-0.1425980730796573 
-0.28600668398463 
-0.08351067844386004 
-0.1667694243089524 
-0.7711401297779517 
-0.002691314896909821 
-0.05095099250670381 
-0.3854290288092179 
-1.018928108830939 
-0.4755503001328834 
0.1662628622651908 
-1.171387380710584 
0 
0 
0 
0 
0 
0 
0 
-0.001514083617627946 
-0.03044590203935105 
-0.2191556569600352 
-0.4504867343501088 
0.08699188690114829 
-0.01023602667324256 
-1.683081409228586 
-0.02265043933476598 
-0.1880091877196529 
-0.5113770793479101 
-0.07907143927803024 
0.806824593302319 
0.08096332523933267 
-1.356159489238537 
-0.01705998996620636 
-0.1964912117169258 
-0.9465523607083055 
-1.471278396349318 
0.4701015105101483 
0.6863932730325288 
-3.200777016770958 
-0.001228127792179251 
-0.01340592066113256 
-0.06536365207053813 
-0.1491639338654716 
-0.200056968715292 
-0.2185188672564977 
-0.292638085992302 
-0.0004792303305773679 
-0.007572761649611376 
-0.0463595665779177 
-0.09286628467390365 
-0.002681177629472871 
0.04336506340830569 
-0.2565796342223319 
-6.874564194644857e-05 
-0.001061711199881369 
-0.006790739113769586 
-0.02062007617174566 
-0.04000427097785886 
-0.06427389279301954 
-0.08162014624539746 
0 
0 
0 
0 
0 
0 
0 
-0.1767945207744104 
-1.628217631455187 
-5.484462338585448 
-4.971889368716637 
1.410116529513939 
-0.9879936391972022 
-7.37592791086791 
-0.6853530399039518 
-6.546585223613376 
-22.56045863954815 
-19.70196887278483 
8.579222038631043 
0.5200104350566251 
-18.16398799224331 
-0.07750822911298706 
-0.7911132648123449 
-2.907077345374088 
-2.580573853822951 
1.623790532624144 
-0.7043240050577524 
-5.990820559417275 
-0.00976060370869565 
-0.07223418056810399 
-0.1012646224584743 
0.4357942658122624 
0.8885347938778501 
0.148555254299397 
-0.4923875163195839 
-0.03510147391551483 
-0.3955284437760127 
-1.650512817247222 
-1.716776053149262 
1.621698274888206 
0.779865466015927 
-2.79690254453011 
-0.3561716367880976 
-3.755820725828001 
-14.53873371042318 
-15.68242115494466 
2.877542912888321 
-0.1545109909222639 
-12.7284778187089 
-0.01070779974852167 
-0.1176402833501752 
-0.4871987501609514 
-0.6211086085276711 
-0.005738029505344807 
-0.323462853877862 
-1.105611166318466 
-0.00217698631107585 
-0.02573820947608178 
-0.1315390763607531 
-0.2815917150345674 
-0.214080491078132 
-0.2581505946311839 
-1.593992281264682 
-0.04606978843479564 
-0.3838304949937239 
-1.334118567367721 
-1.87581618179176 
-1.063769900905053 
-0.5530185308125346 
-1.86198065820089 
-0.09887401024460309 
-0.91153450140449 
-2.932216473704703 
-1.930666857695257 
1.69455721794205 
-1.166726553561189 
-3.795467265049556 
-0.0007219299592631633 
-0.01011163512026363 
-0.06352253015630012 
-0.2086829582712673 
-0.4220799200609494 
-0.7220716191270713 
-1.147737294318667 
-0.01005579931519447 
-0.06255396281129198 
-0.1150321183765718 
0.08896759499071176 
0.1648534381008981 
-0.3435877282279138 
-0.3889577239658683 
-0.003462589955900711 
-0.02888849658555946 
-0.1233161066322532 
-0.2370434012101036 
-0.1874419094937333 
-0.2415435105577892 
-0.315445518655929 
-0.0006715131723422054 
-0.0099674465878287 
-0.06385780038674596 
-0.1954177168754831 
-0.3877900439777044 
-0.6070536511883251 
-0.5648667329928295 
-0.0885697662563989 
-0.7760999528315006 
-2.765038882831369 
-3.376054945863689 
-1.300314301915872 
-1.721594881517888 
-1.15019590807509 
-0.01355985127055064 
-0.1186923008459932 
-0.3736397175640367 
-0.3949308654485722 
-0.2659275203383289 
-1.220637224664599 
-2.985800252001654 
-4.968871104131016e-07 
-2.937599657495565e-05 
-0.0006781902612424111 
-0.006426312449043822 
-0.02692982267695588 
-0.05646674870962192 
-0.066474803304234 
-9.480212177114669e-05 
-0.00201693465667556 
-0.01615394609714948 
-0.05416038757124642 
-0.1329971885293843 
-0.3104377612466929 
-0.3984743430355844 
0 
0 
0 
0 
0 
0 
0 
-3.923768559585915e-05 
-0.001182825474352729 
-0.01319930583377846 
-0.04715739850832788 
-0.007954570129885152 
0.1140319122844779 
-0.02880395636239681 
-0.0007816174287409838 
-0.01118874425075311 
-0.1285920964624457 
-0.4777829785145085 
-0.2627007069162202 
0.7716290227314054 
1.085724651498355 
-0.05633957747358374 
-0.5467955442869817 
-1.997607137887216 
-2.281742134656764 
0.1478990512350234 
0.04250159078304518 
-3.147327060208164 
-0.01918599545730523 
-0.1124713809901962 
-0.2648467670269853 
-0.2617162181237142 
-0.2860234266422247 
-0.4892501906481894 
-0.7207756153153799 
-0.001285594189743285 
-0.01247851478701149 
-0.06412195754843539 
-0.2059696446884091 
-0.3925872629744587 
-0.5380546742900045 
-0.5901501366173345 
-0.1570351314847441 
-1.25623427744821 
-3.495437144951592 
-1.962200955546032 
1.133247788241577 
-1.752199532344866 
-4.707664285710453 
-0.06262972264461995 
-0.4707197633842394 
-1.293181096122557 
-0.9943084928985257 
-0.3668229403247507 
-2.140473986300949 
-2.95626963488381 
-0.06577168664504539 
-0.5318272946298002 
-1.39086928472918 
-0.6677555872592006 
-0.5342639008538271 
-2.454345986577 
-2.181006849084089 
-0.003560477852771467 
-0.02969061411951135 
-0.09741179704903129 
-0.0559500874562209 
0.2212510496242155 
0.38974769994849 
0.4452941686456773 
-0.00443830534158236 
-0.04630768817976498 
-0.1992324556740781 
-0.2727572819285017 
-0.1758747441964269 
-0.7776792535099528 
-1.293253196433236 
-0.0118486381199217 
-0.1171361320810005 
-0.3972100608735951 
-0.3702312485398583 
-0.3061513148104026 
-1.125906834345166 
-1.211812194933753 
-0.002445254654271257 
-0.02929358480373115 
-0.1700983794536894 
-0.4276059540640795 
-0.2927024668806265 
0.1868190823885452 
0.3188011424261712 
-0.005977402687003555 
-0.09211611090927253 
-0.6169515375425532 
-1.561369497501359 
-0.8693288900912044 
0.6883932835905548 
0.4636020223085367 
0 
0 
0 
0 
0 
0 
0 
-0.0006871703773410278 
-0.01313903024605525 
-0.09460858085917948 
-0.2263306656812542 
-0.03955302215021331 
0.1500720498650406 
-0.3672183234773084 
-0.05979311383289063 
-0.365626423037619 
-0.6873783147055612 
-0.09322363854903172 
-0.070365664141865 
-1.201265888498261 
-1.688731702284165 
-0.09211061759886525 
-0.5487613205720931 
-1.148952628363481 
0.08975483820755456 
1.113446004248817 
-1.252827485746362 
-1.959370946481617 
-0.008116135080242615 
-0.06637263966588267 
-0.1996210548080932 
-0.176403605083184 
-0.1363057203059236 
-0.5177760173687915 
-0.7441530945604976 
-0.0006796709933484258 
-0.006948791663868866 
-0.02678848360512731 
-0.035160050374793 
-0.01016648587247849 
0.08885384444254575 
0.2252997134378547 
-0.0002071269956904142 
-0.002226695863676585 
-0.009354259322725265 
-0.01899289754968612 
-0.03062334431498716 
-0.04077974784316775 
-0.03890945243997761 
0 
0 
0 
0 
0 
0 
0 
-0.1215933955874218 
-1.244148640411146 
-4.8288324864708 
-5.820685106882912 
0.6422150999935357 
1.807610959754293 
-6.401376540139535 
-0.5008798169158012 
-5.092997513896369 
-19.27191591592815 
-22.67548086083878 
-0.573861404987396 
3.134347951087711 
-17.46389152764333 
-0.06161246185572503 
-0.6662056259465461 
-2.786551461862311 
-4.120466530652891 
-1.605488013170027 
-0.1667833040766714 
-3.40501996599756 
-0.007405714143958872 
-0.07138446534826501 
-0.279149125944313 
-0.3608513463961365 
-0.04436308339794405 
-0.06360323074200105 
-0.5910490506553754 
-0.04177282122713506 
-0.4929739881594191 
-2.317023237969989 
-3.858976685724369 
-1.439228471920872 
-0.6321927752750423 
-3.879536477579544 
-0.2603808839442437 
-2.913376886557787 
-13.26698197384562 
-21.7051080218044 
-7.803369698781266 
0.8448149911877858 
-16.0111663114748 
-0.03616293403155311 
-0.3823940304632628 
-1.523905632261839 
-1.883266972186205 
-0.599299361456025 
-2.174426943572435 
-3.908119773381962 
-0.01630074142080174 
-0.1825076465521052 
-0.7257571152483956 
-0.8296412554348429 
0.1952678719082912 
0.03120910532327486 
-2.379504096005476 
-0.03025554474196474 
-0.3031082926094822 
-1.216475319731213 
-1.806839427363369 
-0.7756238201124995 
-0.7554964206827133 
-3.019139286698448 
-0.09994836126089741 
-0.8317338209606598 
-2.427621455472662 
-1.69951740071161 
0.4614464541552948 
-1.723817856168568 
-5.533712930283546 
-0.002963300966528946 
-0.02520681496408883 
-0.1294466699857519 
-0.3133533308029431 
-0.2072120642300783 
-0.04843257105186467 
-0.332194010631739 
-0.01336252894106247 
-0.08826958500561145 
-0.206917501775394 
-0.01808044929208762 
0.2654335373279601 
-0.2064720488209633 
-0.6443785581952326 
-0.00657929707780716 
-0.05568201855705612 
-0.1695872309929209 
-0.0878571707856375 
0.2530829715066369 
0.1838906190971075 
-0.2035698376643378 
-0.002979182376482418 
-0.03664924619146998 
-0.199956030342287 
-0.4803467004523515 
-0.491876929657729 
-0.3236188710593077 
-0.7105555579800703 
-0.06050808177368712 
-0.593076236156151 
-2.476800150779805 
-3.842852906306193 
-0.1457296567965636 
1.599488718321129 
-1.637686910371029 
-0.08008530540222171 
-0.6363172432329121 
-1.828413283625523 
-1.189629329919284 
1.192208802424891 
-0.9414647844414038 
-4.937024857231624 
-0.0002117769723609952 
-0.002339255181302305 
-0.01232347347598647 
-0.04466255831681917 
-0.1137909016669077 
-0.1929046247577753 
-0.2205284552914226 
-0.001055804114625079 
-0.01352950215949695 
-0.06774280983399858 
-0.1432975119112439 
-0.2346951712181917 
-0.5639995325586595 
-0.880610499410604 
-0.000478221658644377 
-0.003873374204867366 
-0.01159146990631655 
-0.01328732602803107 
-0.006880324165827304 
-0.01664414541598474 
-0.02584269119547028 
-0.0002230845034324808 
-0.004557726010646432 
-0.03528056422113394 
-0.106552705306268 
-0.1444043293502318 
-0.1815065033461668 
-0.3109446338717455 
-0.009380736723528408 
-0.121191160875869 
-0.727697703872827 
-1.830433070708595 
-1.303616089509998 
-0.5077359916369518 
-2.453023098729648 
-0.07800711633930651 
-0.5844393894525282 
-1.438844650504009 
-0.9978140177092591 
-1.544878971216755 
-2.775611869752435 
-1.125391584857944 
-0.02691094400974502 
-0.1494918811805742 
-0.2518613727910783 
0.06023974564517626 
0.2354701804407758 
-0.04105323067031963 
-0.5510766231268274 
-0.005825558986464565 
-0.04284285208543847 
-0.150174121227868 
-0.322100804231052 
-0.3103603053996092 
-0.04992249453787318 
-0.5507517888819797 
-0.2527711979567813 
-1.620467358830805 
-2.737478964583296 
1.687589390034621 
1.222341683559653 
-6.476692520291857 
-4.170278003167787 
-0.3876655298434641 
-2.286169114655348 
-4.119316781525564 
-0.6090732175696836 
-1.021396320243781 
-5.206679664352093 
-8.030968959525703 
-0.1749708863073772 
-1.173458069449695 
-2.650675467757685 
-1.865597953042605 
-1.073997865892292 
-2.867138116517767 
-4.531120952024383 
-0.002836671917365125 
-0.0262835558581913 
-0.09646458806321943 
-0.1064283924227686 
0.07954128360259807 
0.2408187177457115 
0.06196173586965885 
-0.005278952267963763 
-0.05721879100215469 
-0.2524373261518116 
-0.4919310834344906 
-0.6843541230467172 
-1.18019545411222 
-1.31462589457109 
-0.007580398315711448 
-0.07900067238559408 
-0.3244121132646238 
-0.4619831377457734 
-0.0291583788484302 
-0.03532242594616997 
-1.564518342121822 
-0.001401206868628041 
-0.02174678823675944 
-0.1293843842183319 
-0.2294664473164159 
0.109073030315906 
0.03520907543256706 
-1.173558468543329 
-0.003881138494236776 
-0.06634952153995784 
-0.4076378259514911 
-0.5710369716619239 
0.9168257775946945 
0.7836676699680326 
-1.928969364462645 
0 
0 
0 
0 
0 
0 
0 
-0.0110892865184241 
-0.1370084687439581 
-0.5909911104313704 
-0.4606562009443276 
1.172619923499552 
0.8971585460399486 
-0.6487268893271986 
-0.07066960267425539 
-0.4331379107752417 
-0.9719552708302486 
-0.6129123158109214 
-0.08440539650143931 
-0.9361305330980381 
-2.560894282350469 
-0.080449234483362 
-0.4231950918692295 
-0.8451932518900107 
-0.2089888399192464 
0.162541173807355 
-0.2654798473669625 
0.4606184722989132 
-0.009460044008980473 
-0.0775378957307188 
-0.2749996188530499 
-0.3743569774807108 
-0.02757589728200532 
0.3694197321422285 
0.5721223298665352 
-0.01282420513719396 
-0.08746574836692769 
-0.2168386674529247 
0.01863303360849761 
0.5242792268572842 
-0.004195275977652988 
-0.9034194085191076 
-0.0005026843124862065 
-0.004571331725826494 
-0.01922728565022394 
-0.04556109618506227 
-0.08104689393583024 
-0.1163587906256843 
-0.1207778764523167 
0 
0 
0 
0 
0 
0 
0 
-0.01448954139452045 
-0.2207547840397782 
-1.480299656801417 
-3.773948235838119 
-1.892090783460812 
2.154965911683707 
-0.7289149039879795 
-0.07952697280925398 
-1.08944993553416 
-6.31393013406423 
-13.4370487971253 
-4.205429236581238 
7.101436028740272 
-6.816915552807323 
-0.01136680996386109 
-0.1448660491241319 
-0.831291274916093 
-1.824615966604437 
-0.6913780122902535 
0.6538120091790952 
-0.9293270768780547 
-0.002197347035177915 
-0.01834423402399948 
-0.06833094388245302 
-0.06648704456568273 
0.2431109463618956 
0.5230775115473947 
0.0505552069772543 
-0.005619044055750197 
-0.09435000895810328 
-0.6252529253517022 
-1.383756917986779 
-0.0826371560526481 
1.543121653802333 
-0.585590309772533 
-0.04565974149516724 
-0.5819599052464612 
-3.402767193813735 
-8.411935852218722 
-6.048189303106676 
2.566003847084154 
-1.086969796031247 
-0.004901986260312103 
-0.06173711567993491 
-0.2574717320544949 
-0.2000821348198337 
0.2765420102120203 
-0.1273909222469651 
-0.4402563401652272 
-0.0001753235186706059 
-0.002502906171031722 
-0.01370347250930073 
-0.02687004093006386 
-0.09530824294107115 
-0.6412679802253524 
-1.465283184522895 
-0.006881165440201524 
-0.07789220888991576 
-0.4095021141521786 
-1.019281113087493 
-0.8515189156730225 
0.06787106739951827 
-0.2427807639248535 
-0.01774549065069299 
-0.1790040816613388 
-0.7812715393085742 
-1.36617463085749 
-0.5290847481610036 
0.2107667704508449 
-0.5608479310768375 
-8.282910934569088e-05 
-0.001576619301290369 
-0.01304077973677176 
-0.05558504181011556 
-0.1569650381990386 
-0.2388051977205603 
-0.04303807890356041 
-0.002759645354902511 
-0.01942348273375334 
-0.05974812470185224 
-0.04308389860141445 
0.08340708891213039 
-0.007824639413719095 
-0.3555404499608283 
-0.0002065475680769467 
-0.003746009314552949 
-0.03018631535848223 
-0.1030619552975101 
-0.1005732502983621 
0.04199060913411672 
-0.1058917511881544 
-0.0008583148919515191 
-0.008283413048483738 
-0.03671934635692783 
-0.09404628646995933 
-0.1409014674592678 
-0.1173782246740803 
-0.1613831124355417 
-0.02282732954362445 
-0.2505925822942658 
-1.066012802738941 
-1.711713457750598 
-1.058486144775436 
-0.992312420754094 
-3.108704508716255 
-0.001625970028145001 
-0.01376366264963905 
-0.04538426136401125 
-0.07763543728875578 
-0.1993253059450416 
-0.1407427074727932 
1.242526711008069 
-1.664405094806881e-11 
-6.615188518064262e-09 
-9.633000372164408e-07 
-5.25009701074677e-05 
-0.001089761516348795 
-0.008722555923005169 
-0.02709517333057423 
-8.882868804388503e-05 
-0.001305829195174685 
-0.01044558629358525 
-0.04681780936272351 
-0.1138085169537594 
-0.1790100485298297 
-0.2056095514310773 
0 
0 
0 
0 
0 
0 
0 
-4.922601298872881e-05 
-0.001116330647147152 
-0.009007368297251453 
-0.01185857296130215 
0.08868734265351194 
0.2118099869598835 
0.08845023251990101 
-0.001353773933991506 
-0.01834676763320762 
-0.07823757451266725 
-0.07905156149774893 
-0.1017451482909834 
-0.3669479227273353 
0.009502872757176439 
-0.0126131736612697 
-0.1111550654725739 
-0.4922357068712833 
-0.997591831684898 
-0.7019813693918897 
0.1225431878573862 
0.4450240732065792 
-0.001949351049574412 
-0.0212881335304068 
-0.1051699919459735 
-0.2126674739058712 
-0.1178551412443077 
0.08019365121290883 
-0.048754603496869 
-0.002061119954754669 
-0.01368174094728456 
-0.03872214558989859 
-0.0825436776315529 
-0.1376375731933877 
0.0248327706278993 
0.3781442507505421 
-0.05959730235904752 
-0.5450937063538851 
-1.742409075266688 
-1.382427866106873 
0.09160083880583569 
-1.275251466882412 
-2.706710973579693 
-0.054752272311379 
-0.3417882610132521 
-0.6263196997103019 
0.09711026967777633 
0.2903977927124261 
-0.9727263054987612 
-1.235690877727798 
-0.01103530619028537 
-0.1047512898690481 
-0.3836880742118593 
-0.3961927944746766 
0.02773787191563572 
-1.219929704237799 
-3.138237484525527 
-0.0003696717569832674 
-0.00579633977805254 
-0.03390277834017798 
-0.06455706497604688 
0.008236143593061181 
0.1723985262212049 
0.2691645875764528 
-0.0007896206275299465 
-0.0112807498753336 
-0.07079329555827289 
-0.187192810399147 
-0.1634738315284078 
0.0808322863391914 
0.1502427671154377 
-0.001796617806460014 
-0.01829672993882908 
-0.09043166096345054 
-0.2047512623922351 
-0.1888712191749812 
-0.3104483847199479 
-0.6028989901479788 
-0.0002819333782167034 
-0.006422105134748746 
-0.06168352773850495 
-0.2342996838194614 
-0.27843881101728 
0.09214460261729265 
0.1903633147421544 
-0.002318424179869579 
-0.04057717347586449 
-0.2641445884003485 
-0.6587120835777502 
-0.7040159273847096 
-0.3670486624446648 
-0.1665674551593817 
0 
0 
0 
0 
0 
0 
0 
-0.001228476149767773 
-0.01585863796638969 
-0.07454497515456782 
-0.07584058996600823 
0.09409385798445731 
0.05027877801404698 
0.0371135075894657 
-0.01262701873929646 
-0.09321200071567728 
-0.2710005001813071 
-0.1661216965479839 
0.3251812392825866 
0.1902886700414272 
-0.3535501222064254 
-0.01003900757982973 
-0.1017367607103756 
-0.448727531435887 
-0.6919773555284882 
0.2506254074171368 
1.125300093478724 
0.1727808926491112 
-0.001328187629865622 
-0.01606065184458088 
-0.0855894616016559 
-0.1937306556497979 
-0.1413539392398774 
-0.03695037369137126 
-0.2449693378566393 
-2.966649736480146e-05 
-0.0007130712397914824 
-0.006378438294502374 
-0.01728198026099137 
0.01429317177563128 
0.08430419883074328 
0.02168061160343096 
-2.594536203510193e-06 
-9.617280132092562e-05 
-0.00133838592202246 
-0.007127326735636234 
-0.01584697381743069 
-0.02002230048292866 
-0.0184330541652475 
0 
0 
0 
0 
0 
0 
0 
-0.04662998375241162 
-0.5488579127763911 
-2.540760911891879 
-3.849206461438757 
-0.7484278047566744 
-0.5874633578552241 
-3.644873239763008 
-0.3085933312337284 
-3.398447033620781 
-14.63917763704329 
-20.95049958244885 
-2.423119946716459 
4.188481782806313 
-7.54718250162545 
-0.02858851420838765 
-0.3636419205395935 
-1.817749414252876 
-3.268428102126981 
-1.418182184655342 
0.2117218688937824 
-2.339069476029731 
-0.003555499780283169 
-0.03640831255674534 
-0.1344328515621246 
-0.1590051059390352 
-0.222426700574759 
-0.5492829002381261 
0.03996057810207632 
-0.01488899089496222 
-0.2519278477375545 
-1.744709287685695 
-4.194914526487826 
-0.7687105538039474 
3.350872120450314 
-4.456959006752979 
-0.1400609990952673 
-1.757612072439845 
-8.940727964372627 
-15.92867462125806 
-4.882196988678576 
1.830748707089602 
-9.243136520010035 
-0.007168513983479967 
-0.1110963505927355 
-0.718635346459146 
-1.678786973151968 
-0.7225691731592037 
0.4429038012333714 
-1.783205582305214 
-0.01767822137148638 
-0.2245144516351463 
-1.066182732777411 
-1.771313342486431 
-0.6841823322518092 
0.3508616809260049 
-1.199389663657707 
-0.01346963584208125 
-0.142926979744097 
-0.6048521911920507 
-1.03965086276681 
-0.4933968228230622 
0.5607982397475608 
0.01592074154870951 
-0.03818822612958938 
-0.3647222679490915 
-1.231024747192105 
-0.9150299020517529 
0.5249601244589007 
-0.5429920033377468 
-1.399256867484947 
-0.002813722356744447 
-0.03168844015625525 
-0.1162539385781805 
-0.06817077079855101 
0.0770058228403649 
-0.1165178767734322 
-0.178935467491894 
-0.00739488907482715 
-0.04759253661110396 
-0.1036683558316451 
-0.02231341955890438 
-0.03555881011584505 
-0.3729381805177495 
-0.5046919684573216 
-0.0009559987502481016 
-0.0120216668976253 
-0.0589294578007512 
-0.1167566264975642 
-0.1675736189521549 
-0.3652826875714674 
-0.305541309987844 
-0.003218001227911299 
-0.0319420161424005 
-0.122030187632126 
-0.1845117977185434 
-0.2379760878691239 
-0.4992231413251095 
-0.8561179761764719 
-0.06258770546233841 
-0.6842300392831986 
-2.818397587782349 
-3.863917957864694 
-1.121955314842114 
0.5402065457055373 
-2.225208380586515 
-0.07571476198121849 
-0.7279222612028989 
-2.717176184128685 
-3.34509921311044 
-0.1476532912965699 
0.6717773407981638 
-2.136026533949819 
-0.0001030836743891309 
-0.001385492847310565 
-0.008229691268102494 
-0.02220638596537537 
-0.04841199093980469 
-0.1428005673778945 
-0.2486512914820292 
-0.0003645000307919606 
-0.006115209110106285 
-0.0451025783211868 
-0.1703233506424129 
-0.4018947822799029 
-0.6637277954957831 
-0.7357790063794041 
-4.39459546310338e-06 
-0.0002038804774521137 
-0.003515256650469513 
-0.02166009240599547 
-0.04177458350407953 
-0.02822845792941178 
-0.07862623000844618 
-0.0001051919075370889 
-0.002432949432329989 
-0.02490283152224356 
-0.1180436562362596 
-0.2715602343441649 
-0.1937346852935177 
0.4867338655436551 
-0.0103026837381525 
-0.1095670358251757 
-0.454126975033477 
-0.6807683715234079 
-0.5177720853221478 
-0.6736041629864367 
-0.5761186888768491 
-0.05202463920951634 
-0.5105250241334386 
-1.902902847409081 
-1.889349744352017 
1.176981035135379 
0.9358638370326157 
-0.2408216464334183 
-0.009189912027148028 
-0.05842931889134804 
-0.1605120850359791 
-0.2458008759314322 
-0.3968663303641242 
-0.4944101351979707 
-0.2924203160575192 
-0.003940530955736737 
-0.02901693477125686 
-0.09482407806782044 
-0.1733458413014579 
-0.255482271106789 
-0.4430767300053772 
-0.7110851791968735 
-0.1571374691768704 
-1.295232588911376 
-3.515740659916603 
-1.117907015894303 
2.278276371332913 
-3.580346651758375 
-5.341585095602796 
-0.1261100955623637 
-1.050711745775771 
-3.138835380288333 
-2.690039877829046 
-0.8076742125581886 
-2.00198618311794 
-3.993584143676664 
-0.09452695559782903 
-0.6817179989321095 
-1.422601017287572 
0.02221736019173185 
0.3537897541794329 
-2.211542949475221 
-5.090381301482619 
-0.0007769469642937189 
-0.009837423928852155 
-0.04888695768870369 
-0.1076614851272236 
-0.1197637055365761 
-0.01114003576000196 
0.1341826287931772 
-0.002369497301601859 
-0.03280308104953637 
-0.178764216209535 
-0.4037315908760368 
-0.5294636530113351 
-0.8593884027114759 
-1.151772553646074 
-0.009714157108900695 
-0.09971349074720506 
-0.3901395642306709 
-0.579011349675237 
-0.4417248041639514 
-0.7180932942188732 
-0.9980996298464915 
-0.000870598697672933 
-0.01541185974856585 
-0.1161283314439514 
-0.3216442251436842 
-0.217455442155956 
-0.1371298610938717 
-0.8231400965125256 
-0.001178751785403572 
-0.03037591643280102 
-0.300458582817247 
-1.052519868420088 
-0.8418405385195442 
0.9372722995157731 
1.234305644631897 
0 
0 
0 
0 
0 
0 
0 
-0.001980118844173113 
-0.04231256721188979 
-0.3303593359740601 
-0.7894228196614097 
0.02297773475757247 
1.232294022887235 
0.8675269383878188 
-0.03794404924599995 
-0.2462888318120206 
-0.4780483748080854 
0.1919440498237292 
0.7472293365358177 
-0.1513382148653089 
-0.2898833483488423 
-0.04765682609520406 
-0.3677346923424497 
-1.074364761226978 
-0.6444173098819941 
0.8710333134388994 
-0.132971573428948 
-1.348007439272175 
-0.004377621168022003 
-0.0308362312439651 
-0.09006117711349136 
-0.09383270299646139 
-0.1039274756159995 
-0.200925330060299 
-0.2811198499194021 
-0.00122533980582454 
-0.01364023070973756 
-0.05187490870352702 
-0.03832892515543548 
-0.006293823593975479 
-0.2041586149195594 
-0.2892203366687991 
-0.0003411237007562814 
-0.003804272645851811 
-0.01760478337490541 
-0.04015493298821822 
-0.06626721402574551 
-0.09561515422814552 
-0.09394576090238925 
0 
0 
0 
0 
0 
0 
0 
-0.2217997080656267 
-2.072857532656152 
-6.889734085988006 
-5.779387947174685 
1.981695890977516 
-1.337447118095509 
-6.791814387119996 
-0.4163380030398475 
-4.035095057806457 
-14.05511828255283 
-13.30157148717291 
1.677661982017755 
-3.155082970593005 
-10.82341807554809 
-0.07385828761213385 
-0.7014101900338328 
-2.45893296712047 
-2.710380617300121 
-0.4073734163172413 
-0.6339045318277218 
-3.275246157943196 
-0.003671252252455608 
-0.02043378204449061 
-0.001324853860835376 
0.2503816473786828 
0.7287784842804411 
1.001029339912337 
0.7002554936967679 
-0.0503806352659869 
-0.53973465165756 
-2.249448898154082 
-3.222497575827987 
-1.248056343451155 
-1.445960893348401 
-2.678891837156278 
-0.3960462735015399 
-4.320809350189167 
-17.08939307876322 
-19.80043170411732 
-0.2699513635250661 
-2.645592829802031 
-17.46449588303899 
-0.04032009322985851 
-0.3892001148735914 
-1.479889417486318 
-2.005407200459262 
-0.4971298623141612 
0.4510609584830056 
-0.5964224076159824 
-0.003579230648897693 
-0.03136715595434729 
-0.06206629719014501 
0.1972183056312165 
0.4016459775871181 
-0.8089501131882761 
-1.962251109297028 
-0.0672220830334589 
-0.6037147679347326 
-2.100707619163817 
-2.323677756104409 
-0.1092341628863119 
-0.9356433757043184 
-3.358075778289576 
-0.08417199988761059 
-0.8108182591009142 
-2.917757379998053 
-3.087087272763052 
0.2113939424873308 
-0.1285328715639737 
-2.369147515980342 
-0.0009546876818345145 
-0.01550611423495757 
-0.1036400292392122 
-0.2650389873257122 
-0.1394664138550736 
0.3126992131864727 
0.3875976849446763 
-0.01119082424351557 
-0.06878384650230973 
-0.1286137550861846 
0.1096469507934067 
0.4545387094995784 
0.4198207091413589 
0.2799428893065431 
-0.006184525248829426 
-0.05237555392575737 
-0.1729686943778713 
-0.1531857443281341 
-0.03410690933206369 
-0.4416833946287952 
-0.6871006609070879 
-0.002413553637664463 
-0.0195791932267052 
-0.06681845203141776 
-0.1606610781533427 
-0.4036878704561387 
-0.7477642037877833 
-0.9087950189530113 
-0.05817270768740366 
-0.5632470816551697 
-2.260635671749682 
-3.433722339001061 
-1.26466052422895 
-0.5540295262419301 
-3.684019064991307 
-0.01494453440873757 
-0.1059712793882843 
-0.2336555978325439 
-0.01134515463403828 
0.2690040246685199 
-0.2335341088718771 
-1.626435352888849 
-3.064681337084388e-07 
-2.033096776161615e-05 
-0.0004914239119034604 
-0.004309057634530913 
-0.01442635033804289 
-0.02539895755614566 
-0.03462373706332889 
-0.0007798375758258004 
-0.01032092597456746 
-0.05119646983536822 
-0.05010265684162674 
0.1841271143545311 
0.3461518598035482 
0.09472552128166249 
-0.0002579622715253976 
-0.001869920183547412 
-0.001125123256419597 
0.01609826316270276 
0.02278452442014013 
-0.01386535180986777 
-0.05047365447204943 
-3.779231569921284e-06 
-0.0001343663553950321 
-0.001030307413876004 
0.01017689519423288 
0.114215642534285 
0.2940479445540637 
0.254131152403593 
-0.01417931839069493 
-0.185515717082172 
-1.033986581068872 
-2.378931974830196 
-1.742764478004323 
-0.1131160594139985 
-1.924702498772506 
-0.05039459988022231 
-0.4827633158112942 
-1.815793533482809 
-2.384837072839461 
-0.1048003161909143 
1.381345475669936 
-1.168150753572726 
-0.01882560494377435 
-0.1189282839647866 
-0.3426779285449927 
-0.4808691432019513 
-0.521039637692242 
-0.7776924682560851 
-1.019610061298323 
-0.005091585638111896 
-0.02466336498706609 
-0.02864289220535441 
0.02775521916727925 
-0.01175130862794594 
-0.2157006364055313 
-0.5489871040236181 
-0.1431610743155728 
-1.103274746316093 
-3.220436990596064 
-2.952010058684579 
-0.3941304958119137 
-1.017154283357288 
-3.479025529480426 
-0.1792803706030773 
-1.246159017824497 
-3.400622499272726 
-3.57416322229488 
-1.996320888920672 
-0.9192130432896941 
-1.21428563261275 
-0.1510216585753752 
-1.255372566352417 
-4.031983089414731 
-4.48011076006845 
-1.115996001766737 
-0.3891862915473212 
-2.680368705483294 
-0.001664234925924302 
-0.01270290454299838 
-0.02384741140514207 
0.004062480184801471 
-0.03360486435648605 
-0.08774680848463433 
0.06635842094043763 
-0.006161572428956607 
-0.0549313886659253 
-0.1552317651725946 
0.04954104136413768 
0.6998311341977485 
0.949408022892186 
0.330518262355448 
-0.008726283240245125 
-0.09051749395241414 
-0.3165604699054164 
-0.2588911639154695 
-0.02591239455588971 
-0.6853106575537172 
-0.884516741927258 
-0.0009456962229930739 
-0.01817047753376264 
-0.1263443601486507 
-0.2837880412991773 
-0.1874519688744854 
-0.3802312582790956 
-0.7815123996953436 
-0.002206394954573977 
-0.03522112182143819 
-0.2018648917490437 
-0.3152086003880236 
-0.03211196877848305 
-0.3776207323139445 
-0.8769903896684876 
0 
0 
0 
0 
0 
0 
0 
-0.00162864268045652 
-0.02099098431403913 
-0.1218734791273244 
-0.2769293589440115 
-0.1518322753655416 
0.06994932191089766 
-0.06412104289368388 
-0.05006525560484804 
-0.3580431997719309 
-1.057992598086184 
-1.229552793309905 
-0.4323710158090848 
-0.08189528103000136 
-0.7566950563026031 
-0.03468119820224538 
-0.2745056506029325 
-0.6409629941296991 
0.5054980590117328 
1.712043107939066 
-1.326256265688673 
-3.462786003555848 
-0.003762323254381659 
-0.04534200202115793 
-0.2416083868862381 
-0.5923961025159307 
-0.7886395679556145 
-0.8874399944098568 
-0.9448224865581505 
-0.0008051562571798601 
-0.008141046666947621 
-0.03030246785675905 
-0.03124642349309631 
0.0174288201999363 
0.04542492339484447 
0.07588380373890441 
-1.686825667902318e-11 
-6.270091216803153e-09 
-8.503365258641951e-07 
-4.304588082080576e-05 
-0.0008298120577924451 
-0.006188003626731562 
-0.0180226740631312 
0 
0 
0 
0 
0 
0 
0 
-0.01356134719302919 
-0.1460101922298987 
-0.5998770973474525 
-0.8125561672030444 
-0.1138862148775607 
-0.1948887989469475 
-1.679530870210251 
-0.08482877581875646 
-0.8282339875987244 
-2.853195542552242 
-2.460576700641059 
1.083225809806346 
-0.05161230580049699 
-4.100439193182398 
-0.01386132230116555 
-0.1324076361547111 
-0.4576854229323934 
-0.5796501164567133 
-0.6064751865079485 
-0.8111052877313021 
-0.4549058663570367 
-0.000405314831277835 
-0.003317675009507511 
-0.01049021899351439 
0.001148943080766217 
0.04527498500852022 
-0.05417368182759053 
-0.3646716840362376 
-0.009123853853814704 
-0.1092589209012073 
-0.4576367231727646 
-0.3961097754118131 
0.5948361090670927 
0.2946412426593006 
-0.7931868790155782 
-0.06224341923342907 
-0.7146202429177914 
-3.156071264368045 
-4.887225530625307 
-2.148342132880558 
-1.90610071689996 
-5.055869785351645 
-0.00888607517951394 
-0.09867231463427294 
-0.3847418253376003 
-0.2991790608708552 
0.6156588729135649 
0.8510428867269664 
0.01120428933752561 
-2.639516080218147e-05 
-0.0005407622876543959 
-0.003798463826564447 
-0.00615411791278981 
0.02259614235894251 
0.09078749088860999 
0.1041561619625929 
-0.005286501850342563 
-0.04109390375441557 
-0.1099834816638892 
-0.02338405066684601 
0.257580772031872 
0.05224625392121227 
-0.3532836505557835 
-0.01470966597997414 
-0.12143849246009 
-0.3667639869076791 
-0.3769379042017238 
-0.4266495319172918 
-1.203398194051187 
-1.715743651630478 
-0.0002194778825818291 
-0.00420899392573821 
-0.03411498058579913 
-0.1049412334075995 
-0.07799437488872746 
0.07358134728803034 
0.2695041120298658 
-0.0009246452797217229 
0.0002078533451768757 
0.03211807809001486 
0.1243326554865911 
0.1895633732755221 
0.06626632222643324 
-0.09664512955706592 
-0.001530151689012611 
-0.01148389707218333 
-0.04109967229693688 
-0.05117804914896421 
0.02712559995357094 
0.07581361050890136 
-0.02025136540907559 
-0.004206115726431902 
-0.03193796279157356 
-0.09937310607716371 
-0.1160147378459024 
-0.02429523709058122 
-0.252370762126594 
-0.8733536337414101 
-0.04830519787101561 
-0.4624029081688681 
-1.621065373396624 
-1.38848725998182 
1.085889005657343 
0.6958489296409727 
-2.50649434133482 
-0.0002824331177789432 
-0.002933360073653562 
-0.006079019552117607 
0.0297041584566534 
0.1210877904073505 
0.2162657511239182 
0.2898851034757714 
-0.001346727717390946 
-0.01213464097725973 
-0.04676979326588801 
-0.08543106545353694 
-0.09956040620940272 
-0.1460837704255984 
-0.2124540224680817 
-0.0004129280743695506 
-0.00528679889845543 
-0.02894877369132686 
-0.07258996914125297 
-0.1084841412519728 
-0.16507961772675 
-0.2606086908483078 
-4.079757331721877e-07 
-2.918061284322649e-05 
-0.0007632840788389051 
-0.00701353335759357 
-0.02015962655534167 
-0.01473418274934753 
-0.01864619387620993 
-5.88349883512947e-07 
-3.552673539147588e-05 
-0.0009005483262710964 
-0.009006539614444406 
-0.02828889667331175 
0.009735200309459652 
0.1204317058849803 
-0.002816340500222986 
-0.02347880881649735 
-0.07717213001341425 
-0.1360673919974184 
-0.3037836887571234 
-0.7385101256867418 
-0.9836762905759034 
-0.01305814371367849 
-0.09851172448318286 
-0.2432008023442906 
0.0740950173898248 
0.8443136439830311 
0.8093600885142245 
-0.01223248050722759 
-0.004219880886108494 
-0.02637796617894154 
-0.06874109345493144 
-0.07878012966457291 
-0.03299907928035301 
-0.04124426496759512 
-0.209109486936298 
-0.02045254712640554 
-0.1080156091711757 
-0.2172018681958592 
-0.1034840849480562 
0.1718673749034143 
-0.2839268095317312 
-1.09362216680441 
-0.1218458793637804 
-0.6490799593821276 
-1.315848713944191 
-1.33603224222465 
-1.780001653756772 
-1.879570659277881 
-2.362257214329455 
-0.1075662910398654 
-0.713680969415844 
-1.600848180942239 
-0.6261158528624439 
1.107036435490164 
0.2719936799657393 
-2.814590736833738 
-0.08601778389063637 
-0.5456856669292041 
-0.9259362579129466 
0.6597240880115285 
1.338711819853768 
-1.376369523738832 
-3.081798744215765 
-0.001574892851501113 
-0.009734278413265079 
-0.01781935551113418 
-0.009737594165282764 
-0.0841879904771772 
-0.2166677633773621 
-0.1539169068850105 
-0.01020832762210992 
-0.1034415653217367 
-0.4660296402426439 
-0.97845588957915 
-1.273607141597577 
-1.7869377774323 
-2.311544107883843 
-0.001218614051064693 
-0.0161390973703208 
-0.0716333324563814 
-0.1205243201622634 
-0.2543400649973806 
-0.5148630624300317 
-0.4153508776025004 
-0.005196424741749605 
-0.04697371848195418 
-0.1745296465166999 
-0.2653126674203026 
-0.04983463687679966 
0.3178005075237444 
0.08374266515342411 
-0.01065228373238689 
-0.1055112233458964 
-0.4209972827441881 
-0.7323735527232993 
-0.5516595560777368 
-0.1218100544164886 
-0.9932469338470853 
0 
0 
0 
0 
0 
0 
0 
-0.002868107864218805 
-0.04435461884709388 
-0.2719068355223436 
-0.5474315273848185 
-0.01765450357513918 
0.4515538603489457 
-0.2060129434373046 
-0.008606171344382659 
-0.04789979968354891 
-0.08144687830103955 
0.04518828560196963 
0.1559754625717486 
-0.03702191126034315 
-0.4747269656339643 
-0.003433437664137844 
-0.02905896441169504 
-0.09953678717588493 
-0.1465135651380898 
-0.1368198752055449 
-0.1439955639966264 
-0.2363173372019496 
-0.001692711135458135 
-0.006403964615050222 
0.01673475633547691 
0.127880523020376 
0.2559824369778061 
0.2139676646313475 
-0.0652920841434395 
0 
0 
0 
0 
0 
0 
0 
0 
0 
0 
0 
0 
0 
0 
0 
0 
0 
0 
0 
0 
0 
-0.02559910099163942 
-0.2042433124232262 
-0.5076772884238266 
0.1862767620946961 
1.230459420775649 
0.009511053984009088 
-1.247374273424656 
-0.04206659622793578 
-0.4611943713773513 
-1.907772739131806 
-2.556685779065425 
-0.8315659923135515 
-2.054507669070616 
-2.131157279202184 
-0.01024381541886205 
-0.08347517674875093 
-0.2131579478412466 
-0.09739857949469428 
-0.09605225466783575 
-0.9823043898909055 
-2.084372900612228 
-0.002341281011733086 
-0.01511448432436425 
-0.04580205756303766 
-0.09011976325517165 
-0.1957656189034654 
-0.4384848608080925 
-0.6477349343916708 
-0.004129127506072634 
-0.04844135034525786 
-0.2166500926568982 
-0.3429352493461178 
-0.2548568894678559 
-0.3411822418443653 
-0.2735220964614732 
-0.09283562855693045 
-0.9718247524805547 
-3.666010519679282 
-3.955459844946881 
-0.043162479496758 
-1.595564534663057 
-5.163788884976742 
-0.0001926769081535615 
-0.0003117739365316679 
0.03809330049729343 
0.2942997302127264 
0.6216411601264401 
0.4261782410141451 
0.2212769008984217 
-0.0002360469402434311 
-0.002866717550152535 
-0.009852459445999636 
0.002175516244469531 
-0.04143303414853909 
-0.5934972848025726 
-1.775446134545329 
-0.004494662907148843 
-0.04383551763927039 
-0.1688730645470929 
-0.1631748081378263 
0.3512185239347991 
0.6807668459053098 
0.3874717721455495 
-0.0108267507880544 
-0.08487007474199136 
-0.2116781450899668 
0.02981635673843145 
0.4288205894719626 
0.009472338578817985 
-0.3613525448395163 
-0.0001842970792356429 
-0.00261672934313938 
-0.01782154721087379 
-0.06891521387996048 
-0.1601116199767755 
-0.2911757358842317 
-0.4727733583600259 
-0.001380444130682558 
-0.008618406788616279 
-0.02836682715275202 
-0.05146516620308519 
-0.06405374232731174 
-0.0793078693408928 
-0.08977291066864571 
-0.00170214849683653 
-0.01306577120624041 
-0.01175841822513321 
0.1450795743135757 
0.3427430650333883 
0.2027320101560806 
-0.0683565941665055 
-0.0006096445680561378 
-0.004462724417487933 
-0.007501043696807822 
0.00866574549802499 
0.01303794807863208 
-0.02482453481310952 
-0.02885718592610682 
-0.002114540870784581 
-0.02077746772521432 
-0.1146061455551901 
-0.3513580976183371 
-0.4571509951817781 
0.00659049718585325 
0.1498708531336924 
-0.00172614187781711 
-0.01111583166386419 
-0.01511412363340722 
0.03892370715258375 
0.04130177709852868 
-0.5503802317317332 
-2.093068413165455 
0 
0 
0 
0 
0 
0 
0 
-0.0002067149143551764 
-0.002419433485752918 
-0.01119456270113911 
-0.02300235540981413 
-0.03052426300823187 
-0.06279360109938066 
-0.1383820797302154 
-5.246931601596938e-07 
-2.733575007716255e-05 
-0.0004998506587619432 
-0.002873265634196502 
-0.002390845073112325 
0.007923578254476737 
-0.004595612088695443 
-4.332846525553553e-07 
-2.491252540800995e-05 
-0.0005081625773229014 
-0.00325149240392851 
0.001527962978186631 
0.07546920974066866 
0.2383844426309956 
-0.001466737980927115 
-0.02381042008632432 
-0.1697032443491343 
-0.5174107722072573 
-0.5108468704670331 
0.2714932786633728 
0.5142675863588647 
-0.005782022154931365 
-0.05622413089104861 
-0.2299623953026574 
-0.2269735412657711 
0.6898635403615521 
1.284210528328119 
-0.2113476885032169 
-0.005233287177321351 
-0.0362694400255501 
-0.07651203721227921 
0.1316768420414749 
0.5820902543106725 
0.525609838943653 
0.08125775886827093 
-0.000640464309378533 
-0.004855963896564795 
-0.01246850677607081 
-0.0007684161805593512 
0.02872594340347179 
0.0179003646859273 
-0.02033737747686242 
-0.01046291404887095 
-0.09166007173498797 
-0.2883291965501873 
-0.1837435557952388 
0.3345957447795442 
0.08151777139293079 
-0.4337571701287087 
-0.001659920850138654 
0.0125964162082675 
0.1684356162297806 
0.5153966224661165 
0.7133318784086583 
0.652725686103345 
0.2415151069588875 
-0.04052152917489811 
-0.3630064814331774 
-1.274887720409983 
-1.417128291736776 
0.452926998238928 
1.012836481556667 
-1.511062354779818 
-5.456100794203876e-06 
-0.0001605611486277382 
-0.001343872729876922 
-0.000701258673345936 
0.008822105424504418 
-0.01620730555996708 
-0.08349573995656298 
-0.001521259446482418 
-0.01492584322273363 
-0.06738251265578724 
-0.1426781162504763 
-0.1452341615188522 
-0.1330619631569014 
-0.09125856863572734 
-0.0004308637842017759 
-0.005788598178085736 
-0.03692914878509239 
-0.1095377072225048 
-0.1616319179673436 
-0.02098633837002164 
0.5735934609256077 
-4.582747859348991e-06 
-0.0002249982466628254 
-0.004334392403270764 
-0.03232472537718194 
-0.08249362406996376 
-0.01980532911620386 
0.1319027656801341 
-2.490300247195877e-05 
-0.0007347785958629412 
-0.01079323635784237 
-0.07712967688302923 
-0.2147363563154422 
-0.131709184374212 
0.1863639016352981 
0 
0 
0 
0 
0 
0 
0 
-8.308610365326792e-06 
-0.0003517471195075375 
-0.005624368474541037 
-0.0342858986914252 
-0.07571799678145434 
-0.02398404188137962 
0.09558963734672318 
-0.008710351596373907 
-0.03441118036569948 
0.04271346617490155 
0.4375380551821358 
0.6019537288655947 
-0.03712261987071421 
-0.803516236722401 
-0.004745691714307367 
-0.03528914730325642 
-0.08836419377828099 
0.002396628677456421 
0.0751048334160417 
-0.3840220957311787 
-0.5020803217526519 
-7.782068139985761e-05 
-0.001490557241699813 
-0.01159213645237231 
-0.04001245134990057 
-0.077735643261237 
-0.1324281472617811 
-0.1989214427418009 
0 
0 
0 
0 
0 
0 
0 
0 
0 
0 
0 
0 
0 
0 
0 
0 
0 
0 
0 
0 
0 
-0.01118704957211956 
-0.1238459203761675 
-0.462535618360193 
-0.2901912046475139 
0.6232458967260861 
0.02122550741076407 
-1.586888520284615 
-0.02801149171926834 
-0.294714618511682 
-1.209103795529817 
-1.793183010086631 
-1.033467807708257 
-0.3560255833172586 
-0.09445633436676411 
-0.00875031773349332 
-0.1079534731194503 
-0.4666302155979508 
-0.578761626854852 
-0.03556652209089033 
-0.3090402673580718 
-1.464442111809184 
-0.000837687409429928 
-0.008039066441569809 
-0.03147081158270826 
-0.07396608616249579 
-0.1855485789089665 
-0.3389258430679709 
-0.3402294106378138 
-0.007656156836752485 
-0.1046483066732045 
-0.528791595273152 
-0.7346250086746617 
0.3133682347398407 
0.5518172837635358 
-0.2199393814589073 
-0.09876363975706801 
-1.130939058223246 
-4.557414457773249 
-4.434142701086887 
1.701350230159957 
-1.689031892631455 
-3.617598266127537 
-0.004266178159407665 
-0.05051025935508351 
-0.2162829025314798 
-0.2517763268163883 
0.1627629561492941 
0.3094239197579802 
-0.4534121849658357 
-0.002577900156622787 
-0.02689949157567919 
-0.03283435397758393 
0.3241890572431777 
0.5463818932752396 
-0.148154825751451 
-0.6186722987074454 
-0.005650347742592934 
-0.0400504603494001 
-0.06248497745853317 
0.006975725379641124 
-0.1701049052375053 
-0.3417783371283783 
-0.6982339617812839 
-0.008967968416904238 
-0.06874187260954623 
-0.1661576987752508 
-0.1669860520736412 
-0.2559429491244802 
-0.01928878479988552 
0.1380893345034544 
-0.001877367359675167 
-0.01488922683017375 
-0.0313970223958189 
0.003993906866338683 
0.02658629484894404 
0.1632325789274914 
0.3517506277809376 
-0.0009008052642505208 
-0.005503957916785215 
-0.01424653420431839 
-0.01459143198026336 
-0.01932100444882482 
-0.08921082720892161 
-0.2145059761148876 
-0.0001476379644347866 
-0.001949123266509215 
-0.008876553060542688 
0.001933066922465285 
0.07412720313338542 
0.09099722261921057 
-0.0358768342449983 
-0.004725595048333712 
-0.03193770152487904 
-0.05646236693267864 
0.04482760377186461 
0.0859282304827695 
-0.1454561142718608 
-0.3379899093650323 
-0.02550716299482465 
-0.1834187378060639 
-0.4150032076068793 
-0.1377978276266611 
0.3258685779592877 
1.063619357585563 
0.1082397679298078 
-0.02484987721160501 
-0.1356783542021939 
0.1177697917768775 
1.288795104135006 
0.7929216232943943 
-0.551736073032821 
-0.5689280700624859 
-0.000920548957531236 
-0.005817309671876792 
-0.01163508948352455 
-0.00872115742637202 
-0.03115354316231124 
-0.07868404249801635 
-0.1040114987373968 
-0.0009291797555407941 
-0.007216309105054828 
-0.01019291368003447 
0.009378994792646287 
-0.06526038510018602 
-0.1949450582294783 
-0.2218335150673792 
-0.000369091703108429 
-0.003097459658783276 
-0.00692021408994172 
0.002309883064325399 
0.002067044085066975 
-0.01804999377812185 
-0.0141229157875637 
-6.541820353550893e-05 
-0.00198808137075228 
-0.02195941907457562 
-0.08869038621212573 
-0.1459972282779324 
-0.1061613950848315 
0.0844350388971379 
-0.03728516736820064 
-0.2476157211358599 
-0.4014687403016299 
0.03743182627208233 
-0.5873164097829895 
-1.262955847691891 
-0.8462036113065131 
-0.01141034357639877 
-0.05764446381162822 
-0.06251383602401879 
0.04503524783853002 
0.2418326866901905 
0.1910236292508095 
-1.086721577906228 
-0.0009682310400581658 
-0.006917072078894118 
-0.01441211712275387 
0.03382709506878672 
0.1434072181434877 
0.1323343666599231 
-0.02010909516030888 
-0.01844903916723609 
-0.06293788842934063 
0.03959190944815742 
0.2829711358469815 
0.03748390772066147 
-0.2689454964258611 
-0.1904805009883885 
-0.02838039551316052 
-0.1722239853814588 
-0.2416277149171786 
0.1970947346563567 
-0.2021421751819172 
-1.006602398317353 
-0.7766115232220264 
-0.05986930845153397 
-0.363383967028522 
-0.7110394782270688 
-0.3744595904213174 
-0.6047191452319571 
-0.885323822890726 
-0.2217049105722321 
-0.2016883536903878 
-1.066517460464549 
-0.8418523864992731 
2.221656689014299 
-0.01851239823009153 
-2.912036334656906 
-2.182183477761273 
-0.0001069046212167154 
-0.001546450196411504 
-0.006940131193690198 
-0.005110325178517104 
0.008989673862683569 
-0.01008852467498692 
0.007543192051382038 
-0.003312256281176268 
-0.03177837452444585 
-0.1136156196570677 
-0.1327220194519129 
-0.0984598036294668 
-0.2461999116369024 
-0.2751741816907506 
-0.002268482343583464 
-0.01791437016917717 
-0.0365312549135699 
0.07029717600431802 
0.2402055529960535 
0.2024283706312177 
0.3193414750017474 
-0.0003069652939960861 
-0.004581881301769572 
-0.02659192991667093 
-0.06047364355568853 
-0.07568749086079789 
-0.06015505398825326 
0.1493521766009759 
-0.0003800758073816977 
-0.005973369288478203 
-0.03374228826433427 
-0.07528296898621312 
-0.1755497221373151 
-0.2801728715674257 
0.1793615651857532 
0 
0 
0 
0 
0 
0 
0 
-0.001371363856605383 
-0.02501947540151876 
-0.168318397950305 
-0.3482456700847897 
-0.08473461649626354 
-0.01376683758026791 
-0.3183732148047195 
-0.005368457841530374 
-0.04124907445225389 
-0.108129064143231 
-0.06937882218667145 
-0.03308130035246614 
-0.1444213907467095 
-0.08803332092100456 
-0.001877005262753981 
-0.01869457573035728 
-0.09310247811781411 
-0.2173363793441485 
-0.06222145142836612 
0.3240240152056968 
-0.3118447234596787 
-0.0001969411695638144 
-0.002228766549843999 
-0.009578270249747911 
-0.0125346893494167 
0.00632663982529948 
-0.01492577370454057 
-0.1245763372971308 
-0.0006825977764066758 
-0.005845723824667248 
-0.02025013086116386 
-0.01775417561027362 
0.02376955688878712 
0.04133983355849788 
0.09889883233793567 
-4.164398798766948e-12 
-1.904187412262609e-09 
-3.160362186843209e-07 
-1.938627919539468e-05 
-0.0004455588780072151 
-0.003872051810229973 
-0.01278591005300091 
0 
0 
0 
0 
0 
0 
0 
-0.008769385826794139 
-0.07804006044101998 
-0.2038524391846526 
-0.02673149352298974 
0.1250520699774688 
-0.1236531161570757 
-0.176782351151621 
-0.02481925994906755 
-0.2301756226486752 
-0.7915492952304386 
-0.7999012858892242 
0.1020517914076159 
0.1037236904812745 
-0.4105926329322745 
-0.0006273002279648917 
-0.007283356529253141 
-0.02862612903065972 
-0.03071756342122307 
-0.04389198798764846 
-0.1796392622487321 
-0.1783910924002295 
-6.735112062624424e-05 
-0.0009342501831622038 
-0.004553729902489833 
-0.003210991212982713 
0.0117655973010191 
-0.04096811300248693 
-0.1600320156016108 
-0.002323753664267886 
-0.02351739265508951 
-0.09413063524932527 
-0.1190414943138214 
0.01883503843461843 
0.1789085515338677 
0.3651444873271918 
-0.01297985930705957 
-0.1433739686845662 
-0.6124253620478975 
-0.8283607382144385 
0.01475625643399617 
0.02757583969087625 
-1.131076362654877 
-0.003908988852251947 
-0.04972318347950835 
-0.1662680088400141 
0.1515429075299901 
0.6678374155069278 
-0.2948950681429167 
-0.8854745479501347 
-0.0001700729097861619 
-0.002358907589967961 
-0.009592691820260353 
0.01556305914551466 
0.1190219239175386 
0.1058357096714194 
-0.05210867387345081 
-0.0003955278643645978 
-0.002685093650746046 
-0.003170533293198562 
0.004548259847170507 
0.02533306298989075 
0.1142865245882519 
0.1374728002398754 
-0.003166285752205645 
-0.03314627534938238 
-0.1280600717356564 
-0.1524021083530381 
0.009731033506317889 
0.1355726053085021 
0.2366821708360361 
-3.439443041120986e-05 
-0.000831687728845545 
-0.007872541923949547 
-0.03415291363754835 
-0.09051186965223472 
-0.09719597071700893 
0.1977344823277512 
-7.717394607420124e-05 
-0.001044649301677061 
-0.003446142367295362 
0.00336977107362772 
0.001467783017440486 
-0.05657473977062647 
-0.07137723253165251 
-6.538351030511673e-05 
-0.0007941506811966157 
-0.002152062487265897 
0.01347901075130487 
0.06984786031805922 
0.1167638864839179 
0.1207468215973723 
-7.658634242450283e-05 
-0.001040967916052079 
-0.006315465165240825 
-0.02156197763677591 
-0.04703397408782984 
-0.07014042296815901 
-0.1021068302220101 
-0.001584832631784793 
-0.01555218280867249 
-0.06344433695293122 
-0.1197224794418979 
-0.1651780287243494 
-0.003034652706009644 
0.3134122500427592 
-0.0007106733529842301 
-0.005526366622126733 
-0.006497634719279309 
0.07490320997204819 
0.2885748914440218 
0.3810222514632857 
0.2657481381699356 
-1.534880954936949e-05 
-0.0003073200974715903 
-0.00190930318200269 
-0.002709483168850201 
-0.003711226304640056 
-0.01772134451678077 
-0.0002971315668982874 
-8.697903418314687e-06 
-0.0002440102925966594 
-0.002736467290289645 
-0.01308142255145167 
-0.02807044427968309 
-0.01533228579671983 
0.04832847157723646 
0 
0 
0 
0 
0 
0 
0 
-2.699276754072109e-07 
-2.582615697275265e-05 
-0.0009076193143096061 
-0.01169094748087968 
-0.05492379455014035 
-0.1019356906024952 
-0.1195981415172637 
-0.0001139127862859529 
-0.002197320884352585 
-0.02185649296929438 
-0.1086766295961811 
-0.2326331882522256 
-0.1777284254154054 
-0.08598507382473349 
-0.003627845078832742 
-0.02736202945747162 
-0.09621117981235103 
-0.2025166296385284 
-0.07941319544286926 
0.3118590230164927 
-0.2860082859202178 
-8.282669550255555e-05 
-0.001291100015684415 
-0.006333738037278656 
0.006687590908168999 
0.09586775575767992 
0.17149025344246 
0.1157351221125424 
-7.735291114483436e-06 
-4.706025705929209e-05 
0.0008940332055628867 
0.005018380134151157 
-0.009780263720525897 
-0.05579550423342031 
-0.05994144577629545 
-0.007928691066293497 
-0.04555649536782176 
-0.01844151957229211 
0.2600687221647213 
0.1221367812554439 
-0.4928521453867381 
-1.136244270993564 
-0.07315147930473284 
-0.4765580870347952 
-0.600800435449006 
1.448518987513532 
1.19821526130377 
-1.664980325191929 
-1.817913823892511 
-0.01051912687289959 
-0.08512704978737543 
-0.1694424503446991 
0.1644338233544627 
0.2267362607053677 
-0.4773024235076821 
-0.8071028257662148 
-0.0004036723152889696 
-0.002197457726339607 
-0.002274589725921982 
-0.0004549985263150045 
-0.01848598095145864 
-0.03965509640323877 
-0.0423414468647975 
-4.309699434451547e-05 
-0.000832306176799957 
-0.005131076012032239 
-0.005840880319258014 
0.01990823234505571 
0.03818011152664564 
-0.01609591915369249 
-1.422859112187798e-06 
-6.341166165076696e-05 
-0.001071773245380895 
-0.007044758406326517 
-0.01959669862415017 
-0.02980487720799499 
-0.04062963559863896 
-0.0001020831245764999 
-0.002340141404041745 
-0.01818685953631488 
-0.03119282730310586 
0.05813645585959296 
0.08474208533035126 
-0.09317177198922891 
-3.594751275629526e-05 
-0.0009420694656149306 
-0.008676738701734677 
-0.02491688974648449 
-0.00517693391923546 
0.008752409746372024 
-0.1555361868245739 
0 
0 
0 
0 
0 
0 
0 
-0.001615858986297521 
-0.02605180378938165 
-0.1404982629113998 
-0.1452755615161281 
0.2814978620900217 
0.1844736468735424 
-0.1843811136646269 
-0.002042944239250358 
-0.01309325153478476 
-0.04420458215332077 
-0.1196781703514976 
-0.2496032995271709 
-0.3666260513378353 
-0.4774521824022417 
-0.0006362732605617907 
-0.005216852842234229 
-0.01896676180292752 
-0.0300259632006092 
0.005755120228636265 
0.08078000959874378 
0.03913012224867518 
-0.0003201184874237451 
-0.0007798359199484876 
0.0150928006585557 
0.0696455431077217 
0.07446660235379726 
-0.0007222613908743059 
-0.04416939958908055 
-7.904560054973432e-05 
-0.001749391236272832 
-0.01318759089306761 
-0.0172805476010722 
0.09306647901921256 
0.1956610486482367 
0.0419040062473883 
0 
0 
0 
0 
0 
0 
0 
0 
0 
0 
0 
0 
0 
0 
-0.002675603289644708 
-0.0255717457296851 
-0.1098191408041141 
-0.2898789296736579 
-0.5304134592901526 
-0.7264103681685528 
-1.003710211389372 
-0.01260530665991493 
-0.1026079117289519 
-0.2788989037417141 
-0.06738372503542266 
0.5458070812046496 
0.6432521301288405 
0.5737900049885288 
-0.001596675189443448 
-0.01331442871258145 
-0.03526636769962652 
0.01912368999554908 
0.2069147103423974 
0.1740463771504613 
-0.2720316118039177 
-0.0002779748199701273 
-0.003440507544944512 
-0.014890189875218 
-0.01139992536635836 
0.01278305566627797 
-0.02976329787867161 
-0.05091269579975555 
-0.00533759277024667 
-0.04966597108308134 
-0.1510014646692949 
-0.06938346198451287 
0.2366674671793344 
0.4524706199520632 
0.4114568315737686 
-0.02066331720693306 
-0.1710971342300824 
-0.474803554864524 
-0.02259091268700413 
1.164614958171062 
1.065126957123694 
-0.6573325336956788 
-0.008787550804902053 
-0.05123797552805129 
-0.01551933531225829 
0.2915816365973917 
0.1939849700416806 
-0.1843122121597723 
-0.321637484887176 
-2.867565682541841e-05 
-0.0003365001282201449 
-0.0005933213007608829 
0.003815184038792871 
0.006327637962360764 
0.001671447611917462 
0.01640263891350352 
-0.0007281886204501396 
-0.003323782787431325 
-0.01218402112507741 
-0.07031847299703395 
-0.2363538348071655 
-0.480144086073353 
-0.5845188169657531 
-0.003327364979622356 
-0.004404307061261015 
0.0350830067613357 
0.0432466983433696 
-0.1304184104121988 
-0.3471395048948664 
-0.3825038581083487 
-0.0001891890941065753 
-0.001904254604107465 
-0.008999803260987519 
-0.0176625494560119 
-0.02562041352895097 
-0.08822448664930975 
-0.1582382836347306 
-0.0003764178011683116 
-0.003590063622737678 
-0.01213865166939758 
-0.008362948366315322 
0.02228491237820779 
0.05590251774072742 
0.07473439187173268 
-0.0001153268138421395 
-0.0009595046155182053 
-0.0007916756132320955 
0.008352277127566518 
0.01637188350930679 
0.01785920888290737 
0.01486883855669329 
-0.002441568360991412 
-0.01490027675525375 
-0.03109631393627961 
-0.02597990383762868 
-0.01127802594180867 
0.008484779337516605 
0.04203139157270275 
-0.003826049347068674 
-0.02152020704792088 
-0.04793772194085526 
0.002870150119672801 
0.237837905692923 
0.6275933019709549 
0.7935510882976435 
-0.0002173520254973218 
-0.001403595490279681 
-0.002331844200463512 
-0.003536102684457613 
-0.01382108515567168 
0.01047562091423625 
0.05078472520794131 
-1.171547816322729e-12 
-5.47474613352955e-10 
-8.985676798870961e-08 
-5.260284688476515e-06 
-0.0001111784942269111 
-0.0008560768390558455 
-0.002416003059684551 
-0.0001914285746412442 
-0.001118464554535289 
0.003501334134042957 
0.02942183578137175 
0.03536409413132706 
-0.006891941666916401 
-0.02002776451302858 
0 
0 
0 
0 
0 
0 
0 
-4.861998346206828e-11 
-1.306591264814799e-08 
-1.204561230133225e-06 
-3.373757407062664e-05 
-8.088761881537461e-05 
0.004375120486510123 
0.02979461144955227 
-0.0008522999441075572 
-0.008091444503003366 
-0.0296676964772808 
-0.04669503739387018 
-0.06789773916140063 
-0.2003415818218323 
-0.3859139295920986 
-0.01728989356472773 
-0.06000790440339785 
0.04481604048296052 
0.2869708155266382 
0.1941953258914135 
-0.02924546575384483 
-0.2576106668461097 
-0.0009571078435706825 
-0.003297960454611439 
0.0004044678949824798 
0.01351486081345814 
0.0420696811241987 
0.07718022899251523 
0.0474597574748965 
-0.007641461804550252 
-0.02230080655382168 
-0.0164688747395285 
-0.03011135336541456 
-0.04258146293667098 
0.04179374574948361 
0.1189692149325367 
-0.01415902831786655 
4.183011051759331e-05 
0.2072515308785947 
0.3765513164501629 
0.2439809521625763 
0.07227708473849893 
0.07878827793089402 
-0.1185517255269756 
-0.1691769728516594 
0.5903556661609752 
1.025688509634578 
0.4945537082018095 
0.1645671206181485 
-0.887548461691158 
-0.04619290377941203 
-0.1253905761101409 
-0.01727993020105207 
-0.2104385578014555 
-0.6647405711243052 
-0.1426227191874801 
0.1600841718351931 
-7.241461129619452e-05 
-0.0008508036557923918 
-0.0003726032396771581 
0.02361022498748289 
0.06361708997421958 
0.04060859522280862 
-0.01614975864681862 
-0.0007602956728610588 
-0.00407935611371458 
0.01155317612616855 
0.08565300134401031 
0.06149564860331476 
-0.1222946112916844 
-0.1819838682910811 
-1.140925413238514e-05 
-0.0003183100594207246 
-0.003083107543678238 
-0.006604029739689673 
0.02052935939068147 
0.04058084004127557 
-0.0753256945688285 
-0.0003733983280444067 
-0.002722684689938366 
0.002050077655238608 
0.05315685965728578 
0.07598082975719715 
-0.03042647178476371 
-0.03962054399410699 
-0.0001098848313374838 
-0.0005107946577411056 
0.01199725866307661 
0.1042082368401138 
0.2627174978523553 
0.2345790559007572 
0.01684848979038824 
0 
0 
0 
0 
0 
0 
0 
-0.0089889615518492 
-0.07396466507642081 
-0.1305710110727436 
0.3070115936411711 
0.596287967592485 
0.02057330118501029 
-0.1661804814652434 
-0.001020078819302334 
-0.002207374873776955 
0.02506819508526572 
0.09251750506070622 
0.07641551709559585 
-0.003232237514411593 
-0.05141424804736956 
-0.0001034084129999171 
-0.0005318210369897295 
-0.001182244244225062 
-0.01700723263759674 
-0.0695838331443495 
-0.128779237919158 
-0.1679593865717047 
-1.810772565030158e-05 
-0.0004090929939519673 
-0.003580860083908617 
-0.01121754514958372 
-0.009537784872770219 
0.00516687984513877 
0.03580285512915463 
-8.18202368180827e-13 
-4.742183230910842e-10 
-9.793459857468236e-08 
-7.325133978293667e-06 
-0.0002009520683553014 
-0.002040351403138215 
-0.007711319378990529 
0 
0 
0 
0 
0 
0 
0 
0 
0 
0 
0 
0 
0 
0 
-0.07055460640497499 
-0.6570428928037931 
-2.268857239387453 
-3.054278313968001 
-2.634278837276526 
-2.66973734489339 
-4.607990320347787 
-0.353696070603829 
-3.463626951289525 
-13.16832837511225 
-16.96169994901725 
-4.037714969182754 
-3.62747844623599 
-16.32615373029154 
-0.03467608144594619 
-0.4060316313974702 
-1.791104248826606 
-2.781391554061242 
-1.656240650778261 
-1.138608247631246 
-1.113440810518041 
-0.005169209441823515 
-0.04146747423778571 
-0.1405009511761196 
-0.2406240717167857 
-0.3570505066152946 
-0.4914495781811 
-0.2206372137562765 
-0.04344182541989072 
-0.4880846665873297 
-2.010618051329719 
-2.953172168459778 
-1.584711852289251 
0.7479521635812042 
-1.12197792951073 
-0.2053148070526413 
-2.032689154937463 
-8.330688083141819 
-13.31905869157767 
-7.171602459404189 
-0.4616170802812097 
-3.923840050127115 
-0.04812738493851264 
-0.3630756913626081 
-0.8918587117354316 
-0.3091123312999802 
-0.4597053045769304 
-2.010362766462459 
-1.089221738892101 
-0.01072329798081511 
-0.1504050832135311 
-0.8769610335329813 
-2.040257184952861 
-1.381000530695699 
0.6969489819613459 
-1.441359440652909 
-0.02650744358212754 
-0.1876042348975904 
-0.5666624832683451 
-0.6334757842884223 
-0.06877881221057373 
-0.5980376197293384 
-1.74886834667129 
-0.07871800290510172 
-0.3605577214954294 
-0.6132738602973076 
-0.922644785688117 
-1.240634173547625 
-0.8768014740760799 
-1.924267404025476 
-0.002113926522534647 
-0.02006020248095342 
-0.07553174727612295 
-0.1227484152452969 
-0.0676695164275915 
0.09539063989153174 
0.04479604001781993 
-0.01061042094218615 
-0.05560327456384747 
-0.1000410842817381 
-0.09815730131420521 
-0.2423242866477945 
-0.2707177587981524 
-0.1804181232182449 
-0.004020141400616138 
-0.02724239591057367 
-0.07589436560942721 
-0.1174229503772848 
-0.1783742579116457 
-0.2862806774936358 
-0.2099216832551784 
-0.003381584141541136 
-0.03754968313345395 
-0.172528690461065 
-0.3151836954074236 
-0.2685672420983409 
-0.4647647876716686 
-0.9461576663666671 
-0.09262159944254347 
-0.7952260740268365 
-3.019278754716937 
-4.175998240423699 
-0.06646583505475227 
1.94967929109499 
-2.129582753716791 
-0.03439546379911874 
-0.4789478839115603 
-2.520100926820211 
-4.087827779903594 
-0.2974941835464026 
0.1852682299201631 
-1.188208769224497 
-6.839408250693642e-05 
-0.0009975498488704897 
-0.006525135508515907 
-0.02306955903985494 
-0.06445127451021219 
-0.1417902122094787 
-0.2117224324882494 
-0.001474578161919061 
-0.01700998792064599 
-0.08919784993176773 
-0.2478602348546903 
-0.4494288465365168 
-0.5897222449044215 
-0.5891327807787745 
-1.195072821520699e-05 
-0.0003495345431316135 
-0.003769404771904266 
-0.01512839963576738 
-0.02849679007526837 
-0.04899492159620236 
-0.06068600631976929 
-0.0002810964556632271 
-0.004799604105396326 
-0.04034597976864293 
-0.1522145279318902 
-0.2231955334491912 
-0.1783449047038265 
-0.4352798772757625 
-0.005109356141361952 
-0.06091659624138308 
-0.3729692502181184 
-0.9392233290304909 
-0.6474153021625531 
-0.07410607336472978 
-0.7064610195420206 
-0.179209395861861 
-0.71741688729442 
-0.7290382194028027 
0.1281464949184611 
0.1177904321704165 
-0.8426773874686913 
-1.708738198374812 
-0.0222510781552689 
-0.09621799965469736 
-0.1919908744561624 
-0.2662224121518993 
-0.4002466501934957 
-0.4700480811204917 
-0.5934069654343856 
-0.01357105230851918 
-0.05005743929088728 
-0.08107733552630339 
-0.2023987758411293 
-0.3743776793731513 
-0.3135516011081128 
-0.5574258541569466 
-0.5035838702889904 
-1.653153254751965 
-0.84347447132042 
0.3043946463740986 
-1.598601469632506 
-4.414321848785904 
-4.837089004599986 
-0.480230183042484 
-1.546420918859228 
-1.156846227509652 
-0.982124172664534 
-2.504571781700773 
-3.658674666602315 
-6.516445644561268 
-0.2039935654419589 
-0.7310836877457432 
-0.301545900345643 
0.8163090924435801 
-1.257843305583759 
-2.664548527419885 
-0.4917100377001525 
-0.00163692117641317 
-0.01391928046540374 
-0.04534963429454648 
-0.07674508486314539 
-0.07377139712085957 
-0.09537363803010712 
-0.5234207467534848 
-0.008944713410491738 
-0.07144781433576057 
-0.226800692923371 
-0.3534991264820846 
-0.6307140843059731 
-1.013340853081924 
-0.9636764167273731 
-0.0092876010116238 
-0.1088015504848214 
-0.4740553927270844 
-0.6973815280787303 
-0.2918295417268769 
-0.3780299169033435 
-0.6172394139643664 
-0.006566694211116569 
-0.05663706054527271 
-0.1834480823868458 
-0.1536734401993292 
0.02815200014592725 
-0.1637648112589849 
-0.5877009207108034 
-0.009686272723534504 
-0.116302518175289 
-0.4844722694134709 
-0.6154526357911373 
-0.09295676263570662 
0.2628626639525579 
-0.312061238256953 
0 
0 
0 
0 
0 
0 
0 
-0.01570493893918671 
-0.1527674921178295 
-0.4136388768096325 
0.07710205241827522 
0.5315160416503267 
0.1381192568767592 
-0.2537100357889338 
-0.04134496747920648 
-0.2096941904376972 
-0.3066323849447089 
0.03963607677590011 
0.1037643814809015 
0.06564482684633507 
0.1011148980431144 
-0.06376502651788164 
-0.4237789883545294 
-1.087073203409383 
-0.6349595873789506 
1.117677088318534 
0.6912954402443504 
-3.348232820767008 
-0.00352762053173387 
-0.02649968293415158 
-0.08731835172750302 
-0.1102755802857259 
-0.07628424520997999 
-0.282145882730835 
-0.7113543479216281 
-0.001322786347824355 
-0.01630750909638914 
-0.06864126616673324 
-0.0740367982694481 
-0.01330019032125165 
-0.1766776320123564 
-0.4420980444989744 
-0.0001896369861555812 
-0.002525005954664159 
-0.01466449375398254 
-0.04185489075188088 
-0.07182007929760897 
-0.09221812892661209 
-0.08819987856137471 
0 
0 
0 
0 
0 
0 
0 
-0.0007491237981144928 
-0.008182950138506584 
-0.04280917154419559 
-0.1257597997838955 
-0.1258934043533456 
0.2981476395405032 
0.7299472511913708 
-0.003114844181450962 
-0.04701852934137864 
-0.3534085708043076 
-1.418100304743383 
-2.734270858751179 
-2.33806086005159 
-1.375194862772524 
-0.000224884170742205 
-0.003887696960724956 
-0.02989075267165398 
-0.1131504436299807 
-0.2755678185505544 
-0.5628765489137937 
-0.9369933916743154 
-8.882063862826725e-07 
-4.952022037053965e-05 
-0.001030345609008573 
-0.007972981130410204 
-0.02349629863991632 
-0.03798448767517575 
-0.07073269323665086 
-0.001361232524628653 
-0.007310569759129093 
-0.005137603399680182 
0.008582970814803982 
-0.00538904173861398 
0.1066591259492316 
0.1770987760747905 
-0.0007866752536676547 
-0.01314952251294185 
-0.1000652441247588 
-0.3674491642103634 
-0.6413034390409286 
-0.6216258921991453 
-0.6458066435537413 
-0.002374538990693272 
-0.01281751967081577 
-0.02794574040013163 
-0.06473195827776929 
-0.1661468269758848 
-0.277102545233639 
-0.456867928780919 
-1.16985233523032e-05 
-0.0001863460474917962 
0.0007508487090989429 
0.02114034016800748 
0.06106141699766715 
-0.04680136656117614 
-0.3294273276085292 
-4.396486054628051e-05 
-0.001102746179200584 
-0.009502909633013269 
-0.01986005125167984 
0.01912483390399158 
-0.04831829116329407 
-0.4352323626513912 
-0.0002211045491058239 
-0.003429328080475398 
-0.02150756729771857 
-0.06687485838487819 
-0.1502574231874297 
-0.2680742266502653 
-0.4281406166230893 
-2.183306321980529e-09 
-4.244885245116266e-07 
-3.057642072730461e-05 
-0.000819732475465358 
-0.008036122570913445 
-0.026572461323099 
-0.01888543331876372 
-1.440599052726809e-09 
-2.551982132285214e-07 
-1.656035556748462e-05 
-0.0003929657212801027 
-0.003278412057223847 
-0.008121865963603234 
0.0001819866503346014 
-4.194187540056651e-05 
-0.0009466650145832883 
-0.008553505342579268 
-0.03220397533416307 
-0.05857961494997988 
-0.08465731853710724 
-0.1080563950739678 
-4.741297230264332e-10 
-8.866104227945534e-08 
-6.384484529865346e-06 
-0.0001893892588171872 
-0.002483392366716579 
-0.01491336511693393 
-0.04008386698486227 
-0.0001943506301827289 
-0.003073309824608278 
-0.01923906352436665 
-0.03635971200451315 
-0.01547956329225116 
-0.1750743305863752 
-0.5552205541811474 
-9.753363018139631e-05 
0.0005232927866443674 
0.0133830114260015 
0.05801073919599441 
0.05545650799954659 
-0.1294412306248463 
-0.08554887083240884 
-1.025066960313755e-07 
-6.490557076508702e-06 
-0.0001605216860682347 
-0.001575925266233224 
-0.005685251082770428 
-0.00561551482709177 
-0.001531445075316082 
-1.363184343610867e-07 
-7.725631214880557e-06 
-0.0001268557426857563 
-0.0001136482704425483 
0.005115746464682745 
0.01360410338975135 
0.0118571295911944 
-5.707873243133201e-13 
-3.286205938937741e-10 
-6.648030038833153e-08 
-4.802240180926844e-06 
-0.0001254609336711122 
-0.001196988947332597 
-0.004198325647493629 
0 
0 
0 
0 
0 
0 
0 
-1.246473415034477e-05 
-0.000384415720393425 
-0.004801295636315039 
-0.02593758477823076 
-0.07031063619815411 
-0.09093523320018738 
-0.03584964134245684 
-2.052126805306512e-05 
-0.0008046541057450323 
-0.01284834868852994 
-0.08636431272727517 
-0.2549216491162456 
-0.4032951331190996 
-0.5519133347013224 
-9.97933276937657e-05 
-0.002052262236161008 
-0.01782593294518427 
-0.06732763714779316 
-0.1181161356271972 
-0.1316230747633236 
-0.1143805630448754 
-8.632696014485137e-10 
-1.942265743315945e-07 
-1.588230790732845e-05 
-0.0004764409347093364 
-0.005199090877439646 
-0.01948991240924112 
-0.01896115221065011 
-0.001135535644737741 
-0.006382857449228551 
-0.02463000435746565 
-0.06243425647930846 
-0.02982919896103326 
-0.04770069644046864 
-0.647916377395182 
-0.00749808549273069 
-0.02751235418293979 
-0.08543818557146649 
-0.2228992862820244 
-0.343194491203808 
-0.3856353852568215 
-0.07203554401164949 
-0.001193558539602 
-0.006925992532255777 
-0.01726486547082981 
-0.04253202498261932 
-0.1413582072593334 
-0.3764595993807132 
-0.584712983054541 
-4.16923385270918e-09 
-6.711057538044955e-07 
-3.963752087212118e-05 
-0.0008664248205880862 
-0.006915184391436907 
-0.01870319912015704 
-0.0116449566348591 
-5.705410842267459e-07 
-3.838662422174317e-05 
-0.0009425542200449819 
-0.008284719378643387 
-0.02450491573180359 
-0.0272109536797034 
-0.05208820768218397 
-9.402259714717722e-05 
-0.001308048046479111 
-0.007466280741773831 
-0.02160991737969449 
-0.0346005188053088 
0.01123175144407398 
0.1176979763556894 
-5.85145577944048e-08 
-4.214039623038442e-06 
-0.0001128367941089766 
-0.001239474577167858 
-0.00794025687784025 
-0.03977700665548993 
-0.110466980048956 
-2.481929520171679e-06 
-9.125479402718511e-05 
-0.001233089098571607 
-0.006807664281281648 
-0.02056972303802534 
-0.03495497478114454 
-0.02472253717443754 
0 
0 
0 
0 
0 
0 
0 
-1.194718720859371e-05 
-0.0002777221198914934 
-0.002676604928336332 
-0.01270659095424121 
-0.02665382581033207 
0.01198834323451911 
0.1120778495032908 
-0.0005273980841340262 
-0.006101565127872776 
-0.03118300576736893 
-0.07457739891777199 
-0.09271630991726795 
-0.1428250085750725 
-0.2378942099927374 
-2.187078564907081e-05 
-0.0005631116345153102 
-0.007046907117714119 
-0.04039563958076415 
-0.08059271262386247 
0.005017881783238537 
0.08960397588069452 
-4.75054975498267e-07 
-3.045783284729027e-05 
-0.0007778034279605492 
-0.008069560915230282 
-0.03242442900254181 
-0.03641873837291805 
0.02695987701947611 
-5.704325517383981e-08 
-4.539606721791821e-06 
-0.000139201954657097 
-0.001550238745899297 
-0.003400578264493297 
0.02750157574521989 
0.1177044978204304 
-3.694435833240696e-12 
-1.727137034271542e-09 
-2.90135341224219e-07 
-1.781231701095732e-05 
-0.0004049796800603526 
-0.003442644614270658 
-0.01100744186257797 
0 
0 
0 
0 
0 
0 
0 
-0.004300652989640798 
-0.04397244602218557 
-0.162601120267086 
-0.1428800267852219 
0.1508464568430079 
0.3295643207273516 
0.5528176701943969 
-0.008674755221641663 
-0.07017387279226732 
-0.2604978034446667 
-0.4716227131524494 
-0.4460767710213704 
-0.1568891944496221 
0.3961227380231971 
-0.004063621241156291 
-0.03665150654741339 
-0.1349821812931881 
-0.200562361913544 
-0.1286604149100756 
-0.1175450008000658 
-0.3712823400259691 
-0.0003302054803012316 
-0.003312667292231471 
-0.01700978709842417 
-0.05041926075398948 
-0.09569213144796491 
-0.1141131314323678 
-0.08243551567649082 
-0.002312521485840023 
-0.02551917560007828 
-0.09437211461809901 
-0.06351517321837863 
0.1255947239296836 
0.07904177160268468 
-0.2295045533759978 
-0.02963395321218798 
-0.2856232340468303 
-0.9482903210909495 
-0.6022634114476174 
0.3168525779922388 
-1.02160701804648 
-1.80419813935637 
-0.0002824609615045833 
-0.0008468811368405628 
0.01582613812883727 
0.1011594766123242 
0.1768274211561094 
0.1020393636517335 
0.01145463113656551 
-3.757222063298375e-05 
-0.0007097901905729821 
-0.00455648538006717 
-0.00412237968633294 
0.03659233240728817 
0.09569113392431228 
0.07405504927432104 
-0.001322822269984942 
-0.01352793923026422 
-0.05695679328282182 
-0.09739727928730434 
-0.02242852442903117 
0.03688822403864343 
-0.08282275716634578 
-0.005778009600360808 
-0.04394796642350324 
-0.1139770761054957 
-0.05988592201871346 
0.02838842799912337 
-0.05400114661382424 
-0.1154505730110284 
-5.252644799877518e-05 
-0.001033889419300134 
-0.008179790745466665 
-0.03004029676195317 
-0.072502924756841 
-0.1229195827371382 
-0.06167993234974636 
-0.0001205261410751006 
-0.001285639391433255 
-0.005631748333918279 
-0.01092919803522658 
-0.0127826640805277 
-0.02267780397693173 
-0.0355293341705509 
-0.0006377992380941842 
-0.003017200901427522 
0.009781104069489864 
0.0697876352395634 
0.07190842839246273 
-0.01110677654758779 
-0.01258624391810027 
-2.937704142621343e-05 
-0.000490585310931108 
-0.002389276720466673 
-0.000801506854751117 
0.005481050776321075 
-0.002846931544496603 
-0.007357617379788163 
-0.0005236412062988732 
-0.007170735192898015 
-0.03939258724546207 
-0.07528414573611408 
0.050777103117714 
0.1480665224220101 
-0.4865010748881475 
-0.0003618513329867905 
-0.003412985232162885 
-0.009547151444483112 
0.01844680703113859 
0.1012264040656321 
0.1197420220354073 
0.06314561021496964 
0 
0 
0 
0 
0 
0 
0 
-0.0002312085071146976 
-0.0013827901489424 
-0.0009022630281501884 
0.001531293136170292 
-0.006223831052690918 
-0.01472796110634951 
-0.08013471745169697 
-3.469620912388051e-09 
-5.008866002720776e-07 
-2.594353137951202e-05 
-0.0004674369369784542 
-0.002508729982589722 
-6.924472996385828e-05 
0.01754117288077474 
-6.022753083036118e-11 
-1.853239509522827e-08 
-1.989078751522838e-06 
-7.159685960991326e-05 
-0.0007270446987391693 
0.0003095738669708571 
0.01986627710770267 
-0.0002669605491787624 
-0.004601444579375245 
-0.0356588431964006 
-0.1153172572471297 
-0.1094078878167302 
0.1078148259970509 
0.1679619530270238 
-0.004122742034131251 
-0.01951865246601158 
-0.02066794311609512 
0.006835922352179242 
0.03982966988176864 
0.1095640887705778 
-0.02164899306284926 
-0.00128934381542627 
-0.005867250288903152 
0.01147096325400982 
0.09983988516672933 
0.12290557861561 
0.02288364709158406 
0.02006198383367111 
-0.0001138854962245806 
-0.00134097508121234 
-0.004762213847356465 
0.0001477487272103734 
0.01259914273918269 
-0.003773958783495469 
-0.02717106107623975 
-0.0122821704351717 
-0.04809307237304583 
-0.01493441632502179 
0.09468490456943572 
-0.03792926860725835 
-0.08092188908140836 
0.5364634313833128 
-0.002286361590670497 
0.00141096232378092 
0.04225316035401704 
0.12906469920143 
0.226396451241781 
0.1937634930140071 
0.1679745554550212 
-0.06097370335116209 
-0.1798855075997237 
-0.03561865261790097 
-0.07357449624370165 
-0.6629989337698119 
-0.4056834596413768 
-0.6508452047750701 
-1.03730474867636e-10 
-2.761090257578285e-08 
-2.52913163439786e-06 
-7.508426442022374e-05 
-0.0005428309936419977 
0.001881063227051291 
0.0198679412004425 
-0.000403333525272136 
-0.004548513794287203 
-0.01824681563854154 
-0.02462169551039419 
-0.01416902922973813 
-0.04279918125958999 
-0.1254878573273285 
-4.270491501498342e-05 
-0.0007805943624182062 
-0.006370829648330545 
-0.01977790255552019 
-0.00104340781036816 
0.05876252997772717 
0.02253704320962823 
-7.060203553523146e-06 
-0.0002392405684995555 
-0.003148006134087417 
-0.01706775963444945 
-0.04152021241563111 
-0.0210060128954086 
0.1166608499577508 
-2.428072919933463e-05 
-0.0004967506508590408 
-0.004178186425642334 
-0.02314679682273376 
-0.1021299222633751 
-0.1348169768461306 
0.2185634024864068 
0 
0 
0 
0 
0 
0 
0 
-3.27997373568076e-06 
-0.000134170788012975 
-0.002123092600339554 
-0.0129473795861303 
-0.02477046506080547 
0.01291659900452827 
0.04864906156893321 
-0.001165625711126373 
-0.001795894557350493 
0.02348965665070495 
0.1050925141296146 
0.1663725503547646 
0.03429917979579022 
-0.1551128448276014 
-0.0006606548764400344 
-0.005171572161091043 
-0.01425499054403528 
-0.00154240833531489 
0.0206845307370918 
-0.06035274678703675 
-0.2843802646876526 
-3.210810027878382e-07 
-2.32297959071078e-05 
-0.0006531386452890427 
-0.007080222318799626 
-0.02840612604444065 
-0.0411949146426794 
-0.03609718196359521 
0 
0 
0 
0 
0 
0 
0 
0 
0 
0 
0 
0 
0 
0 
0 
0 
0 
0 
0 
0 
0 
-0.00890385877394244 
-0.08944344743346735 
-0.3679205510282023 
-0.6587030458437352 
-0.5735753536801752 
-0.4952240723796758 
-0.6444188631185345 
-0.0613440747681866 
-0.5425775450143835 
-1.682836118688031 
-1.18025517855762 
0.5771695965667335 
-1.53636247115205 
-4.73815899996945 
-0.01162386011808574 
-0.09831369779661817 
-0.3134723291731379 
-0.3884676141722451 
-0.4069006570953688 
-0.7632754949544299 
-1.090763362196017 
-0.0005508531971695166 
-0.002092171410944579 
0.007086549601228697 
0.02516613266320468 
-0.05090948322531524 
-0.143847231637126 
-0.1111580207087104 
-0.01580274279164167 
-0.1299376183525052 
-0.3452523608113329 
-0.07028012581009695 
0.4772936817701307 
0.2548363676693387 
-0.3581287462267522 
-0.06883264664643907 
-0.691599636390311 
-2.583627372659842 
-3.278565405042264 
-1.32480739531295 
-1.449692059191678 
-2.883653578733212 
-0.01148426294313095 
-0.09187937300631732 
-0.2252728879274843 
0.06155753750902517 
0.4770700363143102 
0.1013531412878135 
-0.3294849968813628 
-0.0001067908557814975 
-0.0009997133409686816 
-0.001624639334587379 
0.004913377355852588 
0.01078322886861428 
0.01650762323967937 
-0.04054512102391222 
-0.004902859367496129 
-0.03345970835070827 
-0.05001101355467929 
0.08152091759321715 
0.08414716489271722 
-0.3079769599130498 
-0.3024389972174495 
-0.01299114999798777 
-0.07800845844510941 
-0.1831406899250898 
-0.2542258856122181 
-0.583750382757386 
-1.074804879407767 
-1.112893610616593 
-0.0002838243724400521 
-0.003898432091079903 
-0.02743493365820985 
-0.07786766490939438 
-0.009330648894426698 
0.2251679320233713 
0.2682818224065796 
-0.001730810714132077 
0.002326250459252731 
0.04164339185200277 
0.08277042699579183 
0.05489841744368494 
0.0168068419992685 
-0.06010208674889139 
-0.002230373724238152 
-0.01382593347768275 
-0.02637543457075143 
-0.01306468717655707 
-0.01569130817415053 
-0.01646419101902079 
-0.09000493994498067 
-0.005511387097868908 
-0.02740045734170165 
-0.04657343990593775 
0.001833473597120223 
-0.02553504408416963 
-0.3582402770116537 
-0.5461773880706872 
-0.1228901531979455 
-0.5750351807268956 
-0.611830162711774 
0.241714390450019 
-0.3768861836954307 
-0.35078096124212 
-1.785067140329874 
-0.000320513206821242 
-0.00156300507464597 
0.00236887289692626 
0.02449350162791181 
0.04197326522862033 
0.09359811522963471 
0.2988788318501782 
-0.002758751806524105 
-0.01576021461863749 
-0.0359216826727117 
-0.04619434099794506 
-0.07566147491065013 
-0.1162413601031964 
-0.1094128780050818 
-0.0009968219773111282 
-0.007854777470434872 
-0.02882973065934312 
-0.05938872669478721 
-0.07290687837761903 
-0.09578558476517386 
-0.1500900192396513 
-4.776780657277856e-10 
-1.198815692534031e-07 
-1.107966004927756e-05 
-0.0003793445855617207 
-0.004705557864633992 
-0.01918813123881033 
-0.01479351262938238 
-4.842911738631537e-07 
-2.664589166326104e-05 
-0.0006216837303290405 
-0.005940300045350317 
-0.01890211190869173 
0.004995266844434586 
0.09149197297393405 
-0.004114284267603284 
-0.02668105626355666 
-0.06982023380876599 
-0.1553231908022301 
-0.4021202545025609 
-0.5318337547898803 
-0.6540310297412675 
-0.01055697857836785 
-0.07227293932489096 
-0.1470519635111589 
0.1513519414918674 
0.7140906850732415 
0.4599453983984395 
-0.4934957463247678 
-0.006680507122504018 
-0.02058992252568941 
-0.04268820820220413 
-0.06157112664132108 
-0.04037260637936908 
-0.06750166151253076 
-0.1740976618020103 
-0.03334753673666484 
-0.1189742932639055 
-0.04399717872658353 
0.1530397473657768 
-0.09412696583450483 
-0.3576763566829336 
-0.5235720957557871 
-0.1155427540697706 
-0.5990242823619181 
-1.190949185328498 
-1.111375022204697 
-0.4451096871667117 
-0.2064018009560226 
-2.829888982302784 
-0.1732577314715535 
-0.605308502649476 
-0.6334054297834437 
-0.02096508715287604 
0.2247425282665169 
-0.7075295262382264 
-3.138379538032085 
-0.1612209371942653 
-0.3656599020280461 
0.2210243975934475 
0.09418598345853804 
-0.9181871043935064 
-0.4603061486301968 
-0.6871933954341541 
-0.000697078897237956 
-0.005091567910300331 
-0.01107025555315058 
-0.004141411045736601 
-0.02319817119121524 
-0.1083808060577952 
-0.1648422502576345 
-0.0249618750924698 
-0.1690370874438216 
-0.4415913495539095 
-0.5627739356915143 
-0.9538870607995961 
-1.346924328748562 
-1.163166152897789 
-0.0005088104191244646 
-0.007130048720897842 
-0.04489279925236497 
-0.1329571429839609 
-0.2450596908324667 
-0.5319805655104064 
-0.7985131730874305 
-0.006031127680257328 
-0.05647293200230618 
-0.1820101764346298 
-0.09656379937041948 
0.1929427383573714 
0.008959900163881625 
-0.2163435009984972 
-0.01293917057964676 
-0.125572869721171 
-0.4224878970196424 
-0.3612208005545229 
-0.04069900824149307 
-0.6004095177819478 
-0.9626035515415088 
0 
0 
0 
0 
0 
0 
0 
-0.01062352859977606 
-0.09233688999611017 
-0.2557070090304797 
-0.07816858467625347 
0.06585036474082986 
-0.2205353670097774 
-0.2612115400872382 
-0.004527143921405987 
-0.02567017839210283 
-0.0480864893845169 
0.007714034550209589 
0.08206222373214063 
-0.1125632551141149 
-0.3835553013762524 
-0.002365206097186497 
-0.01888150674212089 
-0.06056971454706729 
-0.07796608869582028 
-0.09840472900236261 
-0.066641190991588 
0.132443605573791 
-0.0009851989302653778 
-0.005884557781686588 
0.004559372556451451 
0.08498668544866705 
0.1303917878148502 
0.07112261163744302 
-0.03336129841343462 
-6.698654144535451e-14 
-4.861694566127957e-11 
-1.230157263042247e-08 
-1.103568983156494e-06 
-3.557650854312157e-05 
-0.0004164249947719771 
-0.001782686326306885 
0 
0 
0 
0 
0 
0 
0 
0 
0 
0 
0 
0 
0 
0 
-0.02562603527509539 
-0.2125344449754638 
-0.5517461016055356 
-0.1377912117653987 
0.2970952247367063 
-0.4983459740327336 
-0.5384095887957595 
-0.08612306393173234 
-0.7266238074704819 
-2.251558907230112 
-1.970235015584597 
0.1421967247552323 
-0.07070636507148427 
-1.06046558069158 
-0.003670696304356541 
-0.02801178358253772 
-0.08501533711067533 
-0.1484373801601797 
-0.2422497818552436 
-0.2523866617746583 
-0.1445017236309141 
-0.0004382870490858532 
-0.003664650587418513 
-0.01034214294022771 
-0.00874370415698999 
-0.04864899524370672 
-0.1628946406350753 
-0.226182070403718 
-0.01132903552662484 
-0.09918786570655976 
-0.2831403215874864 
-0.1132561960688711 
0.1749527639843239 
-0.01536703553437711 
-0.2905196632978884 
-0.06791755282382934 
-0.542197083738641 
-1.656302296394669 
-1.641023689628425 
-0.4506525396189472 
-1.369630678819488 
-5.103929188873797 
-0.03215838648922296 
-0.194471318193646 
-0.1213944967842514 
0.8548530440206347 
0.3860557340015762 
-0.9593256317784327 
-1.450296988639736 
-0.0008518768905417565 
-0.007386411098474877 
-0.01220721049149733 
0.07625731780058741 
0.261259887806537 
0.2963566935959807 
0.1522771036166245 
-0.001258071322430439 
-0.0037288183016967 
0.005871152599315862 
0.03065997442799955 
0.1012274185455647 
0.1938065777532856 
0.3228013073154268 
-0.01518006639820732 
-0.1084734329584159 
-0.3134878605508085 
-0.3219356561834264 
-0.09567595035873976 
0.1318459022297082 
0.2954031019005616 
-0.0004267488982320089 
-0.005106190549206689 
-0.03028337976924704 
-0.1157276391752764 
-0.2489754822444677 
-0.1028532361451175 
0.3138538706406628 
-0.0009847587599739211 
-0.001905950528621426 
0.0008417901929032397 
-0.02107518706315895 
-0.04995031937912697 
-0.0836457043852331 
-0.168425608766564 
-0.0002381588334539697 
-0.002719230989411916 
-0.005203192591791877 
0.04981128546204538 
0.1992514055695757 
0.2747833422079359 
0.2970650064829173 
-0.0005076346740269997 
-0.005252879136322875 
-0.02542723872129003 
-0.06677212743474131 
-0.1249617101446556 
-0.1872729095658903 
-0.1673853426551652 
-0.009646738894310471 
-0.06410556691631962 
-0.1974161715008979 
-0.3078412630229339 
-0.1474098021442544 
-0.1186168542103861 
-1.23484835293522 
-0.002706361462829694 
-0.01336716790441498 
0.01535456605962444 
0.2482911628748138 
0.6841529099103408 
0.9728920862805788 
0.6311258859290837 
-0.0005038910741088293 
-0.002479667691229843 
-0.00261900591222451 
-0.007263120267865453 
-0.03477949087168001 
-0.05643699734462035 
-0.1075043533495719 
-0.0003320704421566619 
-0.003457446538358277 
-0.01624319358347657 
-0.04158575009034874 
-0.06297416846150049 
-0.04452093598923618 
-0.04717094986668015 
0 
0 
0 
0 
0 
0 
0 
-2.841886906215793e-06 
-0.0001749772133750519 
-0.004165575156641212 
-0.03940017207148848 
-0.1585386894548896 
-0.3093307074998166 
-0.3202663882499229 
-0.001488283155723933 
-0.01810005307380616 
-0.1045484050856972 
-0.3228843272837409 
-0.5429800432997611 
-0.4971618466866152 
-0.6133900911567425 
-0.01383024870954418 
-0.1042847895754876 
-0.3285973552481867 
-0.3793510276271946 
0.184166262663207 
0.7477946890561692 
0.5742071637794659 
-0.0007207706633621651 
-0.004987788502705208 
-0.005666771129307456 
0.05567620265118623 
0.2432792427055199 
0.4833889011278457 
0.4039871137602411 
-0.0001547278913614872 
0.000428144727226385 
0.006256147234915663 
0.002568310792421481 
-0.05024803905071926 
-0.1567694489637414 
-0.2440988684199795 
-0.02677687704155991 
-0.03581251350412967 
0.2292654512796125 
0.3396985969478749 
-0.07673838327875944 
0.02198568995522168 
1.00989143320436 
-0.3597720205971101 
-0.9959146674123338 
0.3017764981534116 
2.00005338389559 
0.08802207304625506 
-1.447562732445003 
-3.175814332860527 
-0.07495572023289306 
-0.2303322889134481 
-0.004560846152177334 
0.1671269228135933 
-0.4121631715990244 
-0.4856355425905579 
-0.9199675635210306 
-0.0006382833320821437 
-0.004737148755400592 
-0.01036847687063404 
-0.01070378343916035 
-0.04528562568194038 
-0.09790677514246209 
-0.09201355111091469 
-0.0004753042450214942 
-0.005674440692612191 
-0.01869015034534547 
0.006819354129488822 
0.0504701542774424 
-0.001844745679496254 
-0.08648476997268414 
-9.502516707327425e-05 
-0.001200344431655702 
-0.006236895236271596 
-0.02249297573509055 
-0.06224631403236462 
-0.03781653569137058 
0.06767894406409763 
-0.001588635750614225 
-0.01817719617936049 
-0.06091914885008568 
0.006158996263272918 
0.1403124972539184 
0.01732212000190502 
-0.06327068072029583 
-0.0004080817723490588 
-0.006105806734746292 
-0.03237762140447523 
-0.04924724134725647 
-0.01312893201909498 
-0.05297514147725446 
-0.03923492034163749 
0 
0 
0 
0 
0 
0 
0 
-0.01557029868383722 
-0.1352267045094658 
-0.3467944497263877 
-0.003469976275646016 
0.3436288762680552 
0.1950584255347643 
0.1576320586581586 
-0.008689498304837825 
-0.04896230679129213 
-0.1331744625744523 
-0.3434187308422951 
-0.7563824828886572 
-0.8493663616837581 
-0.3716586672143071 
-0.003713816714085817 
-0.02318437134999844 
-0.05423892216846397 
-0.04003812956563137 
0.06520311656041546 
0.2127070489630281 
0.1746680296348183 
-0.0006029433261637573 
-0.0008986818783672561 
0.03320746992479003 
0.1620683879452554 
0.2095559970908079 
0.03416794493429007 
-0.06029089557663107 
-0.001295791223681986 
-0.01430588031996195 
-0.05055379041430234 
0.008127321343583318 
0.270173293062383 
0.4211851369798164 
0.3086335622114383 
0 
0 
0 
0 
0 
0 
0 
0 
0 
0 
0 
0 
0 
0 
-0.03543820951078663 
-0.2446482680536867 
-0.5083516748450325 
0.01361366537436172 
0.5799653647917515 
-0.02258481334340719 
-1.44863286568288 
-0.1456331840371972 
-1.150838570752617 
-3.408273464299701 
-3.28983850686806 
-0.9282143841594013 
-1.713837172157481 
-4.250467571988437 
-0.02558786778691477 
-0.2028693519969187 
-0.5171993832728849 
-0.1520721642135312 
0.5400079592695249 
0.260442748498619 
-0.3165690201014521 
-0.003016955029886148 
-0.01341735750850188 
-0.01320813070862302 
0.05017609543543874 
0.2148363756685835 
0.4336943073351824 
0.38680193570406 
-0.03948047923665003 
-0.2330243820660523 
-0.4275390492367076 
-0.1941632201665118 
-0.6127701184294132 
-1.132554967032642 
-0.8508123858429679 
-0.2031365216903755 
-1.467357263334955 
-3.685421348562112 
-2.208206474654918 
0.4298846856284029 
-1.755590570913154 
-4.968498712307927 
-0.07067271534478893 
-0.3414434950046533 
-0.3050591458386716 
0.7346561336948196 
0.1009388722028206 
-1.218466589627527 
-0.5265074019896646 
-0.00559630870694968 
-0.05881884091879495 
-0.1660956878070916 
0.02000754426242876 
0.03436449790126644 
-0.3616958546025462 
-0.09522504313472112 
-0.03053937507001198 
-0.09542981866585533 
-0.1134959015942158 
-0.3024292756914067 
-0.5679956697587412 
-0.08954711165715885 
0.6080982663374442 
-0.0601121994054615 
-0.1735860591996707 
-0.01148098576074947 
0.1039776830224463 
-0.5092442758888038 
-0.98228467865323 
-0.7685100119685985 
-0.001246367925030969 
-0.008045887457660128 
-0.004380952430526831 
0.144132631923022 
0.5247240261543908 
0.6468645325387538 
0.3644446556969234 
-0.005378794042887779 
-0.01543907658256869 
-0.007017591738348062 
0.07359932033237705 
0.1535043420294158 
0.1335053506150349 
0.1219492195076945 
-0.002184351231373857 
-0.01094773269889841 
-0.01569165264144498 
-0.01246057793082225 
-0.01960609106772024 
0.07421607307429295 
0.1790627206372801 
-0.003292982966760782 
-0.01647131566973943 
-0.04972158122895502 
-0.1276420448832606 
-0.2111829435081294 
-0.2426870303996497 
-0.1282280741229709 
-0.09854078895572564 
-0.2737714824155543 
0.0409042894456571 
0.0362336149194302 
-1.063045638482531 
-1.2657327068257 
-0.5664610525293799 
-0.07070916530173026 
-0.1892687441278304 
0.02610109249899074 
0.1232575194652727 
-0.2156565425763355 
-0.3572770205711974 
-0.3314773868306334 
-4.027694343576274e-06 
-0.000129363955324314 
-0.001439536131824072 
-0.005206841163152005 
-0.006873925849701768 
-0.0120359100039485 
-0.01710196019173802 
-0.0007444816765050196 
-0.004493197194019262 
-0.0121396360233571 
-0.01200029371441957 
0.006761003533984964 
-0.01626252974479873 
-0.1341974490140285 
-6.806922260796755e-07 
-3.594535961961012e-05 
-0.0007276973165977256 
-0.005434880817333149 
-0.01227884586224794 
0.0003143065869413007 
0.008543532034930901 
-0.000122782781419018 
-0.001114115361429297 
0.0008999843105530049 
0.02780237991936802 
0.0517394072037342 
0.01733229913585201 
-0.008334066927693399 
-0.02879051470803949 
-0.1090795943062335 
-0.1864499413616468 
-0.3062589740925288 
-0.220969560510513 
-0.5031117602609997 
-1.223876090103325 
-0.01955963342606553 
-0.1122786143434024 
-0.1501118575722681 
0.2959637316031249 
0.9105534058780504 
0.8738043513511766 
-0.03548143348851219 
-0.008016082812115946 
-0.02464051001327167 
-0.04803025277869871 
-0.1066759018839247 
-0.1224421223878343 
0.04786887057956051 
0.1314005239286858 
-0.001858198410054225 
-0.0069503369352825 
-0.02237032371317983 
-0.08141389014197344 
-0.1188610735250314 
-3.98510165015545e-05 
0.2141600393025023 
-0.1101144729515911 
-0.4309332447370791 
-0.6013827343245995 
-0.3738306300046238 
-0.5789339514307964 
-1.327465378689971 
-1.517059558922143 
-0.35316865422183 
-0.7042041551649356 
0.74571617802832 
2.015347056493856 
0.119103070781986 
-2.205870547075741 
-2.291951372688817 
-0.1095252479159767 
-0.334493924374889 
-0.4289013598085299 
-0.6375258973107606 
-0.6518739784380136 
-0.5039658244282896 
0.1075289547246663 
-0.001381673468473128 
-0.003209937486100667 
0.01547950946667479 
0.05768582746389737 
0.102043147969672 
0.1735238150784454 
0.1463286746972213 
-0.003630125150541581 
-0.01521414811900085 
-0.03276613209545504 
-0.1352633618102538 
-0.3367740883307708 
-0.2787709008970259 
-0.0577332646052272 
-0.003053834210491817 
-0.02274115773223557 
-0.05819381766520912 
-0.03017384024460368 
0.05586053923552702 
-0.04511616829261385 
-0.2365039756406651 
-0.003240540715219366 
-0.03092450228632881 
-0.08447933571744079 
-0.009450013762385899 
0.007458492473532005 
-0.1939957365952231 
-0.3206981152160682 
-0.008034424518785294 
-0.07314503419217294 
-0.1987705156112844 
-0.02225891165349754 
0.1755920136266763 
0.0263869479995406 
-0.21806032880982 
0 
0 
0 
0 
0 
0 
0 
-0.02108985279314598 
-0.1128759468782608 
0.001787530337773448 
0.8016861480209374 
0.6940836580562454 
-0.3340628070376327 
-0.3437952773279829 
-0.01737543131199504 
-0.04395078736071539 
0.004109158629774607 
0.0790904174979271 
0.1273312828544778 
0.1831502003999925 
-0.07825862029426804 
-0.01163340423297331 
-0.0618457347842635 
-0.04057498992638869 
0.2418052018923047 
-0.1829638409942305 
-1.222754721868401 
-0.6354001334751844 
-9.983710789295076e-05 
-0.001823275203456325 
-0.01226453338872069 
-0.02270358360957451 
0.02885498820487398 
0.08340029391928171 
0.01172303621048005 
-9.829100935877525e-09 
-1.460912267990419e-06 
-8.268592737788428e-05 
-0.00181848013192266 
-0.01562383429632322 
-0.05092211663759409 
-0.0550057978237368 
-0.001182547593967876 
-0.006129107675176323 
-0.01367848815502562 
-0.02159839614589008 
-0.0360677379462635 
-0.04265583180662732 
-0.03587356095634408 
0 
0 
0 
0 
0 
0 
0 
-0.136907689835242 
-0.9142953663089305 
-1.913319501513601 
-0.7765284387941477 
-1.320722745016966 
-4.685998356406563 
-9.722317823228904 
-0.7323452807626466 
-5.684849839383277 
-15.75673974445184 
-10.81003298970777 
1.637704099738406 
-6.320711334717088 
-15.30014900073658 
-0.08438336191918709 
-0.6157960172791546 
-1.585167882942435 
-1.089420021952731 
-0.4395986791531185 
-2.643104830560892 
-6.304369106469839 
-0.008993420787706248 
-0.06011887027757685 
-0.1716273620321247 
-0.1448719544351296 
-0.1564011203025829 
-0.5581436260348291 
0.008609618305428146 
-0.09032858205624329 
-0.7849971763357706 
-2.256664605007557 
-0.4882602557718003 
2.694035660246876 
-1.233876118674207 
-4.086277007006145 
-0.7203421482948517 
-4.776390922489861 
-10.06396359391303 
-1.733975106718923 
0.8207313523955719 
-15.19244139201031 
-17.58485353104804 
-0.01518915717071197 
-0.1429148489221847 
-0.5427956677810373 
-0.8062973161240785 
-0.6271711048385001 
-0.2527833270085009 
0.0716328692491537 
-0.07066412206409005 
-0.4729829297688297 
-0.9599279066543817 
-0.2287152533337818 
-0.6507029024732909 
-1.726931351998918 
1.077575414307468 
-0.03384760462059559 
-0.1350664062517623 
-0.297952292588271 
-0.5877121528288622 
-1.079054426540078 
-1.713511457605194 
-1.844168275433663 
-0.06298735775228276 
-0.4639294616538737 
-1.115689644145803 
0.05732035698070008 
0.8973211105132433 
-2.754250046251882 
-3.915783030746351 
-0.02408077800759281 
-0.06603982921870029 
0.06162136197734377 
0.05762870500727382 
-0.3532080142673734 
-0.1639009818532267 
0.3424434322906307 
-0.01802100333563562 
-0.08210536087181436 
-0.1232790378292933 
0.03349483770557235 
-0.02601295809009165 
-0.3264105035299644 
-0.1512321462674271 
-0.001929250714914749 
-0.01764743395068348 
-0.05921998281248232 
-0.06377380521626737 
-0.04797441743067838 
-0.2604799134574635 
-0.5549021988844924 
-0.0168976153580184 
-0.06310241931921053 
-0.03071563168350909 
0.07534341417038989 
-0.2697019698348003 
-0.93474946066707 
-0.9580154121158848 
-0.3637634017235749 
-1.255441536868729 
-0.6694151912400913 
-0.3776490942767465 
-4.576322057683594 
-5.490380212925507 
-3.604712109708214 
-0.3315378434823435 
-1.208461034463684 
-1.369660636847004 
-0.9297984652921961 
-2.096675947772126 
-1.365370623146115 
-1.821388369881495 
-0.0003472328586157325 
-0.003010155567829493 
-0.01118466067603259 
-0.02313096795416434 
-0.05861532761909043 
-0.1202881060078033 
-0.1603306019402905 
-0.000557666106457467 
-0.006857969041662521 
-0.03867606732586988 
-0.1297859284813052 
-0.303127622721047 
-0.4955391939637409 
-0.6265753591765914 
-9.60343833328204e-05 
-0.001533699345459578 
-0.009123745759173529 
-0.02047473087687402 
-0.02492261421276651 
-0.04434043634893241 
-0.08361418788717666 
-0.00160575767602937 
-0.02016679954633772 
-0.09559787745066893 
-0.1769952155064948 
-0.1498104044090922 
-0.09493214398137312 
-0.3803437336356721 
-0.09556881054044462 
-0.3355767415623781 
-0.3575663475501863 
-0.2024051998660009 
-0.4088137821772311 
-1.513224113333335 
-2.844537793245074 
-0.07308422216786006 
-0.6101472675594006 
-1.952561337404308 
-2.008146308780733 
0.329549304211417 
1.028646597359876 
-3.794495765451033 
-0.01430243331785788 
-0.04979289795019817 
-0.08559161113714284 
-0.1441133333207084 
-0.178391181372934 
-0.2252129637706765 
-0.2181247428869937 
-0.00609715783930475 
-0.02781851303726168 
-0.04449456868931301 
-0.0765303828755087 
-0.2951106184902301 
-0.6679360847598096 
-0.7035486937037977 
-0.1436547766916084 
-1.014682799836468 
-2.710283420412941 
-2.201312664295506 
0.2897617806349819 
-1.143446234093071 
-6.368396722248189 
-0.106862706142799 
-0.6983070132585945 
-2.118548779049241 
-3.14548388868586 
-2.012546230806543 
-1.2912918135531 
-2.821500018720619 
-0.1565890373712578 
-0.5911378358630467 
-0.6081917952193588 
-0.1263562951317969 
-1.056018242013048 
-2.472532077343228 
-3.351538260542345 
-0.001955547006169412 
-0.01607751361596512 
-0.05699386385435035 
-0.09829911684030437 
-0.1373719135281752 
-0.17224096985086 
-0.1536284448657288 
-0.003971408303815261 
-0.03411470071052068 
-0.1331146100827746 
-0.279704006127735 
-0.4278405185003711 
-0.8694132563521607 
-1.494621318109665 
-0.01139953656264896 
-0.1102753204024683 
-0.3866165493379669 
-0.4267385064398501 
-0.183208017247042 
-0.7524753219421432 
-1.869705450234102 
-0.001272049487331417 
-0.01196050027204287 
-0.05393709347752652 
-0.1772920631465638 
-0.4419757643610182 
-0.4346137969118532 
0.1153688654733591 
-0.004099778409117811 
-0.04623495366980836 
-0.2259561476098672 
-0.5782325354804859 
-0.8780976136526774 
-0.792974788030853 
-0.2977116358775301 
0 
0 
0 
0 
0 
0 
0 
-0.004447204392082633 
-0.05229188267256115 
